{"layers":[{"out_depth":3,"out_sx":32,"out_sy":32,"layer_type":"input"},{"sx":5,"sy":5,"stride":1,"in_depth":3,"out_depth":16,"out_sx":32,"out_sy":32,"layer_type":"conv","l1_decay_mul":0,"l2_decay_mul":1,"pad":2,"filters":[{"sx":5,"sy":5,"depth":3,"w":{"0":0.2516100892458435,"1":-0.3455076489075002,"2":-0.24684309839054408,"3":0.14708067269355615,"4":-0.022297215484401712,"5":-0.12051937611929057,"6":-0.12178488960237847,"7":-0.13978410809278,"8":0.009925276185515069,"9":-0.10369966919042857,"10":0.27318782261951313,"11":0.07246701797351873,"12":-0.17171670406588765,"13":0.060191287013791187,"14":0.20763666438302797,"15":0.3867539115500717,"16":-0.41103942314122854,"17":0.011582380955727025,"18":0.19360011156596693,"19":-0.1950812535986205,"20":-0.18952719587789846,"21":0.14012780069674544,"22":0.08939791602144694,"23":0.2472790703069162,"24":-0.03616416240714859,"25":0.030305059453838875,"26":0.12645520015130432,"27":-0.17377091343816572,"28":0.1408762244817759,"29":0.131628333864067,"30":0.3537705220878725,"31":-0.25169879163297276,"32":-0.06012696246832979,"33":0.0741422428118967,"34":0.016028321642298077,"35":0.06443940182404943,"36":0.004231198834529951,"37":-0.12903025017715164,"38":0.111327084928321,"39":0.2801809594291449,"40":-0.01904624557201896,"41":0.1196130461852947,"42":-0.00413015463049065,"43":-0.013980625298965127,"44":0.1275133018114968,"45":0.1252064080465137,"46":-0.33011076441804343,"47":-0.036627983873742095,"48":0.42379576825678084,"49":-0.23657049660113724,"50":-0.1571158184738658,"51":0.042689349332606465,"52":-0.04663845125184039,"53":0.10113957285958716,"54":0.11124148709308619,"55":0.12538545239285867,"56":-0.018339666897641715,"57":-0.15183102177251367,"58":-0.030876624198270076,"59":-0.07334343108397812,"60":0.05649393217264116,"61":-0.12779047253673456,"62":-0.02901516321946401,"63":0.11644255978471435,"64":-0.15632203349913976,"65":-0.093099377105028,"66":0.09823672051903226,"67":-0.023409208436551195,"68":0.012865083127583835,"69":-0.05669338728708314,"70":-0.09551876206572181,"71":0.045443362984456386,"72":-0.052312262351189326,"73":-0.0195150444477642,"74":0.1726848805771181}},{"sx":5,"sy":5,"depth":3,"w":{"0":-0.07971814350696242,"1":-0.23304774996679933,"2":-0.11140742789045495,"3":-0.3433324426389699,"4":-0.15043805184795914,"5":-0.18793489747362188,"6":-0.24005040052144774,"7":-0.19200974896015255,"8":-0.11679483367260264,"9":-0.30281302880370387,"10":-0.07015520968164914,"11":0.030711349800335304,"12":-0.06473016668532346,"13":0.21280564485991665,"14":0.18989243684686033,"15":0.1780770689455647,"16":-0.1713245431545075,"17":-0.16251701095510332,"18":0.044819653041256464,"19":-0.1466711680254654,"20":-0.025990393178805426,"21":-0.4478153448313757,"22":-0.0475325116516099,"23":0.15620049233654465,"24":-0.18447490160566407,"25":0.16931455930312175,"26":-0.15531983753137565,"27":-0.0044918169539017935,"28":0.21240527540957135,"29":0.15721096347121996,"30":0.42639178156444546,"31":0.033960110712705396,"32":-0.036394063918317066,"33":0.12444821889509827,"34":-0.37202982617988845,"35":-0.1721752786959512,"36":-0.12698511766462495,"37":-0.01977715420411752,"38":0.055691944190392126,"39":-0.13682106330402694,"40":-0.06715582776154827,"41":-0.043763556194495144,"42":-0.32845881987204223,"43":0.09536357177180108,"44":0.03567402435894366,"45":0.14517030943472337,"46":-0.07647339395717788,"47":-0.03112074791280712,"48":0.276373361574874,"49":-0.1257758006870399,"50":-0.07628078159330658,"51":0.20641109907893915,"52":-0.11728404470672164,"53":-0.0326796610067521,"54":-0.05311998815888533,"55":-0.020456847118259777,"56":0.09430647612187044,"57":-0.10561590479504737,"58":0.09738952397830977,"59":0.26980784943536906,"60":0.3409376285316532,"61":0.03911578126680782,"62":-0.1328844711949843,"63":0.16753121992720735,"64":-0.07848814506371386,"65":-0.15061768291981334,"66":0.13642877613148036,"67":0.1505859425547455,"68":0.026860215478320935,"69":0.002005154764289317,"70":-0.005225139705616956,"71":-0.0033434096285423626,"72":-0.29833652662832383,"73":0.04184446613022391,"74":0.10698500906227659}},{"sx":5,"sy":5,"depth":3,"w":{"0":-0.0549204671997424,"1":-0.043182949451852484,"2":0.06751967465125587,"3":-0.16929493223429357,"4":-0.20420769267446953,"5":0.05341654371981008,"6":0.03512723339497617,"7":-0.1869196235116758,"8":0.06234721587681694,"9":0.23510849472840634,"10":-0.2176024095143402,"11":0.262655410826666,"12":0.06070263932157083,"13":-0.08817327670208443,"14":-0.12999993892125913,"15":-0.10977362210928751,"16":-0.204630555818412,"17":0.27394315565329425,"18":0.018890626346380897,"19":-0.053148100475574944,"20":-0.1355445594190045,"21":-0.13156600014665326,"22":-0.05396886149148226,"23":-0.028381840618882236,"24":-0.15313578039700695,"25":0.07083678247618184,"26":0.11790337209157484,"27":0.019230280729822836,"28":-0.09761714123249585,"29":0.10731257424355792,"30":0.03730133266938011,"31":0.14989039255709427,"32":-0.006163507598717715,"33":-0.10362572983152202,"34":-0.05722582501818199,"35":0.24123111535952413,"36":0.15115541048692094,"37":-0.16355233214561368,"38":-0.08562149745100532,"39":0.07400110581425101,"40":0.046383137476853985,"41":0.06333293023268101,"42":0.00019901162465348602,"43":0.06809739505405948,"44":0.07219394634617202,"45":-0.008793918573935026,"46":-0.21975419518752734,"47":0.04309580997867401,"48":0.182126813699667,"49":-0.23087047938479094,"50":0.22300031280613275,"51":0.15254176682014806,"52":-0.3050322563078892,"53":0.31943470227772097,"54":-0.008021020529053517,"55":-0.05133034920871611,"56":0.08261899503076427,"57":0.04232593638125425,"58":0.025487799297744466,"59":-0.032791562489112164,"60":0.000051762333435606935,"61":-0.11217210198339402,"62":0.2019980446129096,"63":0.19301070674510168,"64":-0.1276910072607309,"65":-0.10253827447364819,"66":0.011166758798273104,"67":0.003109136142641083,"68":0.08381767271757622,"69":0.1607106727879036,"70":-0.07310435971216885,"71":0.09860717808681504,"72":-0.009390615159424546,"73":-0.1392799133026103,"74":0.043482613883649344}},{"sx":5,"sy":5,"depth":3,"w":{"0":-0.014872077024992493,"1":-0.12017674454558779,"2":-0.21038731286842852,"3":0.04512526426717345,"4":0.09909297146333436,"5":-0.15757609846216297,"6":0.1241942599384293,"7":0.020148434291600608,"8":0.14267628220992087,"9":0.00811952067137294,"10":-0.0006170394018768627,"11":0.24345654123789187,"12":-0.08687468983283296,"13":-0.09620704773981215,"14":0.20448410527226196,"15":0.1387954296816926,"16":0.017349932308192945,"17":-0.07353685039696053,"18":0.25269505813316645,"19":0.07219770587336295,"20":-0.23140584408634604,"21":0.10615671751196662,"22":0.09867176210967699,"23":-0.10860438285470438,"24":0.010544819722871386,"25":0.02264326302903962,"26":0.17568853320277242,"27":0.10267942341239092,"28":-0.02574132240236221,"29":0.14369611836125523,"30":0.2643154540656558,"31":0.06873100972915938,"32":-0.2977317675234992,"33":0.3866369615720041,"34":0.2863794833937927,"35":0.03664342667240416,"36":0.18669792340235136,"37":0.028455734955873092,"38":0.050650909496496185,"39":-0.2250508699674112,"40":-0.24040798176567565,"41":0.28356049154140983,"42":-0.17510042469463705,"43":0.03883001136661525,"44":-0.024348856079595728,"45":0.4078225725854077,"46":0.6842236607105732,"47":-0.1783217508394168,"48":-0.09338889668794297,"49":0.0644628870635284,"50":0.05499393475397071,"51":-0.2750539910719734,"52":-0.22185745913604293,"53":0.18468733140717672,"54":-0.19323301908557394,"55":-0.09741548263744719,"56":0.1397487780051245,"57":-0.03212904987321169,"58":0.022378681550575433,"59":0.39590088508686333,"60":-0.02351789569470968,"61":0.13416712637210573,"62":-0.23307124979073635,"63":-0.4856256640542137,"64":-0.06500712418772794,"65":-0.14669694732287436,"66":-0.40925912534560976,"67":-0.33881682028501753,"68":0.2225155228550936,"69":-0.20597862123914915,"70":-0.10480213704817007,"71":0.20986180296074605,"72":-0.04108599954978957,"73":0.20776475785027884,"74":0.18830057569589612}},{"sx":5,"sy":5,"depth":3,"w":{"0":-0.3127931092898769,"1":-0.08004908384663045,"2":0.02149528388783673,"3":-0.028743885327946708,"4":-0.21638912436737862,"5":-0.08517881300896832,"6":0.06855612368636263,"7":-0.2618801460991356,"8":-0.0028828584307354476,"9":0.020840477192522907,"10":0.13922049607301248,"11":0.29328061969120367,"12":0.0671509334694024,"13":-0.051244993749343444,"14":-0.10435950743323784,"15":-0.20052027802145195,"16":-0.09376067640260868,"17":-0.13802304196794382,"18":0.13238540927668457,"19":-0.31323522667237497,"20":-0.32033197458159257,"21":-0.17979426343198948,"22":-0.0017278463210734652,"23":0.10828987266526639,"24":0.1878514328192572,"25":-0.05636180769202358,"26":0.2503174512925991,"27":0.13662361740744636,"28":0.21288215970532512,"29":0.307009794627921,"30":-0.21821536212149886,"31":-0.31242383065121737,"32":-0.02238698230950937,"33":-0.13946141420401362,"34":-0.18696580840108604,"35":-0.15165062442913546,"36":-0.2315191695916396,"37":0.028887105743545718,"38":0.3603421333420104,"39":0.054191951292322425,"40":0.02323818737383536,"41":0.2493782403798085,"42":0.2626810878169237,"43":0.01709949983912157,"44":0.45214664680936323,"45":-0.26020114401587285,"46":-0.15012655685194407,"47":0.1071683483633088,"48":0.05364837220158028,"49":-0.17190927098672712,"50":0.11467018145391891,"51":-0.08757465075615185,"52":-0.22580452642412793,"53":0.23161707506586163,"54":0.027451146434142103,"55":0.20033148558443353,"56":0.22695394277259232,"57":-0.05521419920599217,"58":-0.20462242236637246,"59":0.29207796328795455,"60":0.015741508428883836,"61":0.01406081474038802,"62":-0.024241180213767886,"63":-0.07387412933317458,"64":-0.1267924306593354,"65":0.1279697013014243,"66":0.007835742742526613,"67":-0.2360753509770007,"68":0.3238868607033641,"69":0.13953496073637567,"70":0.023696417460312594,"71":0.4296206450857958,"72":-0.12689214624571143,"73":-0.16101781462382586,"74":0.29771732496359615}},{"sx":5,"sy":5,"depth":3,"w":{"0":0.20970409035506932,"1":-0.039399964861935415,"2":0.24497001370470778,"3":-0.054842282580857576,"4":-0.2776680280103153,"5":0.1009730144321932,"6":0.0029150243060403515,"7":-0.2818570796672896,"8":0.16509225826256155,"9":-0.06801132709853523,"10":-0.25062743613364885,"11":0.25411828560100763,"12":-0.08690488135219904,"13":-0.3210461167485056,"14":0.11720789991448838,"15":0.013617593954327165,"16":-0.05696316758282191,"17":0.3092930360856492,"18":0.0634706294560797,"19":-0.21296933238700155,"20":0.008060378500699697,"21":-0.08941490712347071,"22":-0.27838768084927346,"23":0.05375145352257099,"24":-0.09909732227532381,"25":-0.2738330993199086,"26":0.10370919449976869,"27":-0.08761841666903233,"28":-0.002098350393889662,"29":0.17687806074509618,"30":-0.04547470526101116,"31":-0.12024516864548729,"32":0.10680438545843629,"33":-0.24654084244068308,"34":-0.01664044736387984,"35":0.12274812014704944,"36":0.057465596440157106,"37":0.04593807384575163,"38":-0.08726718644204343,"39":-0.24723737020437037,"40":-0.01784496944971047,"41":0.02262425088824886,"42":-0.04015175136167846,"43":-0.29205281859526033,"44":0.03823757563124746,"45":0.0457658507683937,"46":0.08219861149997026,"47":0.08834114627613825,"48":0.1235974273110493,"49":-0.25473764429231177,"50":0.1374241479486139,"51":0.18762798526958388,"52":-0.08037172176553754,"53":0.06334033575436522,"54":0.12498009105313919,"55":-0.07179765362944944,"56":0.05004017753422449,"57":0.07452568300993083,"58":-0.1602645505146963,"59":0.19327340609662363,"60":-0.22759667219156302,"61":-0.12176720582962448,"62":0.039406689875846355,"63":-0.07567164275039695,"64":-0.28377313548698146,"65":0.16413856353294878,"66":0.0037803019790805473,"67":-0.06320056694340766,"68":0.23851389779826432,"69":-0.00012390400702163304,"70":0.012428165678352426,"71":0.20572528157917225,"72":-0.05783784950066735,"73":-0.026084030753561967,"74":-0.10195147920423439}},{"sx":5,"sy":5,"depth":3,"w":{"0":-0.12400104841074258,"1":-0.10395583045596929,"2":0.18767488113146955,"3":-0.12818740631322872,"4":-0.058976993481631115,"5":-0.08962518916854272,"6":-0.0633187862556997,"7":0.06117861270521335,"8":0.13743825713274244,"9":-0.26588144356445714,"10":-0.1752186753227185,"11":0.24963427456395065,"12":-0.32524753312673543,"13":0.056721233116822124,"14":0.24015424837594818,"15":0.003286747196004318,"16":-0.2558040580670678,"17":-0.005477234185373708,"18":0.20916833524431955,"19":0.15734290641686105,"20":0.0881904922655314,"21":0.10744387087785918,"22":0.35312424181501584,"23":-0.2232687807498407,"24":0.04611704346604885,"25":-0.04095123058110057,"26":-0.0583605698922208,"27":-0.14757031903377124,"28":0.08076067142605046,"29":0.09687193961249255,"30":-0.027337098194687808,"31":-0.3266012334884862,"32":-0.09630356619680128,"33":0.06381667140809762,"34":0.22118253374962502,"35":-0.30777439061853346,"36":0.2910175276668171,"37":0.38339714902445493,"38":-0.04840326364844635,"39":-0.030628419493896036,"40":0.4902283290770475,"41":-0.10610698973988565,"42":-0.09435561498937384,"43":-0.03181887658405018,"44":-0.04236844515010388,"45":-0.04297860065193173,"46":-0.07766487431157192,"47":-0.04112918037150035,"48":0.0559977318435089,"49":0.19543955951963382,"50":-0.22603282188744234,"51":0.23796602662388153,"52":0.3567108410291888,"53":-0.1482972240525195,"54":0.0588516017284709,"55":0.22854151990035457,"56":-0.14094321085325726,"57":0.09086846120331574,"58":-0.14802581925403405,"59":0.07657832189092761,"60":0.018144391574971903,"61":-0.3141743895190097,"62":-0.08690757570851289,"63":-0.44231669834636117,"64":-0.2617955800245298,"65":0.008221115907468686,"66":0.14030035258131543,"67":0.10024342018210929,"68":0.06101122788342928,"69":0.13908514027335658,"70":0.2923976864509834,"71":-0.25445311068887744,"72":-0.04457575101130066,"73":0.1471229217216138,"74":0.11955984320794796}},{"sx":5,"sy":5,"depth":3,"w":{"0":-0.060128519249278076,"1":0.10888046491447427,"2":0.26053989922697673,"3":0.03990117219832094,"4":0.32432776616122655,"5":0.24452854433798332,"6":-0.16478020339580882,"7":-0.018985165070142328,"8":0.12883249654147627,"9":-0.10842166076086783,"10":-0.11816242562940416,"11":-0.3539902410869724,"12":-0.4093884827013856,"13":0.0006872009815331395,"14":-0.03834442329410499,"15":-0.12683100871671216,"16":0.006292020144064683,"17":-0.017140111409166634,"18":0.29604093174384083,"19":0.13265186316088154,"20":0.33316167088601073,"21":0.22556570627636457,"22":0.2215279753815834,"23":0.27070459877521735,"24":-0.055928958957604795,"25":-0.20756944245410397,"26":0.09217465646881907,"27":-0.1562565436842686,"28":0.04111822598435823,"29":-0.24250175342326744,"30":0.12850422804948125,"31":-0.06560155532498035,"32":-0.13494291198320352,"33":0.07326107394403421,"34":0.0360757728302161,"35":0.10077311608731912,"36":0.27599123223903027,"37":0.18273913740653058,"38":0.4743856908661112,"39":0.0602324195138783,"40":-0.06802593199226376,"41":0.3870573820803756,"42":-0.0424348565667568,"43":-0.1505211878147196,"44":0.1238975886515655,"45":-0.1343490907836329,"46":-0.36258645956984487,"47":-0.10733999677585672,"48":0.019238276361876177,"49":-0.2287759879869887,"50":-0.15941796696309699,"51":0.10716221294758578,"52":-0.1620920734629243,"53":0.03944566083809175,"54":0.17846018080616569,"55":-0.17352823193617092,"56":0.024578938563811083,"57":-0.07166663637330946,"58":0.05431230149992896,"59":0.46218497697889316,"60":-0.03783426487926069,"61":-0.05506543214010754,"62":-0.08742800017208578,"63":0.05491038578957508,"64":-0.37125367290056355,"65":-0.04471401608582214,"66":0.07624211947474795,"67":-0.36748585014594637,"68":-0.013948924574813054,"69":-0.06071106200477736,"70":-0.18106944387792956,"71":-0.1755392692813842,"72":-0.09390598206605252,"73":-0.0005768608443391178,"74":0.03910624306978804}},{"sx":5,"sy":5,"depth":3,"w":{"0":-0.08334834422007387,"1":0.28542208506180816,"2":0.12121760433926757,"3":-0.1220940492334067,"4":0.15759297224958443,"5":0.10880421101839366,"6":-0.016067819104407195,"7":0.5323843539297202,"8":0.1848090524071019,"9":0.07189648544244491,"10":0.047884715912208616,"11":-0.03418508423899182,"12":0.020246440022624112,"13":0.11920121266984182,"14":-0.2359732933142775,"15":-0.3182010795660361,"16":0.13203412506859954,"17":-0.03633428805860686,"18":-0.02293143808975987,"19":0.14489958690132723,"20":-0.017674080347383308,"21":-0.2637082760056373,"22":0.21475070632751891,"23":0.03207229159480521,"24":-0.061979135588984505,"25":0.11724089433644218,"26":-0.1393976846891804,"27":0.07364705467709079,"28":0.14721009856417866,"29":-0.3042100988317792,"30":-0.2826138380504642,"31":0.12910930050817643,"32":-0.0038653370579447895,"33":-0.1238152805766254,"34":0.09105364411128626,"35":0.21226206032500583,"36":-0.2067999090002455,"37":-0.01975279113971334,"38":-0.1816615684957194,"39":-0.2229512535422329,"40":0.19088185612739977,"41":-0.02243043714272612,"42":-0.2633323540211265,"43":0.16769170091904526,"44":0.002146513902812834,"45":-0.3071747724641266,"46":0.0776571833010642,"47":0.1020724045942499,"48":-0.21561177887785138,"49":0.045428342070592466,"50":-0.017123967623722414,"51":-0.24833199035715023,"52":0.3809234816507218,"53":-0.043310690622562896,"54":-0.383006078928901,"55":-0.1740966478748478,"56":-0.03520540483523114,"57":-0.33443025158043715,"58":0.22525307810597348,"59":-0.011920049700617491,"60":-0.22094416327008481,"61":0.15576425411740713,"62":-0.030444519072127446,"63":-0.2406821066236506,"64":-0.05360400465391162,"65":-0.06115803267423712,"66":-0.1185618894913754,"67":0.1528944221200247,"68":0.052472065264610734,"69":-0.15103536235223738,"70":0.22633038260516228,"71":0.07158900422355406,"72":0.00563614547625814,"73":0.25545095816896884,"74":0.0737822632787478}},{"sx":5,"sy":5,"depth":3,"w":{"0":0.03037267980950595,"1":-0.03033981384162202,"2":0.17934225089021139,"3":-0.04738342140493315,"4":-0.16767817375185426,"5":0.08440294435654344,"6":-0.09176520664178024,"7":-0.0459532020545802,"8":-0.037252403269990436,"9":0.01616958103825324,"10":-0.11306348453158327,"11":0.1187187752192746,"12":0.25076352052184986,"13":-0.07919205027964198,"14":0.34961594716858285,"15":-0.06672281487864878,"16":-0.08257593269537533,"17":0.33567853595330555,"18":-0.018292947380473355,"19":0.021077388782810305,"20":0.07147557355006509,"21":-0.17913542652498396,"22":-0.11277101886273007,"23":0.2530167485962664,"24":0.2716698084587068,"25":-0.22399954631209382,"26":0.19272815883615216,"27":0.23509065506390325,"28":-0.0699015843637061,"29":0.23760802002985595,"30":-0.027786321829863805,"31":-0.19341353551872173,"32":-0.0195704230683951,"33":-0.2524025803712069,"34":-0.09749651218919295,"35":0.07320113786524574,"36":0.05775360374105987,"37":-0.061757374401912944,"38":0.09268558842321879,"39":-0.11747043101611555,"40":0.04946056869748025,"41":0.036784764919647044,"42":-0.008486146572881222,"43":-0.09351133349002928,"44":0.25260377263445416,"45":-0.15004849515431892,"46":-0.07509419553457242,"47":0.30742834752290754,"48":-0.07054097588324315,"49":0.030978826819701922,"50":0.13019658732292158,"51":-0.06976705608011541,"52":-0.1954615818434871,"53":0.115454566718633,"54":-0.04065733032259635,"55":-0.15212316409315219,"56":-0.10958641978527953,"57":-0.14990320356286244,"58":-0.15016063230811336,"59":0.06603153119536923,"60":0.06888132338376109,"61":-0.02892546180829694,"62":0.32729293176272506,"63":-0.00442247974334764,"64":-0.017208313143164903,"65":0.1426951535264008,"66":-0.03323210844364834,"67":-0.010910084739566192,"68":-0.0005553784440502189,"69":-0.04573004869825259,"70":-0.10031385191845084,"71":0.19127922247616258,"72":-0.15329140940416566,"73":-0.16604064491465825,"74":0.25992802044083174}},{"sx":5,"sy":5,"depth":3,"w":{"0":0.033408932922822494,"1":0.09360433586674352,"2":0.11156896347726497,"3":-0.08468977083934014,"4":-0.07537196857396862,"5":0.0716923527739331,"6":0.17181034024925715,"7":-0.29066293653155373,"8":0.03761561518015214,"9":0.2725000720113447,"10":-0.06989047607834227,"11":0.17330541740828467,"12":0.33163588560377383,"13":-0.02389310371846428,"14":0.2502420564511887,"15":-0.024296753186715588,"16":0.22505706621204757,"17":-0.05748435433133256,"18":0.026969757228988086,"19":0.002299849763314227,"20":0.24262282708504182,"21":-0.0072907702332861415,"22":-0.36243644284403204,"23":0.22909566732561484,"24":0.09992026284593075,"25":-0.3473834876782088,"26":0.03543800694567217,"27":-0.0758709400639994,"28":-0.0551910255730121,"29":0.2936122025402589,"30":0.0160305358434438,"31":0.23509508930779047,"32":0.2278728576835159,"33":0.10836168640710495,"34":-0.2651618593824687,"35":0.19727397852493606,"36":-0.11358605826692494,"37":-0.08121968551999795,"38":0.18235345138350958,"39":-0.05682318272718662,"40":0.004421550567704238,"41":0.05972929388071352,"42":0.09703177994556095,"43":-0.1513854644582843,"44":0.1601740562436492,"45":0.07070836629677502,"46":0.26535568827427497,"47":0.12250654317720247,"48":-0.3437797088346336,"49":0.0927048787945242,"50":0.2580404721716792,"51":-0.221008801230914,"52":-0.039262375317084104,"53":-0.05536510219118382,"54":-0.2956927122211265,"55":-0.11020469480732295,"56":-0.2913275355885985,"57":-0.02455393883226728,"58":0.31310815617720883,"59":-0.22922396178852228,"60":-0.1868990398478667,"61":0.1811210425801586,"62":0.19858215642433535,"63":-0.28937972008627,"64":0.04091105660491512,"65":-0.00966291547368464,"66":-0.3395253340312709,"67":-0.1753935251807302,"68":-0.25070036535791795,"69":-0.26502328971024824,"70":-0.13191136358927547,"71":-0.21888061350259067,"72":-0.18082519671884176,"73":0.0635976662048515,"74":-0.2256333572888073}},{"sx":5,"sy":5,"depth":3,"w":{"0":-0.04223320503937053,"1":0.036244791470403576,"2":0.20367413277280616,"3":-0.02133042263058758,"4":-0.048147188419641516,"5":0.19949938977880613,"6":0.04529368725790056,"7":0.1099297746913179,"8":0.004040711077663455,"9":0.10907573234575049,"10":0.12388361257745058,"11":0.19674747282052377,"12":-0.1578246302090884,"13":0.052540107652832714,"14":-0.005304158767255513,"15":-0.18108192971515666,"16":-0.16184728906497217,"17":0.13927335412754863,"18":-0.4057473405920621,"19":-0.2448053474691492,"20":0.3124663305827939,"21":-0.02485756377346949,"22":-0.2367474396056061,"23":0.04626857390398862,"24":-0.1827207183060685,"25":-0.058182165567747045,"26":0.16438776318783715,"27":0.07625820295148009,"28":-0.044365396236401525,"29":-0.18853385522398503,"30":0.049858626323016346,"31":0.05967036344321026,"32":0.3247781872589573,"33":-0.24324314797278704,"34":-0.10857588725635885,"35":0.21096981793717168,"36":-0.1985679887676126,"37":0.04381341182484712,"38":0.03628330410339077,"39":-0.08076430560171483,"40":0.04220368995800087,"41":-0.13357629611937713,"42":-0.05139756683637922,"43":0.34025067774149526,"44":-0.1658325313391388,"45":-0.03503531213134996,"46":-0.056888815759478954,"47":0.1254748477499359,"48":0.05954075124457729,"49":0.23567441078325707,"50":-0.10260550346061889,"51":-0.016283742234821794,"52":0.43195302066636737,"53":-0.16399803350058056,"54":0.1426812470863878,"55":0.1108258544111491,"56":-0.15991357451033772,"57":0.09026172806820264,"58":0.12276271157726687,"59":-0.27524104462793353,"60":-0.22916723397233385,"61":0.19461551801557547,"62":0.05493322788865589,"63":-0.0082349044190012,"64":0.21662603258041926,"65":0.08396876091881474,"66":0.1710377113935224,"67":0.21993106882992225,"68":-0.16907582293757162,"69":0.10277278668969685,"70":0.255900569642815,"71":-0.16387630414778306,"72":-0.3667798440542921,"73":-0.05175447289768963,"74":-0.15320673217860384}},{"sx":5,"sy":5,"depth":3,"w":{"0":-0.16208743885141186,"1":-0.027757385702483126,"2":0.0530478012328585,"3":-0.10014343322970727,"4":-0.20127990762931294,"5":0.09552499479825186,"6":-0.0011117696943527468,"7":-0.14954135100986038,"8":-0.03412708360403728,"9":-0.164257920820701,"10":-0.20059008231616454,"11":-0.058747097017205825,"12":-0.20183493780166728,"13":-0.20659580968061078,"14":-0.10907501292619452,"15":-0.2740179943029867,"16":-0.19888680476243908,"17":-0.08438744350543663,"18":0.10628148338989006,"19":-0.03773145733065908,"20":-0.004175796265915403,"21":-0.10062579995419266,"22":-0.09239597450469236,"23":-0.34000705207400894,"24":-0.027775626219725055,"25":-0.1255251439149081,"26":0.04403261388809385,"27":-0.07685966976311866,"28":-0.13213385502891473,"29":0.08427249840958234,"30":-0.1377916373136865,"31":-0.16359899751532642,"32":-0.055172026490246336,"33":-0.052738456565504015,"34":-0.24734275824583968,"35":-0.03098911350516146,"36":0.09426289195535269,"37":-0.04415098272728641,"38":0.08122316671197316,"39":0.07335073392488063,"40":0.2904095370532016,"41":0.08040379395510736,"42":0.21440967478458564,"43":0.5086552949043415,"44":0.3524856434524604,"45":0.02791885026540448,"46":-0.025555820938236707,"47":0.13937081769507595,"48":-0.19348997038898527,"49":-0.04131556629730888,"50":0.10306393073748282,"51":0.3924784666231528,"52":0.2501917504915163,"53":0.05663389493443948,"54":-0.1806728772770863,"55":0.24398763719276736,"56":0.14040319403978546,"57":0.2073057135434273,"58":0.192123157409847,"59":-0.19851041785096765,"60":0.08303490884123503,"61":0.056145674413207974,"62":0.2283259025340744,"63":-0.058803906687352,"64":0.3484901938779834,"65":0.29712224733555154,"66":-0.04255626818677002,"67":-0.07903958856358213,"68":0.21139178206504633,"69":0.059160010655450415,"70":0.1353105920549291,"71":-0.1910363220606676,"72":0.19423983717738594,"73":0.1113926297151669,"74":-0.40002131710017935}},{"sx":5,"sy":5,"depth":3,"w":{"0":-0.02239746501394677,"1":-0.016685851439062805,"2":0.20963343695091574,"3":-0.11933737413509446,"4":-0.08949814877206456,"5":-0.1088145402501144,"6":-0.17707183173707086,"7":-0.08577191482578009,"8":-0.14643284158866426,"9":-0.2743146570877819,"10":0.03213776791169377,"11":-0.35377452483682625,"12":0.048977372826903336,"13":0.3869503390062014,"14":0.01677238391192289,"15":0.09248363905693664,"16":-0.25207584748669465,"17":-0.07793772976637273,"18":0.09181107268672391,"19":0.0013264357117475799,"20":0.32723998218563105,"21":0.0034455952308466266,"22":0.003544314571967693,"23":0.12153696487717593,"24":-0.19038252282557977,"25":-0.1175365303038025,"26":-0.17971497767247732,"27":0.06414327161403621,"28":0.07479705945859036,"29":0.046869126614245374,"30":0.2484263241475054,"31":-0.12024228372955287,"32":-0.054351218582396214,"33":0.13747244349340923,"34":0.24686305966066444,"35":0.3406683659485605,"36":0.009170246704559319,"37":0.05449185608960762,"38":0.2752762614882865,"39":-0.07303671643341775,"40":-0.3842262580543849,"41":-0.3133141733634666,"42":-0.044803230395078636,"43":0.013035196012246213,"44":-0.31743520391640784,"45":0.04209495411947195,"46":-0.027428490557173814,"47":0.18475429738345894,"48":0.2901916230519321,"49":0.14824294775416183,"50":0.34197170708475944,"51":0.08990162408620321,"52":0.37872786598632646,"53":0.24799364428236878,"54":-0.2925039311577996,"55":-0.1837857094089926,"56":-0.21293610150549763,"57":-0.05848493959188723,"58":-0.04728636790454103,"59":-0.05559613311854489,"60":0.07218348519855115,"61":-0.2592883110685833,"62":0.20864168999566554,"63":0.11619767763160689,"64":0.022911731768563506,"65":0.32067460746840504,"66":0.129378319268415,"67":-0.06997156019486638,"68":0.16424866816601005,"69":-0.0788793498309674,"70":0.010394645759731954,"71":-0.09140114868260191,"72":-0.03513486042884915,"73":-0.06096226052801635,"74":-0.11518635788130774}},{"sx":5,"sy":5,"depth":3,"w":{"0":0.3803761314743504,"1":0.2984976761084798,"2":-0.026577130519287662,"3":0.28150010328275293,"4":0.03966459277054271,"5":-0.14654298693144985,"6":0.34981931132532174,"7":0.07020134285087522,"8":-0.041354742278607276,"9":0.03324500040433804,"10":0.08534209552792704,"11":-0.027453705478188945,"12":0.1273925013198856,"13":0.005499054303276102,"14":-0.10263206737045413,"15":0.2886633182631649,"16":0.0679327875730794,"17":0.07255676049255615,"18":0.2273972830674093,"19":-0.089791392214726,"20":-0.11378500621787983,"21":-0.034197551298723906,"22":-0.19943049988255357,"23":0.14757930003149172,"24":-0.23580053865267697,"25":-0.15768606618099726,"26":-0.1638715723323925,"27":0.06092397872958578,"28":0.06676075385866999,"29":0.09932448748932367,"30":0.05723992574721621,"31":0.05244968202121032,"32":-0.022263712244580788,"33":-0.09675212492733029,"34":-0.26104692355817877,"35":0.10704228288650025,"36":-0.1011939162172706,"37":-0.14323236156911967,"38":-0.05107253859890949,"39":-0.3342730172496039,"40":-0.15775998582629108,"41":0.12351423444139584,"42":-0.24815438246332988,"43":-0.10550533126055922,"44":-0.1048516372494182,"45":0.05053684569708341,"46":0.16445664083621217,"47":0.03493404664973727,"48":0.10991233372812043,"49":-0.09080263037922329,"50":-0.10576986921377203,"51":-0.26657713277111567,"52":-0.22382452644272866,"53":0.1393544271479315,"54":-0.33953170518629777,"55":0.10345894978477965,"56":-0.01833301065642,"57":-0.2759262841538568,"58":0.03657421650759589,"59":-0.090271300406885,"60":0.1827203492144808,"61":-0.053015308806425805,"62":0.05277967453802207,"63":-0.08296320170645388,"64":-0.04010526577624939,"65":0.002685285516228182,"66":0.012598362709300082,"67":-0.057032746651025534,"68":0.014691481621970176,"69":-0.2399127327130525,"70":-0.1258945186798417,"71":-0.18325729957372217,"72":-0.20722764777230548,"73":0.14285190860002397,"74":0.07674817160345682}},{"sx":5,"sy":5,"depth":3,"w":{"0":-0.16484276617709123,"1":-0.07853018364754764,"2":0.2676213524678692,"3":-0.09742425263073468,"4":-0.021752085014694753,"5":0.10239441261144198,"6":-0.03397321668475673,"7":0.11871117754928961,"8":0.011973018695398203,"9":-0.04990708907984315,"10":0.03231938972881592,"11":-0.025413929686045906,"12":-0.330365591805024,"13":-0.00828459016213724,"14":-0.15751674775499994,"15":-0.06252350814142746,"16":0.07822860385155118,"17":0.22721370198492347,"18":-0.19173678319503284,"19":0.09533189016160756,"20":0.12961264111824486,"21":-0.04995624861336311,"22":0.06632167926519268,"23":-0.05962361301140648,"24":0.02735262359933134,"25":0.11330854784532675,"26":0.3676527960752013,"27":-0.061713136356608765,"28":0.1721098915417216,"29":-0.06295799438564333,"30":-0.1634510343116559,"31":0.09007527142265168,"32":0.20423012271359967,"33":-0.18126749681099347,"34":0.21672097489356332,"35":-0.01687378591114606,"36":-0.354912937434447,"37":0.01623780191898052,"38":0.23969066465501276,"39":-0.21806759414732726,"40":0.3349192769384759,"41":-0.03527504256170613,"42":-0.10362779207628958,"43":0.25006153918830315,"44":0.2781528891215946,"45":-0.049825687437297206,"46":0.011352905744201423,"47":0.2498439446485112,"48":-0.16123489211740616,"49":-0.13646134004415147,"50":0.3502164283894046,"51":-0.02253140443957835,"52":0.2254199495935621,"53":0.1310935350102644,"54":0.0005324277258256388,"55":0.048180738609586445,"56":-0.19253733360253117,"57":-0.071924173811535,"58":0.07953307180898779,"59":-0.06125794822778759,"60":-0.27050920821722624,"61":-0.13424344775661007,"62":0.05431120106140374,"63":-0.13291085401035746,"64":-0.07619566730855723,"65":0.06667369214414007,"66":-0.2955955403670695,"67":0.007274080212410579,"68":0.19886581848158968,"69":-0.23115237159604016,"70":0.2760085336620169,"71":0.057785103899550674,"72":-0.009982826791401358,"73":0.07466683210519767,"74":0.08530815744445674}}],"biases":{"sx":1,"sy":1,"depth":16,"w":{"0":-0.3464263278047134,"1":-0.26971053435018966,"2":-0.0008031413220660833,"3":-0.21583769883403628,"4":-0.036647792754068605,"5":-0.1764897724361961,"6":-0.32441073393744835,"7":-0.20072116233493809,"8":0.13681931590290694,"9":-0.20701563800746042,"10":-0.37894463031028053,"11":-0.22365030708062314,"12":-0.36413787738834896,"13":-0.04004055452544214,"14":-0.01490798430758755,"15":-0.11742623323851821}}},{"out_depth":16,"out_sx":32,"out_sy":32,"layer_type":"relu"},{"sx":2,"sy":2,"stride":2,"in_depth":16,"out_depth":16,"out_sx":16,"out_sy":16,"layer_type":"pool","pad":0},{"sx":5,"sy":5,"stride":1,"in_depth":16,"out_depth":20,"out_sx":16,"out_sy":16,"layer_type":"conv","l1_decay_mul":0,"l2_decay_mul":1,"pad":2,"filters":[{"sx":5,"sy":5,"depth":16,"w":{"0":0.039432361996849075,"1":-0.033582065395113526,"2":0.18714957155720713,"3":-0.06416568633319038,"4":0.188203716981477,"5":0.18892494348923808,"6":-0.10315405680866202,"7":0.1324482851664953,"8":-0.1603017522435865,"9":0.10113724275224052,"10":0.029496896431222278,"11":-0.22202972547143415,"12":0.06916072481896586,"13":-0.0000869108847944128,"14":0.0038675835877581663,"15":-0.04867976660280598,"16":-0.12750349089942142,"17":-0.23483422608047483,"18":0.0794543077916923,"19":0.022857839138018615,"20":0.001311235920713305,"21":0.177307941328214,"22":-0.3422572222249881,"23":0.04390204732309783,"24":-0.14338156550469988,"25":0.08410845679443468,"26":0.1164161320814679,"27":-0.08045332193441522,"28":0.010866792744532798,"29":0.16660032195131277,"30":-0.005751154132353886,"31":0.043501586944783184,"32":-0.1758921280072041,"33":-0.1881637928846471,"34":0.05592075674527937,"35":0.005324063415801446,"36":-0.15629077079260256,"37":0.13684938278451725,"38":-0.35381779871213737,"39":-0.1608464061620615,"40":-0.2503589468386043,"41":-0.012309271955006786,"42":-0.016526211091716956,"43":-0.05336098577616189,"44":-0.0009908610778663024,"45":0.03682851884334401,"46":0.09428753513662219,"47":-0.011514498296785176,"48":-0.16790057071696118,"49":-0.04932118501192271,"50":-0.06206665055273515,"51":0.10442105939705405,"52":0.0649764141450914,"53":-0.1807209148870093,"54":-0.12043225075327353,"55":0.047390331230935015,"56":-0.14160655145817785,"57":-0.11730176163090389,"58":-0.1050982276388063,"59":-0.11664010105967479,"60":0.1989189247874826,"61":-0.15427898360557768,"62":-0.09671931170305184,"63":-0.06393100093439064,"64":-0.2031759160856981,"65":-0.002145577862792313,"66":-0.03220912683712059,"67":-0.06948919733183172,"68":0.003653996778804828,"69":-0.14155712291367695,"70":-0.19892571031996067,"71":-0.18715725148606346,"72":-0.07664948745851752,"73":-0.07726465920657867,"74":-0.25795842814275366,"75":-0.18492875065199813,"76":0.08083044619007754,"77":-0.10792527108087713,"78":-0.10632868850354188,"79":-0.2026449231273572,"80":-0.025133647460781634,"81":-0.05070560169767181,"82":0.15440400009182922,"83":-0.061901806043288064,"84":0.15052801809288482,"85":0.12348164843343243,"86":-0.05963121455758448,"87":0.1802363402066907,"88":-0.13204408531174983,"89":0.3441664050915697,"90":0.1150114295765597,"91":-0.1701308540291329,"92":0.09870460900365804,"93":0.11794862452261581,"94":0.018648127304247954,"95":-0.19641826912436833,"96":-0.2681042105306981,"97":-0.22759419168006267,"98":0.026201470214322266,"99":0.12144347622901619,"100":-0.06430527058236919,"101":0.11512731766553097,"102":-0.2761156717815001,"103":-0.04567181447543275,"104":-0.09559643711658952,"105":-0.07962121841940842,"106":0.15731840945562983,"107":0.1004986732386021,"108":0.05723824921097397,"109":0.06600432818549756,"110":0.10487690897249598,"111":-0.12127987683488364,"112":-0.2567754395078558,"113":-0.3688034806319948,"114":0.09085418174917423,"115":-0.03498186843705102,"116":-0.06952081928426833,"117":-0.008355695057168398,"118":-0.3147126677796706,"119":-0.23133303048836992,"120":-0.1494213144631978,"121":-0.14757193237016994,"122":-0.11234049932989573,"123":0.029057136575201988,"124":0.10980463149675206,"125":-0.07501168518763818,"126":-0.005340198676956571,"127":-0.03038978141130816,"128":-0.15807817622227793,"129":-0.16929514179731464,"130":-0.017701887658641457,"131":-0.058355202411981034,"132":0.04399338464533007,"133":-0.19158488259118656,"134":-0.08238315139066484,"135":0.03247386186067607,"136":-0.0545213181689507,"137":-0.12732875810311933,"138":-0.1320797790723738,"139":-0.10557240542844257,"140":0.16871975400234612,"141":-0.1971434534755352,"142":-0.22656675773555351,"143":-0.08271674505875098,"144":0.04821009556134152,"145":-0.07383526798347646,"146":-0.035039168498997714,"147":-0.16101316171573343,"148":-0.06180176244126733,"149":-0.26136298751345355,"150":-0.18466463704126845,"151":0.04744112345442871,"152":-0.07619578239651155,"153":-0.12293099566605085,"154":0.022288096497937674,"155":-0.08972270750589137,"156":0.25545985620142214,"157":-0.12927123482165714,"158":-0.14890236674015156,"159":-0.06050413903648359,"160":-0.12494212252535858,"161":-0.055937910990658965,"162":0.2316357265343171,"163":0.06843018369552135,"164":0.036548593944928605,"165":0.17884623246477732,"166":-0.13321336979418197,"167":0.2057348249225818,"168":0.03915659581940935,"169":0.07785216377869215,"170":-0.009942208601848966,"171":-0.09865595968890403,"172":-0.09342914332251044,"173":-0.1374518130787708,"174":0.05927055151758048,"175":-0.24887498912216438,"176":-0.31090027590216573,"177":-0.31314594499268444,"178":-0.014659723539005453,"179":0.19960939091677124,"180":-0.028129895256965028,"181":0.07174412233261987,"182":-0.2095844773298418,"183":0.13751085402188812,"184":-0.03844525065576252,"185":-0.13224371818298894,"186":-0.022210321736734685,"187":-0.2705608265120056,"188":-0.06750522911445837,"189":-0.11932545942337361,"190":0.17961634113264774,"191":-0.04341483100137209,"192":-0.18697913350193832,"193":-0.18140583265859328,"194":0.04144251606672368,"195":0.06868747642301608,"196":-0.09734602152017142,"197":-0.11120625515843795,"198":-0.23714815573285838,"199":0.04222271084681781,"200":-0.06362607933105884,"201":-0.18315435578704958,"202":-0.2580727703246814,"203":-0.13852193218530093,"204":-0.0080863787287822,"205":-0.1974150715225502,"206":-0.06227353687330301,"207":-0.06667758836945806,"208":0.1768817157516499,"209":-0.028094047648271784,"210":-0.032643473452678914,"211":-0.07705182844574635,"212":-0.11926605159176493,"213":-0.342832611988848,"214":-0.16765050856042346,"215":-0.014382859387546524,"216":0.08812087690491129,"217":-0.28467460451821675,"218":-0.227261349762586,"219":-0.15124482912991502,"220":-0.03173438773271139,"221":-0.2517630778143388,"222":-0.09788832835590351,"223":-0.19275083001817184,"224":0.12941855582921938,"225":-0.052416859151945494,"226":-0.014155420699642322,"227":-0.23787655738520663,"228":-0.21375218937865606,"229":-0.3215208942993563,"230":-0.38063995556491215,"231":0.12293509851439029,"232":-0.02754859994347131,"233":-0.17134339387355807,"234":0.018132602881170024,"235":-0.0819243815949558,"236":-0.04488192696105197,"237":-0.12772626331528392,"238":-0.2026402352059791,"239":-0.1492573885446338,"240":-0.19951597805086396,"241":0.11910811680489643,"242":0.15067183798078007,"243":-0.0989052760332069,"244":-0.04731632034954051,"245":0.08208741879196597,"246":-0.1842030920471969,"247":-0.010241402451212866,"248":-0.004271652962089791,"249":0.04976735843238985,"250":-0.1917859570063604,"251":-0.10953579931436751,"252":0.023645377894485644,"253":-0.18569544017145598,"254":0.07488529376581088,"255":-0.09541913689613787,"256":-0.30153106010455827,"257":-0.023800003331919457,"258":0.04846970000954883,"259":0.09205849547637558,"260":0.050005050168528166,"261":-0.026719599051681222,"262":-0.17039026576546656,"263":-0.15348157693950665,"264":-0.3032537589075477,"265":-0.09205557206298297,"266":-0.05905059361951332,"267":-0.21283372534646927,"268":0.06064118538535135,"269":-0.11145892553843055,"270":0.061925033548891145,"271":-0.11352358232652392,"272":-0.11462605389995886,"273":-0.04544817078691937,"274":0.1290863453021159,"275":-0.18906736203890004,"276":-0.08537681380503896,"277":-0.127088276830189,"278":-0.3056277221765328,"279":-0.21923882032333308,"280":-0.19653484876384492,"281":-0.18127371546490909,"282":-0.11556530803524619,"283":-0.27356477530528195,"284":0.12597006648922415,"285":-0.02951733011739707,"286":-0.15213160530098283,"287":-0.07440446251699433,"288":0.14236575435888538,"289":-0.019234804736521286,"290":-0.03571873231606431,"291":-0.04696287685282235,"292":-0.059520180571238486,"293":-0.29444774166522825,"294":-0.3152550053590113,"295":-0.0321034821485063,"296":-0.217630356329151,"297":-0.13377313289469003,"298":-0.02888849785809212,"299":0.00986097730330663,"300":0.052295081621284795,"301":-0.010227872864282197,"302":-0.13081803225784622,"303":-0.1857691309332869,"304":0.15501647978364788,"305":0.10037243227258455,"306":-0.026867590098263526,"307":-0.024514624693026957,"308":-0.2905419339866582,"309":-0.22760341958536726,"310":-0.30898683765792817,"311":0.12216079909567717,"312":-0.2680193120664213,"313":-0.12978944028466094,"314":0.11477497034083997,"315":-0.17111661568662176,"316":-0.1106030559024605,"317":0.1201577796847984,"318":0.03917518695504438,"319":-0.10363304927716366,"320":-0.08159019776989755,"321":-0.034589819194178514,"322":0.12074125067761739,"323":-0.08489462886674011,"324":0.14554647497505754,"325":0.01916669318236353,"326":-0.20980382890660593,"327":0.012847852812940128,"328":-0.07205581373405442,"329":0.0882798925594017,"330":-0.2586053624627375,"331":-0.1492270203407011,"332":-0.032771382959332324,"333":-0.21560117276598234,"334":-0.08913445600372273,"335":-0.02848950114129858,"336":-0.07742794514636134,"337":-0.032376189339515374,"338":0.18694294881007337,"339":0.12017247604291494,"340":0.31748362647953815,"341":-0.0046066918010861085,"342":-0.19029024405912465,"343":0.008964616762953402,"344":-0.20589926359657557,"345":0.01928133621433299,"346":0.024138927932507888,"347":-0.16868802345985998,"348":0.16077329595279172,"349":0.008120368447393016,"350":-0.1007907685448937,"351":0.014647365254558854,"352":0.05118675839390372,"353":-0.06725342813275678,"354":0.20225751524458205,"355":0.02166406996797607,"356":0.11199791830999287,"357":-0.022880154777600546,"358":-0.18465745782016618,"359":0.13641589979672578,"360":-0.03225653676452047,"361":-0.05851991823271026,"362":-0.05850530158038432,"363":-0.08929369014365046,"364":0.14545037814263664,"365":0.14431969533157912,"366":-0.23031306945215438,"367":0.013645755196665879,"368":0.17078032647632446,"369":0.06080327705617584,"370":0.10640997844560131,"371":-0.00750950437848173,"372":-0.008811355224087372,"373":-0.037652431574132804,"374":-0.16302587011417735,"375":0.11174077924168564,"376":-0.24053056946295415,"377":-0.0004494909322552054,"378":0.09429705659830286,"379":0.14898602916855128,"380":-0.1007279749866387,"381":0.1771696479484916,"382":-0.0017301760869132404,"383":-0.19182489623177323,"384":0.09775502207621029,"385":0.280255609168841,"386":-0.058374248590543874,"387":0.02150500817109471,"388":-0.22332917955039835,"389":0.016630926650349,"390":-0.19234661627855468,"391":0.3033843523931168,"392":-0.16153381238787715,"393":-0.10863824797966747,"394":0.066106098426067,"395":0.037333458253833766,"396":-0.3602387514630021,"397":0.22609460824714814,"398":0.32426574883984116,"399":-0.10904330984153722}},{"sx":5,"sy":5,"depth":16,"w":{"0":-0.3409223117939363,"1":-0.2124176538112984,"2":-0.040527690423327885,"3":-0.11831237059061743,"4":0.17632159277727066,"5":0.19087706219913658,"6":-0.014078434642244586,"7":-0.11730264473169077,"8":0.057508114019945794,"9":0.318126849139405,"10":-0.007569383862153681,"11":0.055668515614343335,"12":0.0703523073137615,"13":-0.2028826010314065,"14":0.21504557251849518,"15":0.10427752022086673,"16":-0.2598212573977384,"17":-0.2306660429221136,"18":-0.032979931108642946,"19":-0.04811081981501222,"20":-0.08557577890690989,"21":-0.10188237732673816,"22":-0.09690701792646157,"23":0.012948291602251043,"24":0.1612622978894579,"25":0.14026061832615053,"26":0.044649076723099375,"27":-0.033479616198810964,"28":0.04882627723171704,"29":-0.06271609463575434,"30":0.19300192566818156,"31":0.03002937106702584,"32":-0.3342481492928276,"33":-0.19063646572244017,"34":-0.09430201472684721,"35":0.057709040774697934,"36":-0.18930762229712297,"37":0.0485439332205443,"38":-0.2059853111881118,"39":0.09751641044057464,"40":0.32024112222416906,"41":0.01680623486904317,"42":-0.06406930065087259,"43":0.04107636573717479,"44":-0.01639042594571665,"45":-0.023773247255612865,"46":0.035270547048009325,"47":0.22564891388540562,"48":-0.29129143572763794,"49":-0.10541960131744012,"50":0.1159189648212856,"51":-0.23990269266343564,"52":-0.22144557045650812,"53":0.04964905539408114,"54":-0.11215885559893204,"55":-0.14158490356374923,"56":0.16688362826680309,"57":-0.04284812534222336,"58":-0.1283979685783194,"59":0.25700290561667066,"60":-0.07264891577437435,"61":0.003399675608877377,"62":-0.1319774666951043,"63":0.15510994124408117,"64":-0.2287966445873998,"65":-0.15950870128179212,"66":0.04417538062090647,"67":-0.027341577725524806,"68":-0.1458013116215237,"69":0.08205259771545428,"70":-0.1189402111168532,"71":0.06461674844258583,"72":0.22339550760272714,"73":-0.03738054375547565,"74":-0.03523023977574423,"75":0.046440011304587706,"76":-0.1939360165996031,"77":0.014240511094390333,"78":0.04824571790709833,"79":0.07420013570209383,"80":-0.06613900805269547,"81":-0.07616211480854321,"82":0.01959327606231436,"83":-0.03250468859139614,"84":0.06645934501850151,"85":-0.02940439694840615,"86":-0.0657146009018707,"87":-0.1371759046429498,"88":0.14829675824440422,"89":0.15377161161485595,"90":-0.08057282142609884,"91":-0.023677957968243016,"92":0.35606864822789397,"93":-0.1628013922715752,"94":-0.03379399194535461,"95":0.09113419969207706,"96":-0.10975725775071289,"97":-0.023165939464562472,"98":-0.036817170055627874,"99":-0.017249276918366904,"100":-0.23781687913249958,"101":-0.027980593133134998,"102":0.04890515874158611,"103":0.037592908828844966,"104":0.11697304798771292,"105":-0.04996786233054565,"106":-0.010214314679633126,"107":0.026893920230874814,"108":0.11990422910455802,"109":-0.10742693102175484,"110":-0.08069847811655353,"111":0.05386935144706296,"112":-0.060813428182250634,"113":-0.06380326003182159,"114":-0.02754507193600924,"115":-0.002672798767248386,"116":-0.201862205983269,"117":0.1331331472245769,"118":-0.03110250176128377,"119":0.14811754956253703,"120":0.18617535848718114,"121":-0.16817030856138632,"122":-0.12705025271051099,"123":0.03811772021822886,"124":0.07658609027733874,"125":-0.1308666195070931,"126":-0.20241919527474236,"127":0.1188798458925521,"128":-0.05047576882284907,"129":0.09274143563509814,"130":-0.03775839865445316,"131":-0.14418895663294592,"132":-0.20407257116805594,"133":-0.01983419925671193,"134":0.014103390106859836,"135":0.06639966717109708,"136":0.12369967589390324,"137":-0.18774113499684475,"138":-0.22379375256963369,"139":0.013876673453739179,"140":-0.0814076383062322,"141":-0.08376482830247084,"142":-0.17526471772595373,"143":0.2793821693385796,"144":0.020869185369258098,"145":0.03241527898635819,"146":0.06040809974898453,"147":-0.04109627277860392,"148":-0.0658358936686985,"149":0.05411655064587496,"150":-0.062143591873177285,"151":0.09021575570251224,"152":0.05906856121685513,"153":-0.10208344118598944,"154":-0.11318506133323782,"155":-0.060166597867337995,"156":-0.04403988139117497,"157":-0.06259421950213633,"158":-0.0055756537136627685,"159":0.10631887446362571,"160":-0.01464433941361314,"161":-0.13845353458693935,"162":0.1025408738201925,"163":-0.10178901207570114,"164":-0.07069418771677259,"165":0.055831226194326566,"166":-0.2106008157228698,"167":-0.05134113043469807,"168":-0.057538474519038,"169":-0.0370860440956001,"170":0.11792425962233552,"171":0.023397088398639698,"172":0.2606842624200119,"173":-0.08104366770245287,"174":-0.02071322400078956,"175":-0.0508389527645483,"176":0.09823382750209719,"177":0.013265805195370108,"178":0.0788912368036359,"179":-0.13312422168578245,"180":-0.03169655744207889,"181":0.04350643419604994,"182":-0.043605703599534584,"183":0.16745565167348786,"184":0.06991495020440887,"185":-0.03771206465388087,"186":-0.08093848053819823,"187":-0.20049633036306502,"188":0.24128057985356588,"189":-0.002840982755362188,"190":-0.14075943911854374,"191":-0.05066048948893621,"192":0.19418342416177023,"193":0.051010939101106004,"194":-0.023874480770633883,"195":-0.21420098620998235,"196":-0.16673944577118227,"197":0.04679766888972062,"198":-0.07244436939132558,"199":0.19128727969618775,"200":0.13888259025692168,"201":-0.16689754243198487,"202":-0.20950751257062625,"203":-0.1538151389232151,"204":-0.030854758128622872,"205":0.05260353161691411,"206":-0.10116560755956708,"207":-0.12214566902338592,"208":0.2137470454384291,"209":0.15244568781104317,"210":-0.009693609939764418,"211":0.002715456426658344,"212":-0.08711951043670854,"213":-0.07557993263202271,"214":-0.06825497549870888,"215":0.2657765611412729,"216":-0.04228944666940202,"217":-0.07350865784581294,"218":-0.26089155362634436,"219":-0.06767093824195809,"220":0.002528343357733917,"221":0.0720741789950569,"222":-0.054612313379453076,"223":0.05318392674851312,"224":0.30305659517386274,"225":0.21600364753354193,"226":0.10551922740945917,"227":-0.11904164168380957,"228":-0.14513819640523296,"229":0.009014643230144732,"230":-0.014505441941190852,"231":0.02628405895980343,"232":0.07397316827476348,"233":0.08121857352200765,"234":-0.11343841418165262,"235":0.02207484037284285,"236":-0.11636226867551673,"237":0.08407813862194191,"238":0.06758788208338821,"239":0.20620764090842456,"240":-0.0366561880242013,"241":0.04791017690923276,"242":0.01294381041854844,"243":-0.26104506233276914,"244":-0.12833142256673674,"245":-0.010468246329789837,"246":-0.16796647548313798,"247":-0.0034386524925546762,"248":-0.04116636383591117,"249":-0.034136380347641965,"250":-0.06151954089616325,"251":0.06743340209527866,"252":0.125377134423352,"253":-0.015496186147129144,"254":-0.11394181926388511,"255":-0.10463934989717837,"256":0.14848433053073046,"257":0.06038602323334942,"258":-0.009985477831991224,"259":-0.2943374787531909,"260":-0.09257734633563282,"261":0.03492750661570402,"262":-0.1890414079295878,"263":0.1065311162303681,"264":-0.328542351810643,"265":-0.11315625640823115,"266":-0.3209691759779268,"267":-0.1333475497001642,"268":0.07856295239237888,"269":0.057129478776071545,"270":-0.11016286625844499,"271":-0.13764494111754227,"272":0.23567874773911382,"273":0.1486492447734859,"274":0.08477199498282927,"275":-0.17959770801096828,"276":-0.35269291300238276,"277":-0.052304834521279264,"278":-0.14152975143211055,"279":0.22202281026359424,"280":-0.42378210379807363,"281":-0.1367408273093662,"282":-0.47154385496219525,"283":-0.33744228629501527,"284":0.03869732209065946,"285":0.10976548735906011,"286":-0.21148647857805952,"287":-0.11804508480309212,"288":0.277215343290292,"289":0.26998024843484886,"290":0.13487309544970327,"291":-0.0713558061010089,"292":-0.2415970293302785,"293":-0.016485610968927453,"294":-0.15889414180270883,"295":0.08561270701718521,"296":-0.47922064188805663,"297":-0.166818361175264,"298":-0.46035905455395415,"299":-0.0802419630239827,"300":-0.23320567089051386,"301":0.08481965789956701,"302":-0.11053715208231811,"303":-0.11229621667071968,"304":0.34641286112690256,"305":0.24413132633802914,"306":-0.011947764851361377,"307":-0.03772595975429697,"308":0.017389877045436996,"309":0.008956288215113187,"310":0.05677062704976892,"311":0.21033265402672138,"312":-0.1005145259305527,"313":-0.06874675069890844,"314":-0.1828687646897345,"315":-0.08467499895973524,"316":-0.14073419402012485,"317":0.15872440389124576,"318":-0.0203094096418843,"319":0.159677905149456,"320":-0.02152091710636642,"321":-0.0587394793957695,"322":0.10543876886529312,"323":-0.2606342104537314,"324":-0.11952754489440243,"325":-0.06412815232054841,"326":-0.2020506478713238,"327":-0.10022050027542538,"328":0.19770137381073258,"329":-0.03506487485461613,"330":-0.09317986695080763,"331":0.08047057889490292,"332":-0.0465026860286387,"333":-0.07264519652179226,"334":-0.029764860338779953,"335":-0.1815057924057941,"336":0.2259041432484552,"337":0.012227943985471902,"338":-0.004420302415403196,"339":-0.2796672071616435,"340":-0.19471929984656916,"341":-0.032040265626988654,"342":-0.34940420542381584,"343":0.030042306517010592,"344":-0.16701337631350346,"345":-0.027116806453766486,"346":-0.08420974801999832,"347":-0.07640373630126794,"348":-0.06985301146897661,"349":0.00798379706429626,"350":-0.05072644476576438,"351":-0.18363865542693206,"352":0.279323634470776,"353":-0.009027754526129372,"354":0.037535289902458815,"355":-0.252678972573364,"356":-0.41349893088924766,"357":-0.12013895394159158,"358":-0.20119148083651373,"359":0.13128299707196112,"360":-0.2164859394267079,"361":-0.06928008136900575,"362":-0.38568306829407206,"363":-0.3729979462335984,"364":0.007193111039979207,"365":-0.11817712317085849,"366":0.11575035707497593,"367":-0.36363708875057166,"368":0.4284751874119061,"369":0.08931550406088568,"370":-0.03833097777486578,"371":0.053377536627459275,"372":-0.23148987849651617,"373":-0.07214627749269305,"374":-0.18819538606625144,"375":0.10732247637177278,"376":-0.24493852516390305,"377":-0.1604664497020245,"378":-0.1419486263874735,"379":-0.22287368712751185,"380":-0.2430259898258087,"381":-0.024862985611163194,"382":0.07317241076111719,"383":-0.1957853457521487,"384":0.3972538206961933,"385":0.10739633006849511,"386":0.051993279071911105,"387":0.15300037598126934,"388":0.015293970784091237,"389":-0.08602004491062404,"390":-0.10419606131418749,"391":0.1824128748314648,"392":-0.03630654840575925,"393":-0.24409537528162908,"394":-0.09561087863525754,"395":-0.2193899003734922,"396":-0.36274522627369704,"397":0.2593324128218076,"398":0.05414116023695268,"399":-0.02514516525865165}},{"sx":5,"sy":5,"depth":16,"w":{"0":0.009389641798452792,"1":-0.0868360102989943,"2":0.07796545214699621,"3":-0.10692320709727242,"4":-0.019100612951877458,"5":0.14780282963513763,"6":0.15211862577135243,"7":0.0640411731346751,"8":0.01796518358759741,"9":-0.07771530513870978,"10":0.029187984620790232,"11":-0.18187919765500868,"12":-0.15780650302416785,"13":0.097653997459687,"14":-0.07249653340881203,"15":-0.00238517294181741,"16":-0.2261592141292569,"17":0.16286718744846676,"18":0.07268663179705878,"19":-0.07692002449438368,"20":-0.23243690635109077,"21":0.14273234434717935,"22":0.17601330298443507,"23":-0.22095558236845247,"24":-0.163919885034858,"25":0.0008758040787367218,"26":-0.16624541463496903,"27":-0.029087333253399145,"28":-0.0644389654174462,"29":0.10942002117682974,"30":0.09078051653691409,"31":-0.03245495219448996,"32":-0.03177376808558117,"33":0.14816856575007523,"34":-0.08483745287438008,"35":-0.028063750831326593,"36":-0.0888853539271569,"37":-0.12127508452426437,"38":-0.09195596655837057,"39":-0.0677889851051726,"40":-0.04062092707858181,"41":0.031930075749170124,"42":-0.034244793060520036,"43":-0.18294377170924706,"44":-0.0827027521482902,"45":-0.1841753446222244,"46":-0.03536516856017937,"47":-0.10412827647461069,"48":0.06854613944124606,"49":0.046132178269171806,"50":-0.03871172367891805,"51":-0.21428965238193493,"52":0.05006880425329547,"53":0.041467174780345915,"54":0.03406664714225323,"55":-0.1715705889802728,"56":0.00010498830284336565,"57":-0.18803730967277463,"58":-0.11601754544827493,"59":-0.0691895442707791,"60":0.0028745330822580635,"61":-0.08985261095328004,"62":-0.06658292434644496,"63":-0.08241890502373796,"64":-0.06562691623952135,"65":-0.06993853609563579,"66":-0.18387720905172056,"67":-0.1799170561108743,"68":-0.3019306826503613,"69":0.027043395809006845,"70":-0.1063643785816176,"71":-0.20813616458138792,"72":-0.023123157352999527,"73":-0.07616610050605084,"74":0.14426600205843326,"75":0.03518198261994667,"76":-0.3435576453109382,"77":-0.029728169058929034,"78":-0.03635786633671089,"79":-0.04334332501945149,"80":-0.04153541047012772,"81":-0.18989406766595213,"82":-0.0025256226735642703,"83":-0.00897052424308514,"84":-0.07508284625251696,"85":0.03723703125863819,"86":0.00036524787436652533,"87":0.02267788362213772,"88":-0.03045699244083629,"89":0.02841857205770623,"90":-0.00912655117688408,"91":-0.20505804498341937,"92":0.15876687104376078,"93":-0.005972005116190365,"94":-0.2382052952171692,"95":0.032982966462366765,"96":-0.14754122561606142,"97":0.021996798111008558,"98":0.11594512285387473,"99":0.09366373011455652,"100":-0.19929548195018779,"101":0.035571508419643794,"102":0.15366318995679729,"103":-0.04970336151517682,"104":-0.13046181068651028,"105":0.005820813261719292,"106":-0.0841051771245746,"107":-0.2277010335043017,"108":0.06916378428914687,"109":0.11638352898760936,"110":-0.21176828878985018,"111":-0.030522203880437943,"112":-0.1493511613317236,"113":-0.017638734337532026,"114":0.12292700291809924,"115":-0.045532661253541745,"116":-0.0031503433980435897,"117":-0.09890197711001343,"118":-0.06518872338011152,"119":-0.11547341864704386,"120":-0.06648932282708815,"121":0.04919968732230775,"122":0.0011299192215046498,"123":-0.17246832964593797,"124":0.17585624627880247,"125":0.09646482071283653,"126":-0.019232436410611526,"127":-0.015855062898145415,"128":-0.05327838405684859,"129":0.12879859775335903,"130":0.08411835316129046,"131":-0.196626899715787,"132":-0.065574793059409,"133":-0.03600061969488203,"134":-0.026169019276714434,"135":-0.13359636645301126,"136":-0.06825259525544836,"137":-0.18015105201944207,"138":-0.07929610754191287,"139":0.024692255556576684,"140":0.02187918213281094,"141":0.07893494886467634,"142":-0.06326254120431468,"143":-0.012124399272899579,"144":-0.11741642037668158,"145":0.04237649228298722,"146":-0.18772467447676525,"147":-0.2963171931699475,"148":-0.26456942743796785,"149":-0.09488982228522501,"150":-0.058442108520148466,"151":-0.16684743651964684,"152":0.03685579553783942,"153":-0.1321630481234963,"154":-0.02371196191312753,"155":-0.09028375996316616,"156":-0.08087849155869964,"157":0.10710388339283818,"158":0.011984673075155525,"159":0.020892358482509876,"160":0.09500855277671812,"161":-0.18953301250790747,"162":-0.10732652118406778,"163":0.058930420110438295,"164":0.02328456097566326,"165":0.036979233229799464,"166":-0.09148883034932545,"167":-0.20576400604153008,"168":-0.09223887504830663,"169":-0.08654252031295157,"170":-0.21479712398631987,"171":-0.13736186677620027,"172":-0.02575520976001271,"173":-0.2399715473726477,"174":-0.2928538012765123,"175":0.05315736992305095,"176":-0.12518634375324947,"177":-0.23686490904172686,"178":-0.13088952420388453,"179":0.2041911920300233,"180":-0.06474016173784909,"181":0.03880231633777572,"182":0.16511615775485897,"183":0.07622942285920915,"184":-0.11391602124982664,"185":-0.0949631178405412,"186":-0.1912031758118776,"187":-0.1361840592039052,"188":0.027386207937118927,"189":-0.0809871774954349,"190":-0.2862939756900783,"191":0.10860400284467962,"192":-0.2685586765019229,"193":-0.013014710724700436,"194":-0.04644311689447784,"195":-0.004162983251259603,"196":-0.018621034480878377,"197":-0.01920972717651838,"198":0.04358383142069816,"199":-0.05858807873466427,"200":-0.2305231786637263,"201":0.08141062692273068,"202":-0.13465978927536384,"203":-0.03379954493184336,"204":0.014430915682188046,"205":-0.1001777235664253,"206":-0.15678597655374207,"207":0.0505822442925991,"208":-0.19545282291518573,"209":0.15076555255622737,"210":-0.05138022134579781,"211":0.11163355925078176,"212":-0.2980388591996687,"213":-0.23792851909733428,"214":0.08726710249739648,"215":-0.02676148036669812,"216":-0.14803654634239516,"217":-0.06886919791091602,"218":-0.26114703937602335,"219":0.07403226035685673,"220":0.06997738495674216,"221":0.03786398723425451,"222":-0.14023302624055822,"223":0.12590851289164387,"224":-0.10743911533227385,"225":0.06491490855622462,"226":-0.3589301337902907,"227":-0.1490859587197527,"228":-0.26624060832669383,"229":-0.1257213044757948,"230":-0.12167844912081986,"231":-0.2695699096664479,"232":-0.011778987428218517,"233":-0.20988099928903953,"234":0.009323935809306308,"235":0.09906809596127196,"236":-0.025885364727269367,"237":0.05932397577189571,"238":-0.032088372801815805,"239":0.04508644326975559,"240":0.02129813872605567,"241":-0.24142236747340634,"242":-0.022251874105087655,"243":0.0552178936806622,"244":-0.10718210396111912,"245":-0.06560727443213281,"246":-0.09009810811216865,"247":-0.18641953516627846,"248":-0.2886460300909728,"249":0.01867326248637623,"250":0.05950275825750884,"251":-0.007814824579542716,"252":-0.13186164624132463,"253":-0.07480828192582173,"254":-0.13475464062044695,"255":0.10242050334370321,"256":0.08171761774443849,"257":-0.3234926193128884,"258":-0.07135405637631112,"259":0.2049873068104629,"260":0.10885292524733613,"261":-0.06614130953803143,"262":-0.07671601284306619,"263":0.02053323531384981,"264":-0.15017337608148593,"265":-0.04077937648715784,"266":0.05702395376567988,"267":0.03287038559939543,"268":-0.12792168184335723,"269":-0.2027101645724618,"270":-0.08733233289733575,"271":0.04183394662949685,"272":-0.2551423231161456,"273":-0.12483727377152697,"274":-0.1472112029787604,"275":0.0608624454052947,"276":-0.008527950297108193,"277":-0.07625504162015952,"278":-0.13856136991627455,"279":-0.0892158980292347,"280":-0.019156172004373567,"281":0.011142953549310688,"282":0.05920843065601369,"283":-0.006350381843897443,"284":-0.04897790379451622,"285":0.057271163683969804,"286":-0.21374746304268208,"287":0.10897138368460269,"288":-0.1581758473338929,"289":0.04886132100888665,"290":-0.11774067790523783,"291":0.1803693710047207,"292":-0.2452366377506881,"293":-0.10327505725421372,"294":0.005897592898720187,"295":0.0007307054478418572,"296":0.10780593644441873,"297":0.003125225813479914,"298":-0.18766835762115844,"299":0.03762762288739884,"300":0.006866534634134505,"301":0.0666529319542694,"302":-0.11780433404121705,"303":0.19251112963560116,"304":-0.17055290539768808,"305":-0.06625113040164354,"306":-0.1713035842037479,"307":-0.00318895735124079,"308":-0.09272863771593506,"309":-0.06099659013444164,"310":-0.0881916011632779,"311":-0.10107058698809744,"312":0.0652486791382701,"313":-0.03380804653452737,"314":0.1286636524122889,"315":0.1682604656708497,"316":-0.05565063128162489,"317":0.07253335101015047,"318":0.08150668818381197,"319":0.18534096606013561,"320":-0.0011872214290699775,"321":-0.05998305067474809,"322":-0.040633371942669284,"323":0.0941181936582595,"324":0.06178322087203809,"325":0.200685788988465,"326":-0.14895750483912407,"327":-0.08901553325101802,"328":-0.21992621122240416,"329":0.10586771422877103,"330":0.15691158659270082,"331":0.12407671194267725,"332":0.015988367979024858,"333":-0.010554997255888463,"334":0.09879378883235022,"335":0.08611187680739452,"336":-0.02476156650102123,"337":-0.19009817253852765,"338":-0.09471930988125878,"339":0.09013493610889463,"340":0.22255595077071205,"341":-0.08686220707802617,"342":0.137475095468681,"343":0.019151153157476872,"344":-0.0929988865384171,"345":-0.055082358450572314,"346":0.04488519364566981,"347":-0.02616133026646327,"348":0.2789341197145725,"349":-0.23450872172797452,"350":0.03240918944925138,"351":0.08811245508447034,"352":-0.09597642374177039,"353":-0.24259071539672014,"354":-0.15701719521666244,"355":0.16312863634904376,"356":0.06650735049391951,"357":-0.0002949642497383171,"358":-0.007185122750437958,"359":0.047223311421533916,"360":-0.1311609857644935,"361":-0.062301890345452186,"362":0.21244803864891498,"363":-0.09319974794779809,"364":0.2724937173522021,"365":-0.049447381331846806,"366":0.06645675988418065,"367":0.16684176980978235,"368":-0.07635802419400366,"369":-0.017330830063772132,"370":-0.13101295213111802,"371":0.18501406785523297,"372":0.048694998118080125,"373":0.001248460411916977,"374":-0.09801299714987222,"375":-0.09514719080035569,"376":0.037605046609788556,"377":0.049597899261174784,"378":-0.014133354024732418,"379":0.12839671548956785,"380":0.0638776161028009,"381":-0.09548186618442576,"382":0.07520071483007228,"383":0.26795129563327846,"384":-0.10057016245986075,"385":-0.07389503621552898,"386":-0.011355924654443204,"387":0.015497130138995294,"388":-0.22146570242984875,"389":0.19344465275017197,"390":-0.13416146965581932,"391":-0.014814316602669157,"392":0.06460448787246231,"393":0.03773887437392122,"394":0.1409377200759392,"395":0.12797234659763534,"396":-0.05269715136490089,"397":0.038869226917713,"398":0.03388566086283641,"399":0.15344012117645398}},{"sx":5,"sy":5,"depth":16,"w":{"0":0.05244300945082933,"1":-0.06749002482380523,"2":0.08196153075273874,"3":-0.07506533432300953,"4":-0.0235505239624596,"5":0.08421761779442759,"6":-0.05552249653639442,"7":0.02999187963011506,"8":0.004437290479384842,"9":0.00185515897276297,"10":-0.05304845085037952,"11":-0.0682107715508123,"12":-0.030529660289404525,"13":-0.1548585944044383,"14":0.07452535328078923,"15":0.007652324892667016,"16":0.00886322483432929,"17":-0.03778589971727291,"18":0.02236523472521007,"19":-0.08667901923209125,"20":0.03801038249019815,"21":-0.07725920625711975,"22":-0.1340650564435752,"23":0.0025191638936563118,"24":-0.09876985926595519,"25":0.008719682608995945,"26":-0.09350233814658047,"27":0.015492192459845365,"28":0.003667399311177105,"29":0.036078136771985715,"30":-0.03643863757635755,"31":-0.06551325675099379,"32":0.015833107004374573,"33":-0.09872577195968724,"34":-0.013886392608702187,"35":0.017284540517427532,"36":0.016699460535190953,"37":-0.07089536446348069,"38":-0.058362314582489486,"39":0.004695571153397568,"40":-0.06919630748542133,"41":-0.028166438278733295,"42":-0.11200684046021825,"43":-0.08604132514655027,"44":-0.05165775143844582,"45":0.04179590098607161,"46":0.00022197960448037566,"47":-0.022903477462736348,"48":-0.0533896251930995,"49":-0.11015730467147765,"50":-0.07508155270295898,"51":0.08687538900006776,"52":0.012693052446364693,"53":-0.052566975596560074,"54":-0.06933279255577438,"55":-0.05604637589008556,"56":-0.06307777094914806,"57":0.07060665489702841,"58":0.013302244869675477,"59":0.039403605165014635,"60":-0.06319113172228745,"61":-0.009668352645803664,"62":-0.06808783307965123,"63":-0.012159030775927601,"64":-0.01250507771919404,"65":0.0649500365493782,"66":-0.060034649296663904,"67":-0.049073256924102845,"68":0.0368802075863188,"69":0.0027021853450783133,"70":0.02803281072100108,"71":0.05930004391778581,"72":-0.0768551775009573,"73":0.030006368402651744,"74":0.0018711205041309334,"75":-0.06285390507347197,"76":-0.0012048837552533981,"77":0.07006537095982845,"78":-0.0014135111936633858,"79":-0.07246791054981372,"80":0.013106485317009985,"81":-0.013710201762259386,"82":0.03752492307278962,"83":-0.18353235104531992,"84":-0.03601693998056327,"85":0.03253297702911915,"86":-0.015802542216261695,"87":-0.040635432674940866,"88":-0.08424166632435261,"89":-0.019770390887144017,"90":-0.05170222246706406,"91":-0.027071078632163438,"92":-0.013156251678957703,"93":-0.05071375748856492,"94":0.09131639562080934,"95":-0.023998415004136398,"96":-0.014322161970854239,"97":-0.07884787099528028,"98":-0.027075117612609837,"99":-0.10723861376165968,"100":0.08357837090411506,"101":0.0362763880405503,"102":-0.05657657620113789,"103":0.06952086444664561,"104":-0.0238432963699622,"105":-0.016604968345277946,"106":-0.0509721236518543,"107":0.0038927514943446913,"108":0.021695194976212633,"109":-0.0271418518242333,"110":-0.007602612606349823,"111":0.04230656406134087,"112":-0.028187671487472025,"113":-0.14307425650069008,"114":0.05276995622062158,"115":0.048417823864320454,"116":-0.03674645835309243,"117":-0.060866056496983185,"118":-0.09531900757822673,"119":0.005748693874737747,"120":-0.06583830897052555,"121":-0.015637401708119582,"122":0.001374129356644917,"123":-0.038443142755325586,"124":-0.04715144095888466,"125":-0.05202053516401611,"126":-0.050189085812657935,"127":-0.001042857255391367,"128":-0.0773119884388004,"129":-0.09353322285200473,"130":-0.12132577968928732,"131":-0.020063753734272743,"132":-0.0700112184211058,"133":-0.061465730913315086,"134":-0.0010724576550850044,"135":0.011340359636710247,"136":-0.09109392932040532,"137":-0.03747795377288873,"138":-0.003911001712633692,"139":0.0480693818254346,"140":-0.041141998711326885,"141":0.03231117017750744,"142":-0.03517194718761355,"143":-0.08796289545948663,"144":0.0315494032374012,"145":-0.041400390619485535,"146":-0.038449754914207726,"147":-0.10561409264847793,"148":-0.017080015070003764,"149":-0.0822597306922745,"150":-0.0011588156158804635,"151":-0.024485520382341627,"152":-0.050893612537361584,"153":-0.14732950492421404,"154":-0.06582025663307561,"155":0.009958822854187607,"156":0.01913357142870665,"157":-0.07600311148945928,"158":0.04987753940974302,"159":-0.043547049720808494,"160":0.0029171349332383642,"161":-0.04198375223312273,"162":-0.020721454032362075,"163":-0.09638636203016554,"164":-0.1013843590382004,"165":-0.07752131484017254,"166":-0.05336803766918125,"167":-0.09108594618665107,"168":-0.13358764499676087,"169":-0.14043992574779665,"170":-0.11772559754813407,"171":-0.07351240860695274,"172":-0.05658060560966268,"173":-0.027937896653329637,"174":0.062341381305858465,"175":-0.03658030136939275,"176":0.09754098724563504,"177":-0.026707401904977047,"178":-0.045617643277398534,"179":-0.0538837339021304,"180":0.08652704657227273,"181":-0.03713623113090505,"182":-0.07039554370751114,"183":0.0361471599901452,"184":-0.1326141313030997,"185":0.0008379178283388377,"186":0.00376400769743457,"187":-0.0759836537726941,"188":-0.017844467885894468,"189":-0.12746463141168715,"190":0.002992024861035064,"191":0.030419462641616313,"192":-0.04727084833677066,"193":-0.036452744916017736,"194":-0.17932863760054965,"195":-0.02549644272370141,"196":0.027237227103480574,"197":0.03209865983698734,"198":0.043271653393433245,"199":-0.012259022588868844,"200":-0.058997952872870296,"201":-0.08853069760078663,"202":-0.06640399464729901,"203":-0.0014772363277212176,"204":-0.060888414980392436,"205":-0.12794919275626918,"206":-0.03952606119856815,"207":-0.02824962909579703,"208":-0.076365979677278,"209":-0.08897305666514922,"210":-0.11253822073739506,"211":-0.03713101183932224,"212":-0.0190599122403753,"213":-0.09939032823880378,"214":-0.005313063898510045,"215":-0.07245138465388057,"216":-0.18442253847087792,"217":0.028069887968426743,"218":-0.05884059614474542,"219":-0.01779111399051163,"220":-0.0033137775378157177,"221":0.013557063765820937,"222":-0.03051973648717547,"223":-0.028749976706930053,"224":-0.06954955760737304,"225":-0.06825225928372801,"226":-0.044363408975844454,"227":-0.08825083035041506,"228":-0.16498767456143856,"229":-0.03845246036191815,"230":-0.052969353499456494,"231":-0.10548033020512064,"232":-0.12388471603754457,"233":-0.06449931740297256,"234":0.023201349882398255,"235":-0.01369895640180909,"236":-0.07925260301543788,"237":-0.1287506094342139,"238":0.10586993848784128,"239":-0.05916087234100054,"240":0.025765136852316017,"241":0.014671163356739632,"242":-0.09507430686791613,"243":-0.0479288705434814,"244":-0.027875437150237214,"245":-0.018423714723168543,"246":-0.07677510153209641,"247":-0.036171880429977446,"248":-0.0011794043978885114,"249":-0.03878012428332922,"250":-0.03187748772702999,"251":-0.04549176639789097,"252":0.06248896482262706,"253":-0.041482538738230525,"254":0.0016068566570690327,"255":-0.03386430655253472,"256":-0.11582314371542365,"257":-0.05988621339853651,"258":-0.1384896664860857,"259":-0.0726689142257816,"260":-0.15859545876581632,"261":-0.004415873488924519,"262":-0.04205105398270775,"263":0.001656083496540502,"264":-0.15753309956181455,"265":-0.006905768855381221,"266":-0.07315303427622044,"267":0.018401442907816614,"268":-0.04037545435158433,"269":-0.022522116547717776,"270":-0.023067430120141372,"271":-0.03603180728030418,"272":0.017811733049845253,"273":-0.04547824925694304,"274":-0.0726576912276858,"275":-0.05465814327818004,"276":-0.07623715186218073,"277":-0.012291821636875458,"278":-0.03037466235818184,"279":0.04145353167879362,"280":-0.07187603594761702,"281":0.0785047644115938,"282":-0.07462022642669398,"283":0.019355862004254418,"284":-0.04725341434199836,"285":-0.11923596102179485,"286":0.017813561711473004,"287":-0.06144215519699762,"288":-0.013126076827765835,"289":-0.13054524497754186,"290":-0.00008161142223679933,"291":-0.035978291470213045,"292":0.1090820980200092,"293":-0.016923660043638298,"294":-0.037829141603157174,"295":0.10280698114294222,"296":-0.1371852539647978,"297":-0.10076835401042894,"298":-0.07162806686294941,"299":-0.01549351349838173,"300":-0.048287024376995044,"301":-0.09396098074023382,"302":0.05979685002712468,"303":-0.07305255686165538,"304":-0.039881989544260164,"305":-0.04902398641921223,"306":-0.012683745528092158,"307":-0.04295812720665706,"308":-0.03736296642414687,"309":-0.0055059217728466205,"310":-0.09102502889794611,"311":-0.05843723660925732,"312":-0.00695595751032336,"313":-0.04318005165635916,"314":0.02666533794437628,"315":0.060977689911032126,"316":0.01783055761137432,"317":0.025552973337094463,"318":0.07992206005652402,"319":-0.057142683419198884,"320":-0.11000174140739864,"321":-0.11048989437810175,"322":-0.024342956759938358,"323":-0.016200654012389543,"324":-0.015433142154230384,"325":-0.08449277087626876,"326":-0.05467206645126822,"327":-0.10290881498094769,"328":-0.07362296324219975,"329":-0.034668124268235026,"330":-0.09259343166705343,"331":-0.015716875689569466,"332":0.020783422423082412,"333":-0.05779064518996605,"334":-0.034100427038930334,"335":0.013075550635585168,"336":-0.041721376894317756,"337":-0.027078106383305656,"338":0.020220711145143226,"339":-0.0239712081382955,"340":-0.0016587596799406607,"341":-0.10341199425658,"342":-0.08120867169895303,"343":-0.05656391579049334,"344":-0.19346159096009513,"345":-0.0420828515789336,"346":-0.04421286485690723,"347":-0.01722279401365026,"348":0.04975965952273638,"349":-0.07476378936791196,"350":0.05488662227348305,"351":-0.03859330141233735,"352":-0.1583568017393565,"353":-0.04539328883067285,"354":-0.06842986962784642,"355":-0.014298637697155503,"356":0.01924899068462782,"357":-0.017095094089722956,"358":-0.03191861303375689,"359":-0.07305080274716064,"360":-0.1350166958291916,"361":-0.021827181043206318,"362":-0.1337201802149326,"363":-0.03728976363125001,"364":0.017315691243378853,"365":-0.10808935953312486,"366":0.08704147223059794,"367":0.00776061347910182,"368":-0.04900371135242961,"369":-0.09330906545146006,"370":0.006948578112847679,"371":-0.008672288144630221,"372":-0.05317415078368861,"373":-0.012799740323185791,"374":-0.0020853863796246974,"375":0.0426836788813159,"376":-0.02976823300101843,"377":0.012968473135106523,"378":-0.08971214406979466,"379":-0.06224722403710112,"380":0.018198243368784183,"381":-0.06273238650844497,"382":0.054349291452116026,"383":-0.03485531325787521,"384":-0.0918013874049635,"385":0.006160929027198333,"386":-0.06429843261051219,"387":-0.07347246080896057,"388":-0.027655629514006807,"389":0.00867148094209535,"390":-0.0980151274364474,"391":0.06367706054573999,"392":-0.05199925884801352,"393":-0.11273007980508003,"394":0.04854939602541662,"395":-0.052618594565652495,"396":-0.034944047452129735,"397":-0.09110307045958782,"398":0.12499539058160687,"399":0.0539257078033638}},{"sx":5,"sy":5,"depth":16,"w":{"0":0.08854351269928591,"1":-0.08402449488500018,"2":-0.15091908015418024,"3":0.02558069644837229,"4":0.2617569198356555,"5":-0.14622597520324393,"6":0.012046490836976679,"7":0.0501303778187002,"8":0.05599279357558602,"9":-0.17838303367548558,"10":0.02202359504116498,"11":-0.0045431491820330195,"12":0.27402908364876616,"13":0.241506857000674,"14":0.003993902007647051,"15":-0.10581175454402038,"16":0.07119933161305803,"17":0.025728667222691945,"18":-0.044600810288885566,"19":-0.08227976533334858,"20":0.02918745073293998,"21":-0.08036156517058891,"22":0.01678029631174418,"23":0.012876916379262165,"24":0.017944861843177493,"25":-0.11413506390628467,"26":0.06308741991476673,"27":0.04517211496192508,"28":0.19471530772965784,"29":0.1987225536072673,"30":-0.20731551067160134,"31":-0.057477855769601106,"32":0.1047070321001966,"33":-0.029865953618676836,"34":-0.04113366865140754,"35":-0.11746382570343679,"36":-0.1204447855175592,"37":-0.05988006629821682,"38":0.03327261019911969,"39":-0.020174894020763903,"40":-0.2191126867249823,"41":0.08380383161843105,"42":0.017290159997564617,"43":0.09540639176203931,"44":0.2888808291270096,"45":0.1248649236435094,"46":-0.18600026977155604,"47":0.0746224959523726,"48":0.10535790385311133,"49":-0.037840446548161696,"50":0.019878047783724463,"51":-0.031005415057311664,"52":-0.15958808077631692,"53":0.047547542126190646,"54":0.011754794624656097,"55":0.1156929439318504,"56":-0.18436147168601702,"57":0.11597178387270243,"58":0.0876322114201614,"59":0.030015091475517817,"60":0.06793476820235839,"61":0.10833838021727016,"62":-0.3034317180312085,"63":0.1044463308071494,"64":0.004512352356890085,"65":-0.049982466678540345,"66":0.06583776688487615,"67":-0.14829932748392216,"68":0.01825272548649508,"69":0.01913001689828567,"70":-0.0628037335891959,"71":0.05745853643754916,"72":-0.09042357959723131,"73":0.05246312855839487,"74":-0.019008691031278533,"75":0.05594326125178061,"76":0.08966259000138142,"77":0.28335608189889244,"78":-0.17104629452745515,"79":-0.02842246236887702,"80":0.0355564301350041,"81":-0.16742244582941843,"82":-0.17185698490565562,"83":-0.03846757725158653,"84":0.14008506159816297,"85":-0.05504966022578336,"86":0.09282846978325959,"87":0.14875588945133186,"88":-0.04386021901075432,"89":-0.009329131897607314,"90":0.022811681425126115,"91":0.12242946202572967,"92":0.24115543487809993,"93":0.10790747640413238,"94":-0.17707684043661365,"95":-0.010875578698086523,"96":0.12013301856787414,"97":-0.2176637890727459,"98":-0.07395731644529015,"99":-0.08198117181751555,"100":-0.0071084701790739635,"101":-0.042388585798173985,"102":0.10057424148693932,"103":0.04964917184974739,"104":-0.1796436782433627,"105":-0.00452806236223064,"106":0.007606434821267614,"107":0.13359981881463112,"108":0.16037346583017092,"109":0.10255366999820496,"110":-0.1392471599434436,"111":0.0006102991521977396,"112":-0.04370931557493063,"113":-0.2167396940281245,"114":-0.07858972831763535,"115":-0.2238934059652939,"116":-0.26331178832818125,"117":0.1133100161238572,"118":-0.0003002201165312712,"119":-0.1037077620467136,"120":-0.16186788672960556,"121":0.0957173076849962,"122":0.08953628858499912,"123":0.15922764934203176,"124":0.10674685448643088,"125":0.07805545733573295,"126":-0.09022898105841091,"127":0.023721784926417785,"128":0.007386011126140223,"129":-0.17629567699106885,"130":-0.004613564782864837,"131":-0.09413356321502561,"132":-0.031078210458727513,"133":-0.06832146900433388,"134":0.029969051852440073,"135":0.0255382707548954,"136":0.041464734995759936,"137":0.12030576219504174,"138":-0.008756833943507727,"139":0.11539374742396735,"140":0.1831520860201236,"141":-0.052099059744289425,"142":-0.13202783008703103,"143":0.007274765570771188,"144":-0.0008859404647026946,"145":-0.018706999722150598,"146":0.08481393728886752,"147":0.04382870455643927,"148":0.02451781635390598,"149":0.0486543422874872,"150":-0.02003300705942406,"151":0.06969983741276603,"152":-0.13341923541883804,"153":0.12678215190885406,"154":0.001264123408709185,"155":-0.0778438219825879,"156":0.21383781541463714,"157":0.0760277029424604,"158":-0.18995623714867022,"159":-0.007574236922618122,"160":0.026678309315867985,"161":-0.11473159848903194,"162":-0.086467003559309,"163":-0.013854136529103105,"164":0.1921796141129261,"165":-0.058986361703915496,"166":0.21425685297445426,"167":0.03102578194278805,"168":0.07615159516344235,"169":0.15049486850680738,"170":-0.032760512603754566,"171":0.08647575723167146,"172":0.09895052846613939,"173":0.1755555537453707,"174":-0.21368487195082875,"175":0.07680734489412805,"176":-0.05998662376916124,"177":-0.20737012402466645,"178":-0.1864067907467964,"179":0.009444803559082136,"180":0.049948874324201455,"181":0.042091083388894994,"182":0.147702756453063,"183":-0.032737792626936574,"184":-0.08414015603415734,"185":-0.05843727844145049,"186":0.10315839072924687,"187":0.11557239400732203,"188":-0.07048487161568981,"189":0.04527717711826716,"190":-0.21182251786586126,"191":0.07608789039390904,"192":-0.038039240984467516,"193":-0.19669439426247895,"194":-0.08451723920983804,"195":-0.07537505644400223,"196":-0.15325612284710108,"197":0.04208450741357389,"198":0.11252602011436225,"199":-0.06502730043702164,"200":-0.10101882399000217,"201":0.05240239047029653,"202":0.10403517582099517,"203":0.06924403109784825,"204":-0.15348491787864466,"205":0.06940472943623348,"206":-0.2382057469016015,"207":0.01866425521740099,"208":-0.03656593505071182,"209":-0.23915112254073811,"210":0.019056620773878513,"211":0.1286835698620838,"212":-0.07601333303977752,"213":0.04324685884571984,"214":0.16831345080914473,"215":-0.0732027864661495,"216":-0.12465043084020092,"217":0.07136144209654961,"218":0.14422236055321322,"219":-0.027622126972981095,"220":-0.10061862769119549,"221":-0.0028357461045651457,"222":-0.4038352538301942,"223":-0.003491835382637924,"224":-0.08909673541680176,"225":-0.2717279109252499,"226":-0.035119485903737806,"227":0.18831896124434,"228":-0.12684634966392577,"229":-0.051741179910089585,"230":0.22389631978066674,"231":0.0792744942959052,"232":-0.031534282107840594,"233":0.07065062553803601,"234":0.10557698588644286,"235":-0.012319027981758256,"236":-0.202575493204316,"237":0.016626792352496828,"238":-0.2820194145856185,"239":-0.06453247339843109,"240":0.09750207612843588,"241":-0.04012895011265277,"242":-0.017780988008726593,"243":-0.2411271154910896,"244":0.22135463664639424,"245":-0.12177733199650981,"246":0.005278770068458854,"247":0.08343471850343222,"248":0.12091096641309286,"249":-0.009761952950260295,"250":-0.058798657558114475,"251":-0.01861111233488655,"252":-0.05848765424403656,"253":-0.052958011736494705,"254":-0.22178408071716157,"255":0.009816667064518232,"256":-0.0030580989776417215,"257":-0.044951362858578134,"258":-0.05542459562032759,"259":-0.16287392649523966,"260":-0.0027883800794227228,"261":-0.07743040915360457,"262":-0.014513683165141945,"263":-0.19905071026644833,"264":-0.02469634213359942,"265":-0.07540864643152057,"266":-0.10457456592851555,"267":0.02658564173702507,"268":-0.029694484234724098,"269":-0.04032860383865348,"270":0.009479347597852024,"271":0.005455316790506008,"272":0.03930080004289,"273":-0.22534789173505423,"274":-0.21928727557412897,"275":-0.03193179598389609,"276":-0.19229615926109508,"277":-0.003512694416053218,"278":-0.13572087260638388,"279":-0.2149710753609022,"280":-0.0022320221776900026,"281":-0.04826152112154256,"282":-0.11826679844669452,"283":-0.161174548215631,"284":-0.21533201205781186,"285":-0.15737625024234,"286":-0.16432776754290726,"287":-0.09572788196936427,"288":-0.06863974300477482,"289":-0.18029621610202376,"290":0.005027440452742399,"291":0.11211759804626999,"292":-0.056205414920206316,"293":-0.03235597293756328,"294":-0.04218763027384177,"295":-0.16680886893012586,"296":0.07448762603022874,"297":-0.04826087239659595,"298":0.02827714373427729,"299":-0.2396083723185315,"300":-0.03821487197264732,"301":-0.01712593669051665,"302":-0.23282708662678653,"303":0.029210180830266663,"304":-0.06776511052841623,"305":-0.11307574159867993,"306":-0.10572297238882936,"307":0.06735293739427896,"308":-0.31624330393776967,"309":-0.1001358841252133,"310":-0.06943497005568738,"311":-0.07435339374493805,"312":-0.010139089564917454,"313":0.036725603970350504,"314":0.04406916035076797,"315":-0.0895377078299905,"316":-0.062322175145121395,"317":-0.04133344600494134,"318":-0.07096866003259,"319":-0.010213227735542606,"320":0.08614370686618997,"321":-0.21046172418113843,"322":-0.0245589109842571,"323":-0.3007657635470349,"324":0.23978884411084217,"325":-0.026881593051403488,"326":0.08403864077241102,"327":0.2566274550218141,"328":0.19697292935729616,"329":-0.034337284047841234,"330":-0.0920823250692589,"331":-0.03400475944258019,"332":-0.06097451764779263,"333":-0.2569396027912616,"334":-0.09870805547511095,"335":-0.03268428093365596,"336":-0.12457294050460022,"337":-0.2349569854123411,"338":-0.1456427639391524,"339":-0.23146841744396335,"340":-0.16455745732346186,"341":-0.21797218037721983,"342":-0.004800319907172901,"343":-0.1339753546249828,"344":-0.010780463209153733,"345":-0.17777651635189062,"346":-0.2078915743596669,"347":0.011282686217803723,"348":-0.10909884961841523,"349":-0.03313995758650773,"350":-0.12179096002793238,"351":0.013075076644255723,"352":-0.157954320213352,"353":-0.19805885901508663,"354":-0.14359548650976486,"355":-0.1754096919966726,"356":-0.15680869052596538,"357":-0.05377596009795014,"358":0.05516375464149395,"359":-0.3151883722306221,"360":-0.15302839526065792,"361":-0.148685032060181,"362":-0.15642692751161005,"363":-0.2529088089423174,"364":-0.1957739823509202,"365":-0.05550457712155272,"366":-0.21499994793550298,"367":-0.22245489897120763,"368":-0.10962821548676947,"369":-0.20149135558546577,"370":-0.06617062848654418,"371":-0.03539497301835635,"372":-0.06851644434233987,"373":-0.052715540090952,"374":0.08924757961726322,"375":-0.21758004955303598,"376":-0.15963753686251714,"377":-0.037952199168221235,"378":-0.12598789415868827,"379":-0.13944663864974197,"380":-0.010209058873646558,"381":0.012551582974797675,"382":-0.09425260463989729,"383":-0.023572250913117352,"384":-0.0966349431844658,"385":-0.19199604059331152,"386":-0.037375453973057374,"387":-0.03919116745134433,"388":-0.27243351752685796,"389":-0.08902914401089496,"390":-0.11660626901138732,"391":-0.20203213481974613,"392":-0.03685911054936511,"393":0.037865222250727915,"394":-0.13727547206447457,"395":-0.035963558306496245,"396":-0.18963738934866778,"397":0.057671551696460856,"398":0.028558331970307115,"399":-0.0166940546830677}},{"sx":5,"sy":5,"depth":16,"w":{"0":-0.3094312821378211,"1":-0.06817193906531692,"2":-0.16847886593533085,"3":0.12211569232044164,"4":0.023414907738977867,"5":-0.022475358741413452,"6":0.14063730490874912,"7":-0.0725911471393091,"8":0.014874487882509177,"9":-0.012205503534792241,"10":0.06762947378937088,"11":0.012455197973017754,"12":-0.16659252510715283,"13":-0.20560199763830234,"14":0.07955948167760461,"15":0.08687595957880985,"16":-0.043348638905590126,"17":-0.10784647795309614,"18":-0.17800684426654334,"19":0.0966939412309114,"20":-0.10451154882336451,"21":-0.010899805411521983,"22":0.09239503587189947,"23":0.12511153894026836,"24":0.12587244891796195,"25":-0.030931854087070193,"26":0.04906773375069053,"27":0.039104191364939436,"28":-0.09053305335155713,"29":-0.23757861386003296,"30":-0.0738303309451594,"31":0.16924826773377252,"32":-0.5181500955020523,"33":-0.06701196821303078,"34":-0.04273564350724797,"35":0.13469485031682726,"36":-0.04970062611399194,"37":0.09761827644972337,"38":-0.027968000220387784,"39":0.23778012271986948,"40":0.16375822199648646,"41":0.04676492082376732,"42":0.19193447925493123,"43":0.029579179894111074,"44":0.12785257971922356,"45":0.08509018707817381,"46":-0.053645401652584836,"47":0.10833491886869646,"48":-0.23963527913185062,"49":-0.024990937365567963,"50":0.17330677951414514,"51":0.014697405352537076,"52":0.10256755745945562,"53":0.14197341756384663,"54":-0.04761611469327923,"55":0.08553548175244687,"56":0.12665854141694494,"57":0.17898446837873133,"58":0.06797436409108497,"59":-0.0683764691256771,"60":0.25612938177763794,"61":-0.04050248150489311,"62":0.05142336371183476,"63":0.1433912524195493,"64":-0.09371121515489075,"65":-0.017095241721757658,"66":0.17778760564527268,"67":-0.06367981010444186,"68":0.06357125023231425,"69":0.28015541017441076,"70":-0.10481223387124035,"71":0.1769637936130821,"72":0.04537393784567294,"73":0.13601135762862482,"74":0.061337053110575565,"75":-0.10396214727862847,"76":0.15795204874506302,"77":0.08159892855497762,"78":0.05790355849050803,"79":0.16535613605079963,"80":-0.3286608845562994,"81":0.005550025848017926,"82":-0.14440827176234808,"83":-0.15714245518054076,"84":-0.07971122555707622,"85":-0.04847806526504039,"86":0.11378585861234966,"87":-0.08361831235805844,"88":-0.11490604000334909,"89":-0.015048248472984976,"90":-0.07881425346198057,"91":0.17060586896237995,"92":-0.03843895252508287,"93":-0.13983398407664555,"94":-0.019507333858568697,"95":0.08039373411762793,"96":0.0016758249034567923,"97":0.006380413346407277,"98":-0.2195663359665298,"99":0.11356147269412536,"100":-0.1340309898503326,"101":-0.10681032120501069,"102":0.12904108587588548,"103":0.17784178633738204,"104":-0.1777208155350484,"105":-0.12346388939064162,"106":-0.1969344649830411,"107":0.0006391579432733355,"108":-0.23798612723393056,"109":-0.31384899657148974,"110":-0.15300936284225514,"111":-0.12949727182269088,"112":-0.16746275195444268,"113":0.05536516624594524,"114":-0.06422498981468222,"115":0.05067757597598359,"116":0.02781148013702443,"117":0.07421016578814635,"118":0.006465419797621763,"119":0.0894084174017728,"120":0.08384243896879909,"121":0.06968323863958907,"122":0.07547503588757984,"123":0.20866054000051007,"124":-0.013319826270134684,"125":-0.029270527163647145,"126":0.02868880899707213,"127":0.014870291655919642,"128":-0.17178410749806258,"129":-0.018940544748290364,"130":0.055013851346364814,"131":0.1952755712752473,"132":0.06812272183872954,"133":0.15400573375735124,"134":-0.21786620201213394,"135":0.1498131228220379,"136":0.044478405493369434,"137":0.2083251107179746,"138":-0.0353361207190742,"139":0.08736827577138087,"140":-0.007508260188200221,"141":-0.05993966140179623,"142":-0.09516808315038269,"143":0.17760108354265053,"144":-0.22339379903668619,"145":-0.19597677851153283,"146":0.14916177823656784,"147":-0.006753645856287259,"148":-0.023352957603621452,"149":0.233443243844846,"150":-0.3398099777404998,"151":0.19160918572476096,"152":0.09622447940717087,"153":0.15018254249118965,"154":0.04966639397336316,"155":-0.00950885502588093,"156":-0.049598507777319556,"157":0.0409015103242858,"158":0.04056984813962033,"159":0.12516385276091818,"160":-0.29829643745165035,"161":-0.08154948724394195,"162":-0.12293931508666045,"163":0.05232321088504915,"164":-0.10301304511860064,"165":0.08249405820092838,"166":0.17224049741438724,"167":-0.059190983760322766,"168":-0.21091769344259328,"169":-0.2221628801916373,"170":-0.12847632545419876,"171":0.11890036552387782,"172":0.036884836179150504,"173":-0.10145166138112716,"174":0.052888852174113495,"175":0.0324312344959379,"176":-0.09149473866260818,"177":0.0071090028343796805,"178":-0.16802532160902373,"179":0.10596423478439308,"180":-0.2704425655847549,"181":-0.16394109169726687,"182":0.414579012802747,"183":-0.0542799406099612,"184":-0.2606639698699,"185":-0.12722575266017724,"186":-0.12555344136408444,"187":-0.10347541083111109,"188":-0.2547488641357474,"189":-0.3077908542600883,"190":-0.14333833152136977,"191":-0.15623640034006805,"192":-0.015913159638028727,"193":0.004210348624882731,"194":-0.20226377054941527,"195":0.12563122806100113,"196":-0.13676036167226566,"197":-0.138829194761956,"198":0.3564938276357688,"199":-0.01860498610862889,"200":-0.027621818542002283,"201":-0.11676097577168147,"202":-0.05603301754815542,"203":0.20915876817484988,"204":-0.17112613652471093,"205":-0.17267402972266896,"206":-0.08935632698004695,"207":-0.16783303697165342,"208":-0.2730172260179925,"209":0.08801107952521521,"210":-0.034094179550319195,"211":0.25380542099591513,"212":-0.028013123152353412,"213":-0.06773990719477453,"214":0.1934095939176868,"215":0.04017605759264662,"216":0.043011445409727025,"217":0.0850508149921376,"218":-0.06808035464704308,"219":0.17771482675568984,"220":0.08141681936829384,"221":-0.08505963022154764,"222":-0.08843936250281115,"223":0.06787199542103393,"224":-0.14848802184866589,"225":-0.048154799882156825,"226":0.08828615803879336,"227":0.05293015067463956,"228":0.04908620218958443,"229":0.18543036064853125,"230":-0.11286785495786042,"231":0.1942640944334377,"232":0.17636499940966924,"233":-0.012945947711490234,"234":0.026473983765268685,"235":0.016803620515909886,"236":0.08408664276164148,"237":-0.08456568651264462,"238":0.13444555660913296,"239":0.2284711867843777,"240":-0.2597888732424174,"241":0.15457691505230173,"242":-0.13920612342057598,"243":0.02933195431231185,"244":-0.13678116642594845,"245":-0.21876453759121497,"246":-0.057395659708013635,"247":-0.3676692653350616,"248":-0.16161903150189016,"249":-0.10060297063343901,"250":-0.04307592435994505,"251":0.1281369930020637,"252":-0.03242194673177782,"253":-0.23240540158485978,"254":0.314913825094789,"255":-0.08695763908599419,"256":-0.07029792892881395,"257":0.16751966641920293,"258":-0.2995984432814384,"259":-0.015915465032345175,"260":-0.013400920817643141,"261":-0.14669521517130016,"262":0.1777738075619586,"263":-0.26917691553978307,"264":-0.060390325512382756,"265":-0.17576905095368653,"266":-0.2492193611704561,"267":-0.11747700072636695,"268":-0.2818842103718178,"269":-0.38566519408659994,"270":0.02991524136147312,"271":-0.16745046706814298,"272":-0.02920366919845551,"273":0.042698814049338334,"274":-0.26817317330615625,"275":0.2964166265626252,"276":0.007351400824157781,"277":-0.2979880517957937,"278":0.39155630050453993,"279":-0.09365018283795652,"280":-0.08526712684869191,"281":-0.11900964149010607,"282":-0.19964634656245245,"283":-0.14016256957917553,"284":-0.17754353729438307,"285":-0.3511459664336905,"286":-0.25339634013203016,"287":-0.20153575621121336,"288":-0.12678673073315624,"289":0.035547727731867415,"290":-0.14424481449873508,"291":0.3095514852509094,"292":0.019312398171621427,"293":-0.1357294940400771,"294":0.1369395613053334,"295":-0.1666491400760574,"296":0.04345279918767912,"297":-0.02552442422827673,"298":0.0231982548904012,"299":-0.025625453841019233,"300":0.0042644035615013055,"301":-0.24105987754237573,"302":-0.16566670568152267,"303":0.07313472980121498,"304":-0.2486483474568893,"305":-0.11330721846666297,"306":0.05899658028619193,"307":0.07212375593992874,"308":0.09706090317150311,"309":0.030741750958245738,"310":-0.17276411173942136,"311":-0.08303806452512075,"312":0.268980711021642,"313":0.08809219008951544,"314":0.14534069071182068,"315":-0.20071939202786948,"316":-0.013576045027564243,"317":-0.0753348177240183,"318":-0.010850232694506665,"319":0.10360152182787145,"320":-0.6002208559310642,"321":0.31115450205648654,"322":-0.11864963395428141,"323":0.003962878632751314,"324":-0.08735586540306585,"325":0.001419787217499924,"326":-0.02116421229462707,"327":-0.4636781811933628,"328":-0.16673918768517978,"329":-0.1192303382312557,"330":-0.04296256193324266,"331":-0.1949661389138399,"332":-0.041874115751528725,"333":-0.13246220827149477,"334":0.2786221556844562,"335":-0.06088106489444334,"336":-0.3419005880361612,"337":0.04695382452892667,"338":-0.17874903968367165,"339":-0.031900897396429026,"340":-0.10916210359540583,"341":-0.22057870303653157,"342":0.08152820210580715,"343":-0.3484045259393731,"344":-0.173120711303465,"345":-0.00808173254486218,"346":-0.1429594362884796,"347":-0.24719633282160325,"348":0.01157834505980659,"349":-0.3598830520748916,"350":0.005124359581888106,"351":-0.20620000477194547,"352":-0.22827966898630964,"353":-0.04070609783602447,"354":-0.29463320214657573,"355":0.11620734212728841,"356":0.08067199964950932,"357":-0.026603424084620048,"358":0.1799414333630206,"359":-0.28058595220244703,"360":-0.011046136463715177,"361":-0.0770282829130048,"362":0.0061011718945391345,"363":-0.24177944654285377,"364":-0.05305253851797746,"365":-0.2746143009337292,"366":-0.23749796873989795,"367":-0.22667334325314645,"368":-0.07917692502525543,"369":-0.032010088964050394,"370":-0.13345323708586343,"371":0.247807869519049,"372":-0.06642098286584533,"373":-0.0290931299378285,"374":0.007530696826588642,"375":-0.1282741656108362,"376":0.1320829331248438,"377":-0.02575490518910691,"378":0.07537567760094847,"379":-0.21582064864521322,"380":-0.1005274997554271,"381":-0.10317010439163796,"382":-0.12205487461165454,"383":0.10157880580282902,"384":-0.12654652928763843,"385":-0.014855124600844155,"386":-0.015684288721594847,"387":0.1014040345236307,"388":0.10678422280567268,"389":-0.04802971095135372,"390":-0.03961517996893611,"391":-0.07560117494816572,"392":0.21477941370535664,"393":0.1389558790672209,"394":0.2025617860845071,"395":-0.1902797273423679,"396":-0.13636259260706662,"397":-0.0580336027816799,"398":-0.07985168734003673,"399":0.2217027666300661}},{"sx":5,"sy":5,"depth":16,"w":{"0":-0.41604642591731356,"1":-0.055124701396997794,"2":0.07985655681437266,"3":-0.010909850709211437,"4":-0.1345968938319075,"5":0.19321305223642482,"6":-0.07385338601170638,"7":0.10053494854473162,"8":0.025185293914453493,"9":0.0887375455044634,"10":0.04605168761801044,"11":0.10149335182827157,"12":0.06508239613820674,"13":0.2158004687374299,"14":-0.06861891004196594,"15":0.23822053537612453,"16":-0.4409228713596375,"17":-0.06445535872224369,"18":0.14943231821502898,"19":-0.19873758850623,"20":-0.14919407717905556,"21":0.14407528107977338,"22":-0.05858904375454048,"23":0.05441668480527252,"24":-0.10471459466848036,"25":0.002639617426491222,"26":0.021491013601107122,"27":0.09211110918577321,"28":0.007177692776982299,"29":0.17585879490140793,"30":-0.02586999106758109,"31":0.031471479523477355,"32":-0.5904760513549471,"33":-0.04132207066158596,"34":0.040449563937699086,"35":-0.08105441850170299,"36":0.06717796611089734,"37":-0.21142909244138916,"38":0.11026173919884054,"39":-0.307205925016121,"40":-0.2745205803341089,"41":-0.14278205333824104,"42":-0.4217559206783899,"43":0.30471305377887137,"44":0.2586676252583432,"45":0.039714273947953564,"46":-0.41395014946111286,"47":-0.02529066122090616,"48":-0.40044002496062914,"49":0.1460032269841453,"50":-0.17587465896781104,"51":0.026022582647637273,"52":-0.23728658339792838,"53":-0.5495184240454898,"54":0.048346758688494675,"55":-0.17826823318360818,"56":-0.4684904555720725,"57":-0.1531159367325279,"58":-0.40161314890900096,"59":0.166793938324189,"60":0.27496171687590054,"61":-0.01266503132990303,"62":-0.26535514788093734,"63":-0.1315814642556273,"64":-0.23706570226705329,"65":0.10937762461475375,"66":-0.4077791839325197,"67":0.06396262564822347,"68":-0.11963696224667975,"69":-0.6198865719655495,"70":0.12731419652169015,"71":-0.1581047924685356,"72":-0.4357467359155577,"73":-0.3349844592336667,"74":-0.30241495490881376,"75":0.09744990485329913,"76":0.15937287101519074,"77":0.07119779677859958,"78":-0.06142119583261109,"79":-0.16233919224630375,"80":-0.35997177068340563,"81":-0.05830677048329527,"82":-0.025918252988518888,"83":0.012410309465671029,"84":-0.15672326208929863,"85":0.17260224285334705,"86":0.00010319309106131714,"87":0.029844924111592053,"88":0.055930824318042964,"89":0.12256391129736284,"90":0.07563531580210915,"91":0.04057024275779147,"92":0.0069345855990701815,"93":-0.00533658146039021,"94":-0.10296891167656982,"95":0.11550072602679053,"96":-0.5862403548875403,"97":-0.03828943433736867,"98":-0.058156356812663464,"99":-0.10021591760928997,"100":-0.14715556317226877,"101":0.13477894688338812,"102":0.10181602309628739,"103":-0.04580630740552969,"104":0.009391848524094268,"105":0.11242076487743081,"106":0.00286943558212015,"107":0.26806116650639444,"108":-0.002522816897840751,"109":-0.036049720636662494,"110":-0.14113011022504107,"111":0.08597234847955011,"112":-0.4545483815340806,"113":-0.2516188437625725,"114":0.0199269458721137,"115":0.19268591524978257,"116":-0.09371936498534582,"117":-0.23153741699534974,"118":0.03483668046834443,"119":-0.11560000875373679,"120":-0.14375374851696945,"121":-0.12112024232126554,"122":-0.05024452488608541,"123":0.055621765077371696,"124":0.12682787236368187,"125":0.0268201825809448,"126":-0.2509833280445797,"127":-0.13575335848216788,"128":-0.35667376257808897,"129":-0.12815158193751808,"130":-0.3240677822670938,"131":-0.03286424266845174,"132":-0.2505949775053716,"133":-0.42517983798687453,"134":0.05595449389130263,"135":-0.17184777239984853,"136":-0.12959357092941484,"137":-0.09882295115012456,"138":-0.001255407184286501,"139":-0.15275609485157976,"140":0.04010983070013668,"141":-0.20812562164599746,"142":0.05530471804509121,"143":-0.0719422948898898,"144":-0.20653856056318315,"145":0.03400541189796794,"146":-0.4725180920584013,"147":0.1914556447483956,"148":0.06634429139238983,"149":-0.35950284218094697,"150":0.10886409069090217,"151":-0.15996841730839081,"152":-0.02476856007302676,"153":-0.15437361537695676,"154":0.0031754987282020283,"155":-0.1148877463448188,"156":-0.08418492625425507,"157":-0.21891854032939628,"158":-0.002744504531717551,"159":-0.13431504803806102,"160":-0.3954032299502438,"161":-0.2612323552120371,"162":0.08070626233519121,"163":0.04881477938161168,"164":0.07593612161739768,"165":0.12486237096359479,"166":0.22396224187567548,"167":-0.09017360474551496,"168":0.07998105530829766,"169":0.07198379149474927,"170":0.1239252318015013,"171":0.09259245188506031,"172":0.11861299572821932,"173":0.1623911624044864,