{"layers":[{"out_depth":3,"out_sx":32,"out_sy":32,"layer_type":"input"},{"sx":5,"sy":5,"stride":1,"in_depth":3,"out_depth":16,"out_sx":32,"out_sy":32,"layer_type":"conv","l1_decay_mul":0,"l2_decay_mul":1,"pad":2,"filters":[{"sx":5,"sy":5,"depth":3,"w":{"0":0.2658187060086061,"1":-0.30406146052952804,"2":-0.2605655415212445,"3":0.17124483789860673,"4":-0.008780138149753463,"5":-0.14157856699993443,"6":-0.08129461551073557,"7":-0.1377780904230197,"8":-0.010453259102460005,"9":-0.08310115703629915,"10":0.29640828146649456,"11":0.049483574488399,"12":-0.19351840772707887,"13":0.08289334866208578,"14":0.17370110912773032,"15":0.37075347802861536,"16":-0.3621720251565243,"17":0.003835782937947509,"18":0.19437050655308757,"19":-0.16928244694981184,"20":-0.20046653477483545,"21":0.1527505299518881,"22":0.08872299230326694,"23":0.2282457712110923,"24":-0.050712691749180736,"25":0.040597095249383174,"26":0.10809232213094137,"27":-0.22115872218408097,"28":0.15471873205161607,"29":0.10986439710267323,"30":0.3443829495508487,"31":-0.18131504311913663,"32":-0.06607148491961588,"33":0.07386962703575155,"34":0.05671990316055735,"35":0.05049982708495618,"36":0.00019797104180606677,"37":-0.13063074808917677,"38":0.0873212925991204,"39":0.250565828014738,"40":-0.019754265204211464,"41":0.10081949621898727,"42":-0.06872389706027182,"43":-0.005540914445667187,"44":0.11110352542179343,"45":0.1280731512922332,"46":-0.2528928419529455,"47":-0.03667694893204507,"48":0.42766690032731175,"49":-0.17482464287393598,"50":-0.16426746450167376,"51":0.035046995116419705,"52":-0.03212684124079023,"53":0.07332194833925881,"54":0.09140217409733252,"55":0.14157113680550473,"56":-0.03585250820535748,"57":-0.21066271863768543,"58":-0.012029533561826563,"59":-0.08527888027402977,"60":0.07941520387396897,"61":-0.06722595705400597,"62":-0.03708983092648391,"63":0.13972389851300335,"64":-0.09763387667092344,"65":-0.10089222894304686,"66":0.11290202085314438,"67":0.005059052855896088,"68":-0.011679894449305457,"69":-0.049739762792588356,"70":-0.052075573832348294,"71":0.03299081840750252,"72":-0.08832168735679194,"73":0.03227980779358093,"74":0.1631809099470918}},{"sx":5,"sy":5,"depth":3,"w":{"0":-0.01516533501525335,"1":-0.22083038665080956,"2":-0.09171662879887828,"3":-0.24779599774814187,"4":-0.11646934920775202,"5":-0.18278302205116,"6":-0.1252312287200935,"7":-0.17887041529525202,"8":-0.10671072745259993,"9":-0.26193747160218145,"10":-0.10277275575743536,"11":-0.006957697117619474,"12":-0.08206779571044791,"13":0.1663125256145486,"14":0.12213203614386094,"15":0.22919621955555633,"16":-0.12771970039581104,"17":-0.14298403133796006,"18":0.10299457446031537,"19":-0.10774256087263322,"20":-0.03859351362890485,"21":-0.3596865809558285,"22":-0.031938077617657455,"23":0.13712463468030958,"24":-0.16285419312232216,"25":0.1370555772991442,"26":-0.22874409012921829,"27":-0.042414096331686434,"28":0.15340877611514053,"29":0.0659147179838953,"30":0.4639212929042195,"31":0.09689722539641482,"32":0.01093123371746994,"33":0.15860031356297793,"34":-0.3299663245742122,"35":-0.1549803336010636,"36":-0.06448527135930952,"37":0.023398607561532992,"38":0.0833486473147185,"39":-0.14010229851552639,"40":-0.0834267617584917,"41":-0.07755587394470764,"42":-0.39375971912866353,"43":0.03273142450981262,"44":-0.02812057057434474,"45":0.1578075553516421,"46":-0.018216237046414528,"47":0.0038468695813148827,"48":0.2961027613466415,"49":-0.07343302853640446,"50":-0.04486151774496354,"51":0.23617048371417262,"52":-0.07407601067675802,"53":0.000981820945110336,"54":-0.07721018497226773,"55":-0.012842862179449414,"56":0.08827592097797175,"57":-0.18277389405949634,"58":0.061151838286118865,"59":0.23859984241405913,"60":0.34601861443378135,"61":0.0937728462945312,"62":-0.09913941065429802,"63":0.17418115234388562,"64":-0.03612409778931731,"65":-0.10939658476757678,"66":0.11972048562128002,"67":0.151722005701455,"68":0.051607331238051245,"69":-0.04834084773345652,"70":-0.031874706505296474,"71":-0.019459682970070464,"72":-0.401822209207082,"73":-0.003598787736046662,"74":0.06331120013012828}},{"sx":5,"sy":5,"depth":3,"w":{"0":-0.06339234335673644,"1":-0.02304684252538244,"2":0.11317439229020741,"3":-0.1616574560348345,"4":-0.14972211431405766,"5":0.12522523377177694,"6":0.03147539893723712,"7":-0.14396032587158974,"8":0.10653732084024867,"9":0.22582300678910538,"10":-0.16393548493693405,"11":0.3061117060523676,"12":0.03350442118779792,"13":-0.09053988585193248,"14":-0.12458439738902553,"15":-0.10024169147471382,"16":-0.17082658506188983,"17":0.32438795344142135,"18":0.04226301334802213,"19":0.0057622116543012735,"20":-0.06820451655127273,"21":-0.10830937233491233,"22":0.00940256523869251,"23":0.037226848678976104,"24":-0.15059179207978343,"25":0.12711142402257625,"26":0.16711855870592277,"27":-0.00883387485035898,"28":-0.10614940056065537,"29":0.09889202288510765,"30":0.028073718828384372,"31":0.14786469537790783,"32":0.012562230790934806,"33":-0.11215391994495662,"34":-0.02729280238267235,"35":0.2667259501886047,"36":0.14867795624610566,"37":-0.12585474644351155,"38":-0.05849096625523858,"39":0.04665660314364937,"40":0.05238105875369379,"41":0.06750508354520378,"42":-0.04535601901701742,"43":0.024975918763093772,"44":0.03583955484298768,"45":-0.03115462786426809,"46":-0.2295771694803064,"47":0.05129951581237682,"48":0.15246511733679502,"49":-0.21011187735554543,"50":0.23494166076768033,"51":0.13691784650144515,"52":-0.26685584137687757,"53":0.34758982396573,"54":-0.030814395095757768,"55":-0.038753765613721035,"56":0.09786816685661912,"57":0.012523697885054176,"58":-0.007863869537837895,"59":-0.0526822020546622,"60":-0.030129087490450276,"61":-0.13078382771672922,"62":0.20863639704784392,"63":0.1485830589214035,"64":-0.13234247998730156,"65":-0.10505440712751399,"66":-0.019420725601602035,"67":0.01351469535509824,"68":0.09509798119581146,"69":0.15322347490806687,"70":-0.06129241565355207,"71":0.11200021697220224,"72":-0.03167660774069726,"73":-0.18961814574177552,"74":0.012556619281262766}},{"sx":5,"sy":5,"depth":3,"w":{"0":-0.04347196844120339,"1":-0.0709473528399226,"2":-0.26654157805528267,"3":0.016351735724246183,"4":0.14610444408809956,"5":-0.19234247105381858,"6":0.06300082960699493,"7":0.0611806103490805,"8":0.11820043450148707,"9":-0.0515548755762982,"10":0.06040869098872387,"11":0.23872393256979452,"12":-0.13197651436771546,"13":-0.05696667408015152,"14":0.1747598525118501,"15":0.09603581416629496,"16":0.03611243701728218,"17":-0.10509579149636966,"18":0.20654285838790182,"19":0.10130852074953381,"20":-0.25309295845294133,"21":0.07213922592674986,"22":0.14057433409192388,"23":-0.12337313357312524,"24":-0.013080525791545134,"25":0.09109720259910324,"26":0.1692677287102886,"27":0.09152661265332158,"28":0.018616991945213487,"29":0.10367081985067315,"30":0.17806151322700184,"31":0.031227735865202794,"32":-0.3117628762725479,"33":0.3098462453886728,"34":0.2797179329785642,"35":0.02304461538381575,"36":0.16535158055899454,"37":0.06343716076012426,"38":0.033150902851269,"39":-0.21775712661474664,"40":-0.1738182336522309,"41":0.27529102750651263,"42":-0.18240712288547248,"43":0.06049932705381316,"44":-0.07345065514446747,"45":0.31469617529014143,"46":0.6243636405454837,"47":-0.189120121676721,"48":-0.13992711389811444,"49":0.05195261325970594,"50":0.036438852036569304,"51":-0.23789173706631284,"52":-0.19070425132086094,"53":0.15479023470316103,"54":-0.16998299503766645,"55":-0.06777284362162755,"56":0.11776618791684816,"57":-0.08869401576628444,"58":-0.010666748993353964,"59":0.33765191940609285,"60":-0.10196307657719272,"61":0.03831887320286577,"62":-0.2861930712759602,"63":-0.45985159596648856,"64":-0.06535516078810066,"65":-0.1915157595032493,"66":-0.34139402290135457,"67":-0.3103108300010752,"68":0.189351169816151,"69":-0.20428889819757762,"70":-0.1162340260435515,"71":0.17879851124589002,"72":-0.12026291940975845,"73":0.1494878693693639,"74":0.12375284124470685}},{"sx":5,"sy":5,"depth":3,"w":{"0":-0.380764298377917,"1":-0.04850979374159436,"2":0.021455417455295483,"3":-0.09710759929162116,"4":-0.16276180112964223,"5":-0.09064072220641525,"6":0.009231674772702656,"7":-0.24683852786191263,"8":-0.038937162123463764,"9":-0.016564602394168675,"10":0.1194745471524323,"11":0.2807907458707268,"12":0.019455536594821476,"13":-0.0494215561829265,"14":-0.05706049344687601,"15":-0.23772612355646008,"16":-0.06950384771884525,"17":-0.16614875352071698,"18":0.09587248033687541,"19":-0.28254818613055693,"20":-0.36558757719626667,"21":-0.22312524371454662,"22":-0.015350544621413066,"23":0.033526938787492244,"24":0.1633774716476557,"25":-0.08241002000172573,"26":0.22035310198981134,"27":0.11382243755015363,"28":0.22518285820128559,"29":0.337060671594237,"30":-0.22167022908635056,"31":-0.27566739729405515,"32":-0.06673221110837098,"33":-0.1648940261961905,"34":-0.16216185893814505,"35":-0.23894220200147878,"36":-0.26840550507026417,"37":0.022428200621805044,"38":0.27173292541020927,"39":0.030353007845274317,"40":0.0015443555998741168,"41":0.19983532003286972,"42":0.2500906634337037,"43":0.03721380043152638,"44":0.4643987809453106,"45":-0.246031256723431,"46":-0.12144074362694593,"47":0.04303836419633356,"48":0.020702586082955072,"49":-0.1578749678326195,"50":0.0013071535872044957,"51":-0.13540300678389727,"52":-0.23158291684263982,"53":0.15161426674067646,"54":-0.020015639147838275,"55":0.17321517614065463,"56":0.17877144976794937,"57":-0.08438668641999947,"58":-0.18227559148076253,"59":0.29609120102336794,"60":0.03875011513587344,"61":0.04217023941227316,"62":-0.09736423446585546,"63":-0.08167421066044037,"64":-0.10212055252813623,"65":0.029022952025585403,"66":-0.004554299846249271,"67":-0.21556340490758988,"68":0.2956412559435988,"69":0.10619304047712985,"70":0.014268636048553959,"71":0.4031378771771509,"72":-0.1498209107068747,"73":-0.1442813142222953,"74":0.2911459372217851}},{"sx":5,"sy":5,"depth":3,"w":{"0":0.14683094985852552,"1":-0.02292642280445682,"2":0.23355349708372655,"3":-0.10058926791598946,"4":-0.2626522013488624,"5":0.0795364205328001,"6":-0.03329277548033106,"7":-0.3068681156689276,"8":0.09788042636531027,"9":-0.08683028918780149,"10":-0.2639639020948669,"11":0.19814877781615048,"12":-0.12149048750003336,"13":-0.3228452312196521,"14":0.07733445263474245,"15":-0.03684936522062626,"16":-0.05697298365024822,"17":0.29748640785160646,"18":0.040306992308385775,"19":-0.1964786433797934,"20":-0.0038803335707345067,"21":-0.108062686591281,"22":-0.288042677876388,"23":0.012008410445548496,"24":-0.09298695569035953,"25":-0.28445680865781126,"26":0.05711486809273874,"27":-0.09055861394800925,"28":0.0035950545805362856,"29":0.15095931092104736,"30":-0.06276876755642817,"31":-0.11900040016895057,"32":0.12532752561702667,"33":-0.2444858296634936,"34":0.007256036170444204,"35":0.146483388682214,"36":0.059855785460997145,"37":0.05732447496986953,"38":-0.09473251903823282,"39":-0.22443436814504725,"40":-0.012059591685405355,"41":-0.001150428675312461,"42":-0.01660671684281667,"43":-0.2689729859594936,"44":0.02747917910781833,"45":0.07097066351600538,"46":0.09699628060521565,"47":0.13954726218464117,"48":0.15302658657025667,"49":-0.2297570057039198,"50":0.18263560908535556,"51":0.17960248990374028,"52":-0.08856512360789359,"53":0.04931101982909926,"54":0.12641617409054715,"55":-0.08288191122347703,"56":0.02367130105511768,"57":0.0766074071095756,"58":-0.1563041899529411,"59":0.17899633835460518,"60":-0.21225869279731177,"61":-0.12906446676738145,"62":0.08352667869792352,"63":-0.04907431897944959,"64":-0.292038393449523,"65":0.19548122053036496,"66":-0.025135474493188682,"67":-0.11820014071545826,"68":0.20055880078518667,"69":-0.05106488704620991,"70":-0.057423848192155895,"71":0.15201652674698893,"72":-0.10659375919637819,"73":-0.07726093240127191,"74":-0.14440887421086976}},{"sx":5,"sy":5,"depth":3,"w":{"0":-0.13240448071365155,"1":-0.07480565349357772,"2":0.1981349512819631,"3":-0.1344819702375943,"4":-0.061507710643176214,"5":-0.09555702670717939,"6":-0.06540537250052286,"7":0.02105832678800432,"8":0.12613901050859785,"9":-0.23054844809407393,"10":-0.16812356249367946,"11":0.2255637594775494,"12":-0.2825239955758554,"13":0.08438835821940954,"14":0.187346674328323,"15":-0.03584782306779319,"16":-0.25943780773198427,"17":0.014180095985503923,"18":0.18742490940788048,"19":0.14071651542062627,"20":0.10298327186529088,"21":0.09901389974203832,"22":0.31152561823784175,"23":-0.21707765593429676,"24":0.06789811062091398,"25":-0.05745060630789041,"26":-0.06441862604369901,"27":-0.1004683072860041,"28":0.1220604618075406,"29":0.057972749612911795,"30":-0.051361458179524797,"31":-0.29441600096498144,"32":-0.0792634645267439,"33":0.057682166004682976,"34":0.2311301191848441,"35":-0.2780509393372855,"36":0.2772156966067606,"37":0.3311540836574073,"38":-0.04073708799544289,"39":-0.021857745711602455,"40":0.46441401993949966,"41":-0.11490354727045657,"42":-0.03382198651737467,"43":0.036953537745472415,"44":-0.07057288714937959,"45":-0.06798393019158074,"46":-0.04948196176276883,"47":-0.0384737299503158,"48":0.028983658146219685,"49":0.17724305996016326,"50":-0.21634615386888445,"51":0.19926337864753627,"52":0.27074926734176014,"53":-0.15388988840116505,"54":0.03415520617478905,"55":0.15709908565934544,"56":-0.16049976664027413,"57":0.10589200440440434,"58":-0.14175750521493743,"59":0.044575735128973115,"60":0.01690346954895853,"61":-0.24021995971714638,"62":-0.07965072347581989,"63":-0.4644142727502209,"64":-0.2445006973578017,"65":0.00692974083819489,"66":0.09996099579759911,"67":0.046689353308517256,"68":0.051151954207806466,"69":0.1030654610513925,"70":0.23886226072810593,"71":-0.26777977432312183,"72":-0.06524662582644705,"73":0.13568308392561357,"74":0.09898399355029891}},{"sx":5,"sy":5,"depth":3,"w":{"0":-0.016651398650223193,"1":0.04146434094879021,"2":0.28978066570639405,"3":0.06571643916046024,"4":0.26258067419140124,"5":0.251372777073713,"6":-0.15617490295394534,"7":-0.06871782461300567,"8":0.14601736085574069,"9":-0.1125115963134948,"10":-0.13628617586706607,"11":-0.3164336170907106,"12":-0.40728652044070773,"13":-0.019753246584190004,"14":-0.014474131570753262,"15":-0.10578780501546695,"16":-0.06288366207128004,"17":-0.01523362694075593,"18":0.28971037449639087,"19":0.04662146841235445,"20":0.29900348255580916,"21":0.20911163452375528,"22":0.14368888232744723,"23":0.23616496174627055,"24":-0.051205333660702984,"25":-0.21290133425803065,"26":0.10738668432394753,"27":-0.11299046942713867,"28":0.04864835073030191,"29":-0.21814609815232783,"30":0.1416662863677978,"31":-0.1140579803642598,"32":-0.13786280892323113,"33":0.07614129901031842,"34":-0.022040124380784037,"35":0.06514064618102666,"36":0.2666417131743675,"37":0.12176909913756702,"38":0.4152725660441181,"39":0.06427919930775386,"40":-0.08768104187124179,"41":0.3525075471969257,"42":0.015268282113497096,"43":-0.1377739379485968,"44":0.12175603329450042,"45":-0.10674723402717529,"46":-0.39799597883235427,"47":-0.1086063442494348,"48":0.05214953418068766,"49":-0.2539449902179016,"50":-0.1696440012950045,"51":0.14769701425286605,"52":-0.16155861443649983,"53":0.039368734023321784,"54":0.23447357162936683,"55":-0.15639561251392298,"56":0.024385531698650337,"57":-0.008920946519935621,"58":0.050848445079486826,"59":0.45080464794745384,"60":-0.018899806619965778,"61":-0.10396210975201425,"62":-0.09799330748778706,"63":0.06469670123249838,"64":-0.40009446512324914,"65":-0.05709918559303612,"66":0.0883549499084732,"67":-0.375692178448445,"68":-0.019094103440835918,"69":-0.030255056381285002,"70":-0.18197999244673446,"71":-0.17795378820337054,"72":-0.06429362280248327,"73":-0.021658729219367925,"74":0.02513691956087721}},{"sx":5,"sy":5,"depth":3,"w":{"0":-0.10488814903068361,"1":0.2462362913580388,"2":0.09063232685151355,"3":-0.17013653162562284,"4":0.08978853887014453,"5":0.05843283181444201,"6":-0.0724496997075727,"7":0.47394667822334535,"8":0.14626908118916374,"9":0.08682525134904975,"10":0.06817659149337897,"11":0.000022917209384594608,"12":0.04690182947977248,"13":0.1804932888635578,"14":-0.17287608329291754,"15":-0.3335151249689308,"16":0.09180892458803425,"17":-0.08052597067828965,"18":-0.06431480734289523,"19":0.07372247401970342,"20":-0.08959878357807706,"21":-0.3037785218763131,"22":0.1531560741107368,"23":-0.024863132152756543,"24":-0.060087065491154765,"25":0.095065957383434,"26":-0.1602694311498885,"27":0.08731969610981485,"28":0.16140030633896005,"29":-0.2977511584780063,"30":-0.27700141255200483,"31":0.12184273387546972,"32":-0.01895290237876756,"33":-0.13220170431325998,"34":0.06723770826405519,"35":0.17775546256630367,"36":-0.19375576582753196,"37":-0.023633304115269888,"38":-0.20371658935639464,"39":-0.18548218706818956,"40":0.1991164535686178,"41":-0.03768621732781721,"42":-0.2416430030198406,"43":0.17987342504819204,"44":-0.0068957306110122825,"45":-0.28793245324106814,"46":0.07108431047449788,"47":0.10477435697145356,"48":-0.22852388952593497,"49":0.003356138485953351,"50":-0.04262476152483425,"51":-0.22403504126878251,"52":0.37861800655955463,"53":-0.04509607888430925,"54":-0.32974347597525694,"55":-0.1464257281096149,"56":-0.024792178074988156,"57":-0.3261974387985274,"58":0.22612906253450063,"59":-0.030851888655141605,"60":-0.22551425843111417,"61":0.13471260890219616,"62":-0.024805281922261533,"63":-0.27121584576245256,"64":-0.10002361806826641,"65":-0.07039466510955773,"66":-0.13500997415606308,"67":0.12414324307584344,"68":0.05082292370266245,"69":-0.15828022312123513,"70":0.21285719699293548,"71":0.0690444024988393,"72":-0.05200276315924606,"73":0.20790286405265995,"74":0.02614882342403935}},{"sx":5,"sy":5,"depth":3,"w":{"0":0.015507930433611308,"1":-0.034990480716216465,"2":0.11134251856053369,"3":-0.024028454998098196,"4":-0.13810750882327028,"5":0.07084432630634076,"6":-0.057341192572895466,"7":-0.006892897517348483,"8":-0.02482995861826588,"9":0.029653337525346518,"10":-0.10246810581976781,"11":0.10927773046097701,"12":0.227760329052686,"13":-0.09956283909225713,"14":0.292633609550719,"15":-0.05472398669895789,"16":-0.08308924489451258,"17":0.25893383180700674,"18":0.002779668823814147,"19":0.03465919565113677,"20":0.01835136684292267,"21":-0.15402440419151187,"22":-0.10109651054795622,"23":0.22092181979524247,"24":0.28949048842628095,"25":-0.23076423384609973,"26":0.1573903228507705,"27":0.22199335132108086,"28":-0.09411091633759358,"29":0.1818928219847267,"30":-0.0026035458601239465,"31":-0.18028873089278985,"32":-0.09737209003618065,"33":-0.22650421222702666,"34":-0.07677470213839412,"35":0.00916784752375227,"36":0.0716511039789127,"37":-0.06850704024524149,"38":0.029441054970879302,"39":-0.09750992747751537,"40":0.048022698770483485,"41":0.0025659374403667985,"42":-0.0007747806349481358,"43":-0.08791270293473341,"44":0.2165013379105758,"45":-0.14082202723611048,"46":-0.07247108534419892,"47":0.23422198425212432,"48":-0.057646215268890105,"49":0.04846096055931899,"50":0.0743436212023452,"51":-0.05884449149840497,"52":-0.20294368769872548,"53":0.053881860753975,"54":-0.027951167806215035,"55":-0.15652997710308536,"56":-0.16299550863002937,"57":-0.15744129099398077,"58":-0.16093486487741598,"59":-0.012220209961129712,"60":0.056049943840658534,"61":-0.05337041272929707,"62":0.25406904268271324,"63":-0.011200179294259278,"64":-0.03437826588836604,"65":0.0826002966973401,"66":-0.04039926215299315,"67":-0.03326104251158839,"68":-0.0617807330519462,"69":-0.05063912190117851,"70":-0.11779375684296374,"71":0.1179887362531756,"72":-0.16951376059837617,"73":-0.19435272437561088,"74":0.15199701125398554}},{"sx":5,"sy":5,"depth":3,"w":{"0":0.09466385301721748,"1":0.10018451654600483,"2":0.11732351787052125,"3":-0.05240636887400016,"4":-0.02119522896618681,"5":0.1027957662961428,"6":0.19362489651469567,"7":-0.22424940972222623,"8":0.0790446392162502,"9":0.26550289516972736,"10":-0.003591181549453455,"11":0.21842398460780854,"12":0.27885065339977116,"13":0.03437050809027037,"14":0.28732768671644937,"15":0.02216198085239989,"16":0.2342832206464491,"17":-0.05685748296486101,"18":0.07168102420903652,"19":0.0640188179446477,"20":0.27374771166314843,"21":0.03927771945532683,"22":-0.2867908790026964,"23":0.2780235263918359,"24":0.10179811992574625,"25":-0.29520640757774347,"26":0.05868152572965581,"27":-0.12152740194184589,"28":0.009914574189216428,"29":0.32362958919799045,"30":0.03858800063022566,"31":0.21518994146495624,"32":0.18813579031363922,"33":0.1370428540466671,"34":-0.2437076048519314,"35":0.17945829246229836,"36":-0.08146720172850958,"37":-0.04618624477106271,"38":0.19270556243615986,"39":-0.05369602941329415,"40":0.016414898875192242,"41":0.06441143931243137,"42":0.05635005647530741,"43":-0.12432528032062536,"44":0.18485714369753062,"45":0.13473834445874672,"46":0.21827436965349103,"47":0.08488796747703461,"48":-0.29671123047828135,"49":0.07630353717043702,"50":0.2389279230473302,"51":-0.17486457667838767,"52":-0.04845607771689009,"53":-0.04798613533957947,"54":-0.2544504790206206,"55":-0.13390488079999693,"56":-0.26784123963437106,"57":-0.036511689498308686,"58":0.27606750451452255,"59":-0.18780001965713097,"60":-0.12478759762419217,"61":0.11316670151101478,"62":0.14911318009824867,"63":-0.2384931881923784,"64":0.005641913625497998,"65":-0.024342398305229083,"66":-0.3198122621568841,"67":-0.2162892669692719,"68":-0.25999995813112575,"69":-0.2812525042186266,"70":-0.19011189845200907,"71":-0.22003672885174058,"72":-0.2439640523722775,"73":0.000965126991493971,"74":-0.20172226912761115}},{"sx":5,"sy":5,"depth":3,"w":{"0":0.012212377761094413,"1":0.007728011728070492,"2":0.14393201984233814,"3":0.007752362863730101,"4":-0.08023104538882113,"5":0.12121409049968267,"6":0.01753746778680681,"7":0.05730003347777875,"8":-0.041235673732442676,"9":0.10375891571971123,"10":0.09213491324226779,"11":0.1770597366691108,"12":-0.12423850933205559,"13":0.06929026657550004,"14":-0.011916427733086375,"15":-0.08592635528166793,"16":-0.12909005118502,"17":0.1356786031603899,"18":-0.3303513089511908,"19":-0.23322288742918754,"20":0.2914826281398759,"21":0.0029507703436321155,"22":-0.24916341793056332,"23":0.06637017385301608,"24":-0.14635520568876512,"25":-0.05287113930181388,"26":0.20397147634600735,"27":0.13965079437508232,"28":-0.004111292316381896,"29":-0.14963182524561086,"30":0.055502418894456305,"31":0.046845279913876776,"32":0.3131701205293088,"33":-0.23560879295982967,"34":-0.11169765973778607,"35":0.19820054553619212,"36":-0.2126279159395474,"37":0.024999800457493237,"38":0.08983052872575045,"39":-0.06954274467926233,"40":0.04356224423594288,"41":-0.04786955013572385,"42":-0.03364478424141502,"43":0.3497505912601316,"44":-0.08854880641448284,"45":-0.0545184206581333,"46":-0.07782678073549748,"47":0.06247177316419628,"48":0.033307801124172684,"49":0.22751223515311367,"50":-0.15557777514621632,"51":-0.05113444627076973,"52":0.40346907718702535,"53":-0.12573769654263497,"54":0.11585988126521893,"55":0.07977685844856597,"56":-0.10154903850922584,"57":0.05899713354323523,"58":0.09003885542532719,"59":-0.22464836993974946,"60":-0.23013331213984126,"61":0.21393667078192208,"62":0.013353820548196988,"63":-0.029602172894581433,"64":0.22240702707367055,"65":0.06428012112213297,"66":0.137516000913823,"67":0.2048771483677902,"68":-0.11588740794453366,"69":0.06303981096948044,"70":0.23028384948764088,"71":-0.10472156633340875,"72":-0.4306929894102344,"73":-0.1060366776589111,"74":-0.11443019597534534}},{"sx":5,"sy":5,"depth":3,"w":{"0":-0.11408448354007988,"1":0.01089481889412728,"2":0.023703604282237167,"3":-0.0232460643476219,"4":-0.12707889293991353,"5":0.11989140325156898,"6":0.062024018336931185,"7":-0.0890176849519999,"8":0.014237896866761761,"9":-0.15654526591615917,"10":-0.19933356834614413,"11":-0.053056401575244445,"12":-0.22135021663323132,"13":-0.20734441477574217,"14":-0.097716784658209,"15":-0.2107652999605719,"16":-0.12964613051202847,"17":-0.0841550068077057,"18":0.17270703172518928,"19":0.028071012705914885,"20":0.031016132313757425,"21":-0.09210693308126555,"22":-0.08778677605479625,"23":-0.30127264458588393,"24":-0.05333709079277526,"25":-0.11855060941736777,"26":0.08512395810737097,"27":-0.1650557222702547,"28":-0.16318370511228736,"29":0.10371765199487534,"30":-0.07376803981797687,"31":-0.07226964249107211,"32":-0.04432238316481069,"33":-0.031055614164385195,"34":-0.20191399389715525,"35":-0.033657548435082,"36":0.021615034896634192,"37":-0.08721818034962463,"38":0.06798717417197515,"39":-0.018934294334717248,"40":0.24199095074737012,"41":0.07884938902672954,"42":0.06050432236479981,"43":0.40893979853716345,"44":0.31787722519803935,"45":0.047909432321463656,"46":0.01865497731161426,"47":0.10005966960729286,"48":-0.182537667161727,"49":-0.004347578475912215,"50":0.10197482059873827,"51":0.36637863554864486,"52":0.22920359295040446,"53":0.09507132119891167,"54":-0.21363244748620097,"55":0.2387576762931024,"56":0.21010085484171848,"57":0.09252665224812227,"58":0.15021509074441636,"59":-0.15115713047631016,"60":0.05264396557836418,"61":0.014536400931967772,"62":0.12445072873993746,"63":-0.10304583069160736,"64":0.31034411467826034,"65":0.2614610251415797,"66":-0.10414903621620795,"67":-0.12910197315689256,"68":0.24729505552843445,"69":0.006257772033658234,"70":0.13944317997482492,"71":-0.09263416569883216,"72":0.07336188418270731,"73":0.09098865607757246,"74":-0.2982064546626865}},{"sx":5,"sy":5,"depth":3,"w":{"0":-0.042053405249239374,"1":-0.024201118669650842,"2":0.20224156358595338,"3":-0.11851812300886852,"4":-0.07884444027551916,"5":-0.10522940053927725,"6":-0.1751016541846483,"7":-0.08326575986323595,"8":-0.1644830136413925,"9":-0.28208772281589706,"10":0.014948905218672988,"11":-0.3840962309470705,"12":0.04678537019224845,"13":0.350175431469107,"14":-0.03347895203399604,"15":0.08022407073907376,"16":-0.2221094918814235,"17":-0.07939083909656736,"18":0.08537340870702176,"19":0.015708212016124407,"20":0.32269804720436357,"21":0.00979809901282657,"22":0.009763349716334168,"23":0.10668177674901928,"24":-0.16941997545839993,"25":-0.09286075321051067,"26":-0.18646695331422447,"27":0.07368520713859429,"28":0.0654407317212772,"29":0.024577326274015706,"30":0.24599305805012614,"31":-0.08134417861776487,"32":-0.07453156354380676,"33":0.13427028332306526,"34":0.22768944180992534,"35":0.2937792484563087,"36":-0.0017812852545656236,"37":0.010222365786819631,"38":0.23427281443116915,"39":-0.02244910941849279,"40":-0.34292374913344004,"41":-0.28632482985501706,"42":-0.011019905766253982,"43":0.021600350269895856,"44":-0.2983092800863645,"45":0.033012391646459575,"46":0.030063183477586713,"47":0.16985243142341283,"48":0.2914309036825188,"49":0.13765673906702747,"50":0.2952717304412253,"51":0.10014012320408211,"52":0.34739109981508465,"53":0.2060476434925297,"54":-0.253330048929413,"55":-0.14782740182172627,"56":-0.17913523870908538,"57":-0.05427667582373974,"58":-0.06145935002845014,"59":-0.01798962562437128,"60":0.059869805391285676,"61":-0.1942352362132318,"62":0.22101145742857342,"63":0.13087100458039833,"64":0.047774542467634774,"65":0.32462744092876933,"66":0.15875256544819638,"67":-0.0817153565042093,"68":0.1439945350965971,"69":-0.050493713867184646,"70":0.02090444527201014,"71":-0.08403197694754849,"72":-0.006955634427198581,"73":-0.07422911961258338,"74":-0.09280649985559902}},{"sx":5,"sy":5,"depth":3,"w":{"0":0.32407811385107493,"1":0.2597307414544244,"2":-0.03469803255357934,"3":0.21862688352321616,"4":-0.010080242401554727,"5":-0.15656377008048888,"6":0.3137638911273585,"7":0.02364321562737299,"8":-0.03445462635719858,"9":0.02643946756457355,"10":0.0709887723973058,"11":-0.018849540740580945,"12":0.08645849155452366,"13":-0.03493759233166982,"14":-0.1012818308533554,"15":0.25103039239204666,"16":0.054800294301814156,"17":0.10623018107279263,"18":0.17829758180305494,"19":-0.11440735391711826,"20":-0.09390330056611679,"21":-0.0545274226977862,"22":-0.2171880309660999,"23":0.1859775827383244,"24":-0.2192375550037951,"25":-0.1521745323408238,"26":-0.1285953234866167,"27":0.017016846019946866,"28":0.04771670826552595,"29":0.11924092367515914,"30":0.0038051409533921823,"31":0.017700733266357276,"32":-0.007650223779245987,"33":-0.13754525709519924,"34":-0.28611477506098115,"35":0.11014100812882259,"36":-0.10619911691467884,"37":-0.17045010270880653,"38":-0.03839891511304619,"39":-0.28199053688561704,"40":-0.17029535103162544,"41":0.13066195272480072,"42":-0.2632978200263619,"43":-0.14331433761031306,"44":-0.1146808927228856,"45":0.006234049224648444,"46":0.12761198736055154,"47":0.04106038441383434,"48":0.09326142718870158,"49":-0.10955601054706306,"50":-0.11446836647310163,"51":-0.2546622116252152,"52":-0.26187004251586443,"53":0.1317677629880798,"54":-0.274634479151548,"55":0.05886657255414706,"56":-0.03765870744569571,"57":-0.26802885114718455,"58":-0.046336321086944195,"59":-0.1203656529853397,"60":0.1221043162358547,"61":-0.1050194575112109,"62":0.04862835153361995,"63":-0.09325138103790558,"64":-0.050402347779503975,"65":-0.00997436594134559,"66":0.057876517641768946,"67":-0.06321831877911079,"68":0.015328364690291113,"69":-0.19862801703250957,"70":-0.1858682881745999,"71":-0.22243312194026915,"72":-0.21762490794658287,"73":0.0457730329340512,"74":0.0480244396549914}},{"sx":5,"sy":5,"depth":3,"w":{"0":-0.1422088460986703,"1":-0.033916100962926646,"2":0.2552280210398192,"3":-0.06731098434120174,"4":0.026329905893189853,"5":0.11245201385669414,"6":-0.003897062322203457,"7":0.16619529049517276,"8":0.025513127600940176,"9":-0.036042948465837985,"10":0.06946868878397706,"11":-0.04130266243075445,"12":-0.29342637736205546,"13":0.0419947870274356,"14":-0.1722338178423965,"15":-0.039484839830001464,"16":0.10513261508179303,"17":0.1966827129625077,"18":-0.1688956199399004,"19":0.1162984265960455,"20":0.10876301492205431,"21":-0.03605238803232451,"22":0.0759161493300902,"23":-0.08339738541609239,"24":0.03538718901568233,"25":0.1321282669368045,"26":0.3392513691160622,"27":-0.04379474867584893,"28":0.20213308263979768,"29":-0.09279106914393136,"30":-0.13018918468309845,"31":0.12764427362546926,"32":0.18662634060966615,"33":-0.1655187308134976,"34":0.23046463161958575,"35":-0.04777621230074191,"36":-0.351687428594472,"37":0.015925702937793402,"38":0.21543164328747397,"39":-0.22276281596475472,"40":0.338080145798183,"41":-0.06813599279671903,"42":-0.10297155261246833,"43":0.26651799711349045,"44":0.24249376907398928,"45":-0.046776612166410186,"46":0.017015350614173474,"47":0.1973454000889054,"48":-0.17404799105622631,"49":-0.15554637531815066,"50":0.28585168685916157,"51":-0.02774123726508377,"52":0.2161356607978117,"53":0.08531665934890717,"54":-0.018670116616692167,"55":0.03811526126406215,"56":-0.25287488343361464,"57":-0.09499032836622315,"58":0.0777640412911964,"59":-0.12032166961458225,"60":-0.2518991762174681,"61":-0.1135909697135243,"62":0.005912660946695523,"63":-0.12895010327586257,"64":-0.0836944594793199,"65":0.004574380844808909,"66":-0.29758444822111274,"67":0.0006354731443256284,"68":0.1602580406417185,"69":-0.23884564924535595,"70":0.27199058992816344,"71":0.01704008759998441,"72":-0.020246307616392425,"73":0.06964768199753722,"74":0.03488706624834429}}],"biases":{"sx":1,"sy":1,"depth":16,"w":{"0":-0.32157262273477905,"1":-0.24124149509476145,"2":-0.03359851501253787,"3":-0.1465623157828785,"4":-0.06389370408449967,"5":-0.1537667214820159,"6":-0.3103844986288289,"7":-0.15198236819037644,"8":0.11534110774872695,"9":-0.24562404310256378,"10":-0.3181501897194979,"11":-0.20765877157732776,"12":-0.38014192235547783,"13":0.016939391306343008,"14":-0.018197252307331657,"15":-0.08496519297491012}}},{"out_depth":16,"out_sx":32,"out_sy":32,"layer_type":"relu"},{"sx":2,"sy":2,"stride":2,"in_depth":16,"out_depth":16,"out_sx":16,"out_sy":16,"layer_type":"pool","pad":0},{"sx":5,"sy":5,"stride":1,"in_depth":16,"out_depth":20,"out_sx":16,"out_sy":16,"layer_type":"conv","l1_decay_mul":0,"l2_decay_mul":1,"pad":2,"filters":[{"sx":5,"sy":5,"depth":16,"w":{"0":0.0797375245484735,"1":-0.0477193796550285,"2":0.18688737494149835,"3":-0.12670732596558182,"4":0.10506892014693565,"5":0.20826711071654294,"6":-0.08210351228541415,"7":0.08387704053030066,"8":-0.21587403154742804,"9":0.08142458317660457,"10":0.036917668199351494,"11":-0.1341421343430825,"12":-0.0009721507506059281,"13":0.01071024481672932,"14":0.015554208251393151,"15":-0.027015947005075234,"16":-0.07218166206930911,"17":-0.13151106064045254,"18":0.07581417314979062,"19":-0.07790990630893262,"20":-0.0521508617570009,"21":0.22302662586707053,"22":-0.3550150830703724,"23":0.01622014581226626,"24":-0.24757601989316322,"25":0.08394365989772852,"26":0.07935156726847616,"27":-0.06345092159606339,"28":-0.054366643988958074,"29":0.15421620812998046,"30":0.048386502041785,"31":0.048402515042567915,"32":-0.09801957957607729,"33":-0.04219788668909931,"34":0.08323883423664895,"35":-0.11644939632130075,"36":-0.12881740527592678,"37":0.15863949093878155,"38":-0.2259121862899756,"39":-0.18505962494023956,"40":-0.3009768384352744,"41":-0.029219575498192575,"42":-0.12880806452032453,"43":-0.035304657160128476,"44":-0.06328691539665317,"45":0.01643811976244242,"46":0.04366817642971017,"47":-0.0174238812799934,"48":-0.08648671137452073,"49":-0.06054681277270937,"50":-0.041941860744434324,"51":0.011187190720508914,"52":0.101717200550931,"53":-0.20929638222496832,"54":-0.04873022037775954,"55":0.01401369069253766,"56":-0.18195033043912506,"57":-0.14052830882777417,"58":-0.1361276779909977,"59":-0.1065422228579146,"60":0.09281752344682684,"61":-0.21971555185319555,"62":-0.1454530883988791,"63":-0.06942095177698518,"64":-0.1494391240879132,"65":-0.07867726525922164,"66":-0.024355271907991572,"67":-0.0038368745136643616,"68":-0.012002613880331766,"69":-0.1891701544549916,"70":-0.1855819896903315,"71":-0.1801445584217272,"72":-0.14830630694960267,"73":-0.124981298445894,"74":-0.254540247563123,"75":-0.19349215129169192,"76":0.0050294452315856,"77":-0.19224410648149,"78":-0.10992125149179176,"79":-0.14123655146731956,"80":0.038678871288997274,"81":-0.10475900406778987,"82":0.1612508818083492,"83":-0.13436268548280572,"84":0.08272121905336152,"85":0.1565250267204404,"86":-0.07458441394680779,"87":0.11716735692190115,"88":-0.1947846833749986,"89":0.3420346574081952,"90":0.04799333022312303,"91":-0.15639253429504063,"92":-0.04247808842427359,"93":0.08650733770270866,"94":0.0557077785633119,"95":-0.1192126115071829,"96":-0.1836422794636969,"97":-0.1546499940386217,"98":0.04122572236474321,"99":-0.00037763397495529347,"100":-0.10447342326550714,"101":0.16061707727529015,"102":-0.3257860675328765,"103":-0.08779078937604357,"104":-0.24774032960639175,"105":-0.0534964435727821,"106":0.08231969133073865,"107":0.07792544593309075,"108":-0.021472010857647144,"109":0.01751421627455751,"110":0.09944441114244393,"111":-0.09677064739508878,"112":-0.16515115671453529,"113":-0.26082813020380635,"114":0.11065512890676958,"115":-0.12346269480474181,"116":-0.05052892671498811,"117":0.007866114282152106,"118":-0.23085903173629116,"119":-0.20248660844091176,"120":-0.21203004546819057,"121":-0.09706917440722218,"122":-0.2336626005849015,"123":0.005163646574496646,"124":-0.03622680928136366,"125":-0.03561748248174257,"126":-0.08978334928527011,"127":-0.06909291253872049,"128":-0.10139344146759145,"129":-0.13524130299986292,"130":-0.014994148386840364,"131":-0.09029472532649901,"132":0.03614541491528035,"133":-0.21496717101988616,"134":-0.05782742973800883,"135":-0.007933756751346534,"136":-0.12429067154974902,"137":-0.12101262911506143,"138":-0.16936912427669212,"139":-0.13572405309995297,"140":0.016464132230242828,"141":-0.19343880201444452,"142":-0.24383302241389873,"143":-0.13394029265897664,"144":0.08206275902708773,"145":-0.10859688651490436,"146":-0.06954659448060964,"147":-0.0981385829791193,"148":-0.07853836397282003,"149":-0.26991400680151817,"150":-0.17468576230420796,"151":0.03425676609515119,"152":-0.18027947811578796,"153":-0.14447659078595212,"154":-0.05086059490091832,"155":-0.1248016232787579,"156":0.07065730238698495,"157":-0.19646357841756712,"158":-0.13021510343199055,"159":-0.06745277434796376,"160":-0.085220691604961,"161":-0.07724213980199991,"162":0.27092787588508654,"163":0.04084633162611538,"164":0.04737334286836937,"165":0.2301671805239181,"166":-0.07497702969768985,"167":0.1515319290062108,"168":0.015289181542267825,"169":0.13180426191983993,"170":-0.05553060933351986,"171":-0.11034068956907953,"172":-0.13216028601148913,"173":-0.1054088528800393,"174":0.0682799705712978,"175":-0.14794717151559342,"176":-0.2723085308730497,"177":-0.23782135169684107,"178":0.044663420868435326,"179":0.08186493675943815,"180":-0.013061126959970625,"181":0.1408963829213664,"182":-0.3077536736587392,"183":0.04117754439945817,"184":-0.019393669089304393,"185":-0.06750109596669143,"186":-0.04913405836199612,"187":-0.23780951605170422,"188":-0.06736807258404551,"189":-0.05789212551668811,"190":0.17109458693297436,"191":0.005733878557315932,"192":-0.09993768618170441,"193":-0.1003035092047989,"194":0.07853654034490982,"195":-0.02174539465063939,"196":-0.07025771807924204,"197":-0.03384210092477899,"198":-0.20218468016245159,"199":0.06304168759055313,"200":-0.012353228736038592,"201":-0.11977923629182058,"202":-0.2695474877369302,"203":-0.11610938986514914,"204":-0.023403041101970806,"205":-0.1547586005113675,"206":-0.08023346241938382,"207":-0.07247412319897097,"208":0.22907721402814304,"209":0.0037436974841781705,"210":-0.028213423314701145,"211":-0.099520851121623,"212":-0.08821142954414056,"213":-0.2796911044061434,"214":-0.14937758226263956,"215":-0.03796557576682308,"216":0.0757952721201541,"217":-0.2386482792484863,"218":-0.23428376472536575,"219":-0.13338295330253352,"220":-0.05934885619661376,"221":-0.21180108703074638,"222":-0.09068879039255871,"223":-0.19785806265465072,"224":0.15941171001283447,"225":-0.02881422274778785,"226":-0.034679224178414646,"227":-0.1336041512076811,"228":-0.1831020828610123,"229":-0.28109952734748556,"230":-0.3153928592260822,"231":0.0661210531084491,"232":-0.07531216766764291,"233":-0.21608700217379936,"234":-0.08988279453256241,"235":-0.11867512294436527,"236":-0.06629305793707223,"237":-0.16697993939413439,"238":-0.161781017662987,"239":-0.14909442523156988,"240":-0.16742204657507107,"241":0.09580213602775037,"242":0.1817663884518857,"243":-0.19301772952048218,"244":0.02233866790838002,"245":0.1256001009931255,"246":-0.11715797728547991,"247":0.02016879658256714,"248":-0.017841534219517795,"249":0.1122080226454953,"250":-0.17257878341528324,"251":-0.053691883695977514,"252":0.009504488496290122,"253":-0.13909715184424823,"254":0.044970552278217134,"255":-0.0032869070025710453,"256":-0.26826079128302255,"257":-0.0020923377926142196,"258":0.09606287741600832,"259":0.06463380472155217,"260":0.06329874487757388,"261":0.055742653288766465,"262":-0.24742871321570534,"263":-0.10499958301826533,"264":-0.2463711749876303,"265":-0.0258215832532491,"266":-0.011234337227047175,"267":-0.11989863774280712,"268":-0.01863035941386195,"269":-0.1047987807982242,"270":0.05304283212761665,"271":-0.03377770915399638,"272":-0.003454974205234301,"273":-0.043004402683291955,"274":0.16976516963302596,"275":-0.19627679588594452,"276":-0.06045143967514694,"277":-0.02775228384208804,"278":-0.3181699825032793,"279":-0.12470230658593494,"280":-0.08778929572386804,"281":-0.17227437388866004,"282":-0.12584029424031623,"283":-0.16822272362011165,"284":0.09405218070732393,"285":-0.05371524845226652,"286":-0.15826149245001314,"287":-0.03462429788920173,"288":0.18034910691145098,"289":0.019186025629399514,"290":-0.024490253000416747,"291":-0.10941053667684639,"292":-0.018474107433640967,"293":-0.1871892076539387,"294":-0.33174228777046816,"295":-0.03551308812836864,"296":-0.13079347013582468,"297":-0.17832562910735075,"298":-0.10537938120508096,"299":0.0005619425124398059,"300":0.03823296589951483,"301":-0.05900318702494038,"302":-0.13244871806203212,"303":-0.2388175222997313,"304":0.18355870065788324,"305":0.1190521127006667,"306":-0.022929371234145974,"307":-0.003681046367757852,"308":-0.26453195361186355,"309":-0.18478906996201222,"310":-0.29505443416787464,"311":0.035545779562318754,"312":-0.279688446186927,"313":-0.213526295119476,"314":-0.060778170609474456,"315":-0.15126948497236073,"316":-0.03593390808203892,"317":0.009237867447376228,"318":-0.040767530517329016,"319":-0.09986089369261672,"320":-0.07310015802699973,"321":-0.0559660902117067,"322":0.12332763785754727,"323":-0.043311561281481684,"324":0.16977329508169062,"325":0.03980298619279595,"326":-0.17877645100887196,"327":-0.019419895947771566,"328":0.03328246836619484,"329":0.15880546752498143,"330":-0.21280298531642372,"331":-0.07657424787524285,"332":-0.012695776328187197,"333":-0.14337229136250323,"334":-0.14239712100301183,"335":0.10151069077591746,"336":-0.114170427177923,"337":-0.03198428170722834,"338":0.20031646486990598,"339":0.04296477227296466,"340":0.33082160612500433,"341":0.025109177296581856,"342":-0.3282773444543056,"343":-0.06362986689084854,"344":-0.13368896995025717,"345":0.08800163162886389,"346":0.0722207256749024,"347":-0.10606507438156096,"348":0.12766743936092004,"349":-0.025788259277497817,"350":-0.10118504555252643,"351":0.12096615931934751,"352":0.08076987620355329,"353":-0.11920729383055415,"354":0.2211662260557179,"355":-0.09191996458519572,"356":0.14710163170489618,"357":0.00817609615972944,"358":-0.2568328651996772,"359":0.11077016184355737,"360":0.05496417663743683,"361":-0.02474402894476997,"362":-0.09775836965091504,"363":-0.04782492953069495,"364":0.1697346542303011,"365":0.11599693502062657,"366":-0.2534381252410858,"367":0.07654095023380925,"368":0.18707741409231554,"369":0.08057181409224379,"370":0.13025691327951594,"371":-0.08643133531369912,"372":0.030930694600629065,"373":-0.030467748867504363,"374":-0.2012413806012823,"375":0.042370029687184854,"376":-0.0895217516947424,"377":-0.03590838049503676,"378":-0.06000418608731743,"379":0.12692596323286917,"380":-0.03383470791261343,"381":0.14780364295228332,"382":-0.03328077725484934,"383":-0.1588858499135562,"384":0.11994665985221498,"385":0.27859096699532093,"386":-0.011948043314770456,"387":0.07752181570115028,"388":-0.16714297810449624,"389":0.011878808612748487,"390":-0.30886262335184633,"391":0.23609558492288665,"392":-0.13802771051523782,"393":-0.12795498715145256,"394":-0.1114422589833312,"395":0.010077915127552878,"396":-0.2676747104404522,"397":0.17163824905494535,"398":0.20857217548541407,"399":-0.08753623488853636}},{"sx":5,"sy":5,"depth":16,"w":{"0":-0.24588044256103558,"1":-0.25310636465495323,"2":-0.04959728043241308,"3":-0.15003452222952693,"4":0.1404636609763719,"5":0.13512495538176927,"6":-0.02629122126737798,"7":-0.09143774263219503,"8":0.09356906192675471,"9":0.27377418312562035,"10":0.011993998793052112,"11":0.05388295581431712,"12":0.011619928281224929,"13":-0.2638077945704487,"14":0.18173513290021373,"15":0.09280316970422217,"16":-0.2140724664808615,"17":-0.2897737982154533,"18":-0.05416597701735008,"19":-0.08988354307653407,"20":-0.13110598402905319,"21":-0.12173297350108866,"22":-0.14421475406827694,"23":0.006838718484453224,"24":0.13620389848625739,"25":0.10484300644918908,"26":0.06042349856236147,"27":-0.09085506264321558,"28":-0.007567598157315218,"29":-0.10542658182879529,"30":0.1770593148080298,"31":0.00748218419422119,"32":-0.271198175332082,"33":-0.2692087890082958,"34":-0.08300971063276198,"35":0.046241568301596925,"36":-0.18764565743086134,"37":0.0711005636968042,"38":-0.16999468522334224,"39":0.07419329044644828,"40":0.23352941811929268,"41":0.00252071447256047,"42":-0.0956429712261916,"43":-0.035378958143168215,"44":-0.02951111306234306,"45":-0.06251412041623954,"46":0.01180514988950741,"47":0.19023815095389607,"48":-0.2666822353340995,"49":-0.10821609720317461,"50":0.1236878260927366,"51":-0.19015704868347122,"52":-0.17985402196763273,"53":0.04200465872016852,"54":-0.14646097431607166,"55":-0.14543643347279572,"56":0.08056409470189055,"57":-0.030752515259399094,"58":-0.10007944661663815,"59":0.19645500912512312,"60":-0.061339945914649606,"61":0.010957947368311056,"62":-0.12009180542893372,"63":0.11639744265023381,"64":-0.24922669221932034,"65":-0.1439364670984979,"66":-0.006985134491298213,"67":-0.06954645105675718,"68":-0.17141408032357616,"69":0.0296188997776097,"70":-0.13405440139085195,"71":0.04889254510994042,"72":0.18115455270498904,"73":-0.03894426381690811,"74":-0.011181935699166876,"75":0.05614322804286806,"76":-0.14241837377263514,"77":0.018890504234547217,"78":0.0371914517700996,"79":0.06097681102534808,"80":-0.035977479012128076,"81":-0.10210092153252247,"82":0.03191655163857692,"83":-0.07928014471469842,"84":0.059751660781558184,"85":-0.08319912469152967,"86":-0.11658875731067608,"87":-0.1099432422249885,"88":0.20143828767319436,"89":0.15412275221063113,"90":-0.03767957157418605,"91":-0.02116735752857244,"92":0.31532024039514217,"93":-0.17518598167302543,"94":-0.041787719286390315,"95":0.06976724380748599,"96":-0.10034453723007727,"97":-0.08434079233549423,"98":-0.02413997634589893,"99":-0.1799504104938556,"100":-0.2493352605280422,"101":-0.03275304829567984,"102":-0.03351940530336806,"103":0.022531947910622466,"104":0.12360622838522031,"105":-0.030792364346481516,"106":-0.0852203217470786,"107":-0.019811963046282684,"108":0.159505556770674,"109":-0.12299649249151395,"110":-0.09433705434636003,"111":0.016560071407902353,"112":-0.06645878267822933,"113":-0.12856920826124424,"114":-0.01614709082773024,"115":-0.08678970718468922,"116":-0.19710927569126366,"117":0.14040558453215632,"118":-0.0374446261384773,"119":0.09232286335399896,"120":0.15378488677355404,"121":-0.1436310561460858,"122":-0.25167554490285293,"123":-0.018164233763357965,"124":0.18100624165439735,"125":-0.12423964858730714,"126":-0.24360198078750667,"127":0.0639542655078559,"128":-0.060885630487361515,"129":0.04502867915135749,"130":-0.03556756732046768,"131":-0.17295886775245545,"132":-0.16252139471970278,"133":-0.009319102356662985,"134":0.024108921562597183,"135":0.07321813213094952,"136":0.05397142007842392,"137":-0.15314757975912155,"138":-0.21564649630778004,"139":-0.017951465754337544,"140":0.0007354513370620147,"141":-0.02971131552361169,"142":-0.18005670878965407,"143":0.2200863621287534,"144":-0.0037830965471413003,"145":0.017758398044998115,"146":0.046603536893953385,"147":-0.08062666005823389,"148":-0.06643470720479176,"149":0.02617670110807586,"150":-0.059812392586018136,"151":0.10547102107342585,"152":0.010809044747625854,"153":-0.11166946656882122,"154":-0.15955992385231518,"155":-0.05833464975380837,"156":-0.020745788901344684,"157":-0.011553128148029024,"158":-0.05363604477367622,"159":0.07720169991123826,"160":0.03585496382861599,"161":-0.14013670173101844,"162":0.12110211788074263,"163":-0.20421320644841762,"164":-0.04436985092309863,"165":-0.0014358451024766013,"166":-0.22288067834701272,"167":-0.021672801701345605,"168":-0.0874726176275363,"169":-0.08169206595952573,"170":0.07588534658450416,"171":-0.03187575317139495,"172":0.27288696057680645,"173":-0.09805380721288316,"174":-0.08189354398554159,"175":-0.06551789135809309,"176":0.09882969033158547,"177":0.011068700940203888,"178":0.06938300756238579,"179":-0.2444082544730677,"180":-0.05496370644897825,"181":-0.008504619008121671,"182":-0.10246282344610981,"183":0.07865865236830563,"184":0.015426697920611146,"185":-0.08403273390386412,"186":-0.09614599926832627,"187":-0.1867782762078201,"188":0.2652271598781305,"189":0.04085413003149513,"190":-0.1450448052079168,"191":-0.09576927321739978,"192":0.15777123923748113,"193":-0.012787909988240849,"194":-0.0508552807321385,"195":-0.23690775012760473,"196":-0.19737185747500244,"197":-0.030766653817050932,"198":-0.09792217991541835,"199":0.13581606798064189,"200":0.09789273919951998,"201":-0.1793964515904885,"202":-0.23199671631379123,"203":-0.0856003396033887,"204":-0.0441458467217172,"205":0.01987620033307448,"206":-0.10552282516493172,"207":-0.16105169022576496,"208":0.15795648673494073,"209":0.07861195701695256,"210":-0.023155297301972112,"211":-0.018628405049647665,"212":-0.05514429881794117,"213":-0.09566780487412097,"214":-0.08792526618978942,"215":0.2594214275064736,"216":-0.08395830281905792,"217":-0.0936179820015963,"218":-0.24103517957024595,"219":-0.039493198293548,"220":0.017504571977230345,"221":0.043489800225742524,"222":-0.05390207277923416,"223":0.027234004217614523,"224":0.23162833214562906,"225":0.148572649611518,"226":0.07998942970159474,"227":-0.11697003831582824,"228":-0.1552674475742225,"229":-0.02310153522668868,"230":-0.04931609818208234,"231":0.07645650013638997,"232":-0.015118236056147536,"233":0.06645432829993853,"234":-0.0541705511565719,"235":0.03578260955206201,"236":-0.08493336610117445,"237":0.07572532515043572,"238":0.04078221330862265,"239":0.18831976233252162,"240":0.055577444535069596,"241":0.03581221598099677,"242":0.03579246911742293,"243":-0.2928151385612879,"244":-0.08733448484665222,"245":-0.1219651725153308,"246":-0.14739772749812663,"247":0.019960023324591063,"248":-0.07769967588638008,"249":-0.024015306988859175,"250":-0.02390431262691404,"251":0.018331119951808604,"252":0.162629749598505,"253":-0.040187096067957985,"254":-0.13133185910484593,"255":-0.11393996000975742,"256":0.15472255747893932,"257":0.07673526016701503,"258":-0.03364373808960897,"259":-0.27341657504120165,"260":-0.15003338567209307,"261":-0.0722907062996286,"262":-0.18601671763838665,"263":0.08079578786324558,"264":-0.31045611447314553,"265":-0.13535658703125397,"266":-0.23304555600038634,"267":-0.07745967323835427,"268":0.03155660512754271,"269":0.10943485811234217,"270":-0.07112202640629911,"271":-0.1049800771828421,"272":0.17846163554060798,"273":0.14764101020980547,"274":0.061159622514518966,"275":-0.10862466100983972,"276":-0.3210155291032526,"277":-0.15033519952329416,"278":-0.12895494322636378,"279":0.15680616457074087,"280":-0.334932987259853,"281":-0.13122743743517878,"282":-0.31807396555814293,"283":-0.25844216371768985,"284":-0.03688460381098098,"285":0.08078517483838614,"286":-0.16128919859109253,"287":-0.16138643588740548,"288":0.2142436146255895,"289":0.22372668272144872,"290":0.12881894209004313,"291":-0.040314117297467505,"292":-0.16792161138217832,"293":-0.11158227117441835,"294":-0.15095628782608755,"295":0.11144640537401158,"296":-0.30767515113704186,"297":-0.13873505761239177,"298":-0.32413774959390557,"299":-0.11237586840303367,"300":-0.20955862760144686,"301":0.012301719182723315,"302":-0.09165476512832947,"303":-0.05138632216827492,"304":0.28323850728667505,"305":0.18929846393845007,"306":-0.0049053628502354245,"307":-0.0531424783157003,"308":0.024424307058008417,"309":-0.05936394787756919,"310":0.030354487178838055,"311":0.2532308001137451,"312":-0.05496867644292832,"313":-0.06753358035306668,"314":-0.08609682035050069,"315":-0.10813993760874116,"316":-0.09728692612350964,"317":0.11580325086376295,"318":0.002293406307055814,"319":0.19239895243954608,"320":0.049565601460450644,"321":-0.07632310603331031,"322":0.09998654029657293,"323":-0.24472767591427658,"324":-0.10606365978603716,"325":-0.17668876719409923,"326":-0.19966256936150142,"327":-0.10112098266383875,"328":0.1497325966231184,"329":-0.02118327309849402,"330":-0.0681147261867057,"331":0.0581303588232284,"332":-0.017385596705180854,"333":-0.07610505958453244,"334":0.07182073718377,"335":-0.15783823401218905,"336":0.188337880192318,"337":-0.02765480748272595,"338":-0.020505586466376072,"339":-0.23912067862253164,"340":-0.22230647089443958,"341":-0.13255877384266515,"342":-0.2903613298923409,"343":0.020831553527809136,"344":-0.16444638829781644,"345":-0.02346126411451239,"346":-0.0277814278139547,"347":-0.041581938472661326,"348":-0.09018778688481839,"349":0.04776752906961072,"350":0.06524867298990736,"351":-0.14490467110511548,"352":0.2275266589092622,"353":-0.0010557656055953956,"354":0.04549324824391427,"355":-0.24136707889745948,"356":-0.34046594914021416,"357":-0.21944680900370625,"358":-0.17694915052745824,"359":0.07108116864183288,"360":-0.17213165898555782,"361":-0.037681598147369724,"362":-0.3530901947357737,"363":-0.29135707881580214,"364":-0.033787695094457566,"365":-0.04747837123086023,"366":0.16823994908037412,"367":-0.32488036701031325,"368":0.3658724452799708,"369":0.06700625060072643,"370":-0.014789031081454405,"371":0.008082501670483654,"372":-0.1611396761195995,"373":-0.14525234860742797,"374":-0.16808315122255238,"375":0.09312663494534311,"376":-0.1352576560476143,"377":-0.1284955925544084,"378":-0.1252581599432622,"379":-0.22816743153072974,"380":-0.24758787599716023,"381":-0.058086541157312765,"382":0.09519027864215585,"383":-0.12355477982843201,"384":0.33751538108187085,"385":0.08660218982550313,"386":0.08508881068187742,"387":0.06922109675346669,"388":0.03247779091597186,"389":-0.15335373492225515,"390":-0.13545052047531742,"391":0.20842308573934126,"392":-0.03018750569426993,"393":-0.20461463891320616,"394":-0.1016747076600689,"395":-0.2779705560566752,"396":-0.30433470290321196,"397":0.15679482496474942,"398":0.06492362161380451,"399":0.022420285330360817}},{"sx":5,"sy":5,"depth":16,"w":{"0":0.010685763285411326,"1":-0.12291783248013867,"2":0.0949849737018842,"3":-0.07360558417173775,"4":-0.09105042934884874,"5":0.08139977754317725,"6":0.1330874553641462,"7":0.09581623913880459,"8":0.006576151283605822,"9":-0.12331891846400231,"10":-0.006241811548629352,"11":-0.17473451523807398,"12":-0.17053436446559103,"13":0.043507256866141375,"14":-0.016211805308733066,"15":-0.04483294947895882,"16":-0.22443087105301365,"17":0.1090642652336564,"18":0.08975106460834702,"19":-0.025575874326611334,"20":-0.25806414542786366,"21":0.08030362707843207,"22":0.05435790505122994,"23":-0.17052872543092193,"24":-0.1452560558904788,"25":-0.05852216943006751,"26":-0.11570443329280854,"27":-0.03830530227849894,"28":-0.1104172868027404,"29":0.10709869376338116,"30":0.1268641686867418,"31":-0.04054006141155125,"32":-0.02800546432087077,"33":0.108645297164913,"34":-0.10179822379553273,"35":-0.02167952782792369,"36":-0.13603679849888362,"37":-0.20929567761718984,"38":-0.17976556968763552,"39":-0.0469563384984595,"40":-0.00968169487206487,"41":0.026664933148959662,"42":-0.07495157545800539,"43":-0.19505058593165026,"44":-0.15311954965432678,"45":-0.16711784974458935,"46":-0.0023559682857958596,"47":-0.06476370954693084,"48":0.07434140120042812,"49":0.028853824189214613,"50":-0.08310548499541837,"51":-0.2017930896214201,"52":0.04639023288894929,"53":-0.070712158092277,"54":-0.03593484040989075,"55":-0.1806489586105616,"56":0.04469462179998584,"57":-0.15293895316640874,"58":-0.13713386437068117,"59":-0.06469742090057444,"60":-0.03931317639068692,"61":-0.09741573121236131,"62":-0.018774443941401694,"63":-0.060595792879816486,"64":-0.045364119860007594,"65":-0.04885458652443868,"66":-0.14025942660481183,"67":-0.11296978107504253,"68":-0.2034511980531235,"69":-0.06764800364875377,"70":-0.21442865756080373,"71":-0.2199778031053206,"72":-0.008755744227408364,"73":-0.12034465698013809,"74":0.12608229133253251,"75":0.053502656256035085,"76":-0.25264036381061833,"77":-0.04788188663671108,"78":0.016361599640655592,"79":-0.0506508314745066,"80":-0.002932326211488567,"81":-0.14751477402547028,"82":-0.01657596731279884,"83":0.0021673251112189606,"84":-0.17394257659289616,"85":-0.014705407449257569,"86":0.035190585300829094,"87":-0.07110971229530319,"88":-0.00038906495244501267,"89":-0.00813937020225331,"90":-0.016579649147468952,"91":-0.12371957033619096,"92":0.08920399338552702,"93":-0.00917281289507167,"94":-0.16874473072435203,"95":-0.02392068301898007,"96":-0.09805868148521314,"97":0.03207088036183283,"98":0.07556154090866189,"99":0.10033183293551293,"100":-0.20954920288594986,"101":-0.04070961781961333,"102":0.1261519608128079,"103":-0.10337372136502665,"104":-0.09714635707631214,"105":-0.025317677864165243,"106":-0.08145306497732703,"107":-0.16223818178273047,"108":-0.023442636642697995,"109":0.07684024858471729,"110":-0.10443860412135728,"111":-0.08316568739167819,"112":-0.056654794778578516,"113":-0.015831956717237628,"114":0.039684574270122466,"115":0.00045427920115888754,"116":-0.032809291082255394,"117":-0.18535173292417825,"118":-0.06267748444501074,"119":-0.17267183598922456,"120":-0.04574166568567477,"121":-0.02485296320140349,"122":-0.0516956437757744,"123":-0.12328270043443242,"124":0.08495082332423966,"125":0.07544167787304587,"126":-0.007695412417071972,"127":-0.07807743802168525,"128":0.018173804451071286,"129":0.16153043020770969,"130":0.013180252548786913,"131":-0.18367345405678326,"132":-0.052792802651681264,"133":-0.10344743126659714,"134":-0.04076567148577519,"135":-0.11600170705456193,"136":-0.0806611748770887,"137":-0.17004924824180456,"138":-0.11090319439473553,"139":0.0538767831019079,"140":0.010145289750220872,"141":0.07633547046234924,"142":-0.020867251797362655,"143":-0.0386571242048816,"144":-0.0692468146493568,"145":0.0865221208216848,"146":-0.18390336846137942,"147":-0.20576893094214035,"148":-0.22922895754547976,"149":-0.189105808330136,"150":-0.14571877562632676,"151":-0.11662482484651576,"152":0.04898394472970563,"153":-0.1378825674685645,"154":-0.021323888503636673,"155":-0.096223542383348,"156":-0.0716964377456366,"157":0.0951167879001127,"158":0.09430259633320125,"159":-0.00737417479342864,"160":0.11998004855024554,"161":-0.14625304269684353,"162":-0.12366154968815585,"163":0.08012184141355026,"164":-0.025731444577345844,"165":0.04622544532758744,"166":0.05411893790821022,"167":-0.18445459441371262,"168":-0.030653102063163802,"169":-0.08799879702392266,"170":-0.21578837435447631,"171":-0.1326020392076794,"172":-0.05882854307383304,"173":-0.18415888967925603,"174":-0.2471635596870745,"175":-0.012691650196399751,"176":-0.06284960947678787,"177":-0.07122388695223306,"178":-0.13395553922307873,"179":0.2021791139686939,"180":-0.04666384616065502,"181":0.07097610001306869,"182":0.2460741582750379,"183":-0.025833771361280084,"184":-0.06676469402040204,"185":-0.11492220136441547,"186":-0.22462102733542313,"187":-0.09805968627873765,"188":0.009825494595019498,"189":-0.03523071909241315,"190":-0.19131897585912558,"191":0.0249680218228215,"192":-0.14850592919243458,"193":0.023409263374331333,"194":-0.09129469196676986,"195":0.04491757183053536,"196":-0.044817044000840876,"197":-0.009382844419736145,"198":0.0604850082606428,"199":-0.18268560847325013,"200":-0.2410005677426453,"201":0.04074219546719584,"202":-0.10566184031096217,"203":-0.01375955698532856,"204":-0.006668455012969783,"205":-0.05749662092612626,"206":-0.06207069004118103,"207":-0.07006164671461197,"208":-0.09304769690014161,"209":0.1563522248302505,"210":-0.09991164322094359,"211":0.08697814633902058,"212":-0.2047503603552829,"213":-0.25661768886973924,"214":0.05987011441495079,"215":-0.13089977941834965,"216":-0.12773317409543133,"217":-0.06960504959200052,"218":-0.24046990043495473,"219":0.013512393597667033,"220":0.06503199266648034,"221":0.051541336424822524,"222":-0.04734168657583422,"223":0.03218598839167296,"224":-0.041195808169818146,"225":0.09914552149798594,"226":-0.3575006775193392,"227":-0.16991128506703823,"228":-0.2799122756365412,"229":-0.18222816976537193,"230":-0.16188850849579905,"231":-0.24741646791394456,"232":0.05161155580846025,"233":-0.23053440942855266,"234":-0.06410726688604501,"235":0.05647798086368341,"236":-0.019720988462688854,"237":0.06960731610757387,"238":0.053059081687811434,"239":0.035346174448116933,"240":0.03732578472964409,"241":-0.2395501106834928,"242":-0.027605426351148377,"243":0.06037174725373868,"244":-0.0951392025392319,"245":-0.041621935980309666,"246":0.017980116584658413,"247":-0.10987734137433781,"248":-0.18371358963636317,"249":0.020869855798860925,"250":0.04346387735739964,"251":-0.032306982069563485,"252":-0.1448877186666102,"253":-0.07125482273535187,"254":-0.11071265546763326,"255":0.053657054815300795,"256":0.14332240739443305,"257":-0.254808017108083,"258":-0.0875526565978441,"259":0.19310911796875915,"260":0.14005155727817076,"261":-0.06709959448745194,"262":0.030980494179767587,"263":0.0462361805987886,"264":-0.0641692936692079,"265":-0.06051019051916736,"266":0.007879363920005236,"267":0.01458447152771655,"268":-0.12789983139096608,"269":-0.18109565775174968,"270":-0.07511094415848739,"271":0.0037974754171629533,"272":-0.13488780155901336,"273":-0.019272628064780164,"274":-0.1671448139432864,"275":0.0012658830284833088,"276":-0.017134816829222913,"277":-0.07896089679878963,"278":-0.10998497828076177,"279":-0.11405013488692507,"280":0.01521314833354785,"281":-0.05816916563929424,"282":-0.06857817406098891,"283":-0.018048061333144745,"284":-0.0866009007952839,"285":0.1067120024040885,"286":-0.1826060256058247,"287":0.03695936790544565,"288":-0.08252317526562213,"289":0.10606604070072133,"290":-0.14898462501778362,"291":0.08113148537097616,"292":-0.19882271047557057,"293":-0.13750856410280085,"294":-0.0553927242396213,"295":-0.12148765717780748,"296":0.08277737253343936,"297":-0.025614961963974277,"298":-0.21798761154337457,"299":-0.0030554597886970334,"300":-0.04766583020651812,"301":0.12382527214240772,"302":-0.11946163234147535,"303":0.11412179131714648,"304":-0.058611777301409346,"305":0.002809923018497661,"306":-0.1971134279291884,"307":-0.05999315362514443,"308":-0.09769864037932456,"309":-0.11985348966917544,"310":-0.11071764677410047,"311":-0.19773719092247485,"312":0.056795070636331255,"313":-0.05417350125876072,"314":0.05494214105984604,"315":0.17288286647743734,"316":-0.0593743303851094,"317":0.08743658643153249,"318":0.08170226306827791,"319":0.13917958746388262,"320":0.03923654818845309,"321":0.0033419753232148907,"322":-0.0508093345402789,"323":0.08354132165836602,"324":0.06459976892355537,"325":0.2136790991482843,"326":-0.06472862138659374,"327":0.01026572299866469,"328":-0.18688943860885412,"329":0.1318914778213989,"330":0.13192284014712313,"331":0.11318710495315168,"332":-0.035823143321473856,"333":0.014946293401528863,"334":0.09491000560835693,"335":0.0437580958630439,"336":0.04826244775946257,"337":-0.10198601115120325,"338":-0.09818540175903298,"339":0.09593809180869556,"340":0.27648746529022805,"341":-0.09865824143260914,"342":0.2329590914106224,"343":0.11669735237763891,"344":-0.05072613745603818,"345":-0.03365470073690108,"346":0.043352100863086655,"347":-0.02617164235969001,"348":0.2360518351353027,"349":-0.205635871987399,"350":0.021442994245701032,"351":0.028822198089817064,"352":0.021546815728292194,"353":-0.055832763255537994,"354":-0.16262519440498008,"355":0.17808472250603666,"356":0.107006949355375,"357":-0.015068460437486409,"358":0.06283096791027039,"359":0.1072756393613831,"360":-0.12197902319045538,"361":-0.11640419139363495,"362":0.12120973869897857,"363":-0.08978699683407426,"364":0.18416706137913277,"365":0.03884551611534913,"366":0.04148962849625426,"367":0.1220691137754905,"368":-0.01926879960255618,"369":0.039872413341047706,"370":-0.15893720348746937,"371":0.1450547776102984,"372":-0.014411062993751632,"373":-0.09215168369566144,"374":-0.05535364846315877,"375":-0.1263723286073918,"376":0.03134469925297717,"377":0.04978860296055416,"378":-0.0286758779266223,"379":0.08822783764020733,"380":-0.026406645688590056,"381":-0.00994790369513263,"382":0.03900021466628237,"383":0.22767015045260117,"384":-0.05629371967459191,"385":-0.006848341695243041,"386":-0.04546641065571369,"387":-0.04501634135556766,"388":-0.20882685076082338,"389":0.08860439868409992,"390":-0.15699856287078356,"391":-0.07075394338113863,"392":0.08853883909807346,"393":0.00242636467227729,"394":0.07151669269072089,"395":0.12762722708583385,"396":-0.0638339399560604,"397":0.07640916335729621,"398":0.018535879164383314,"399":0.1130071865935548}},{"sx":5,"sy":5,"depth":16,"w":{"0":-0.008079295192020091,"1":-0.06395400668154726,"2":0.04427583391389812,"3":-0.03549075716496531,"4":-0.044316572411961894,"5":0.08062367034689051,"6":-0.056565899305959684,"7":-0.054571570751791816,"8":0.03290814376321225,"9":-0.014096578883819027,"10":-0.02922668360486524,"11":-0.05981267612240402,"12":-0.009627293709167472,"13":-0.15596487795355665,"14":0.033177955041034886,"15":0.01716419995340436,"16":-0.04314956097524102,"17":-0.054566785118579916,"18":0.015217113468122673,"19":-0.0712040365584007,"20":0.012571664897629752,"21":-0.07714678117054408,"22":-0.0986030083961637,"23":-0.05062846835896644,"24":-0.06120621408568579,"25":-0.0051878511038708,"26":-0.07947361175011879,"27":0.029933173291883684,"28":0.03827691763850784,"29":0.019529818122334085,"30":-0.0768858733616057,"31":-0.05470277155099136,"32":-0.013272868679042999,"33":-0.09641791469565239,"34":0.004800626241267501,"35":0.03415719968268935,"36":-0.04753440523426937,"37":-0.07810349223404396,"38":-0.06843065346040009,"39":0.01254121182466916,"40":-0.010801694573158962,"41":-0.03094885768119345,"42":-0.07180963571780025,"43":-0.09201334310846428,"44":-0.02647374966290137,"45":0.07530280303084033,"46":0.006825327737623626,"47":-0.0167224507997688,"48":-0.031463742778364924,"49":-0.1013788008051301,"50":-0.0789980535967312,"51":0.0912452182754207,"52":-0.01856245189403066,"53":-0.06065637799642425,"54":-0.09038500985240935,"55":-0.07242359970411613,"56":-0.01147291401475607,"57":0.06418509041650299,"58":0.00452355455536631,"59":0.07047497893873375,"60":-0.056681424205451816,"61":0.04087596478986158,"62":-0.06174861223229471,"63":-0.006458072818306437,"64":0.007468343209679302,"65":0.01754256507028761,"66":-0.054012313677855334,"67":-0.03648295370673913,"68":0.016764835917693247,"69":-0.007166135555148371,"70":0.03600238898106943,"71":0.04671502152702746,"72":-0.056006042470925534,"73":0.022406677088920995,"74":-0.005635866429490365,"75":-0.05722372235736169,"76":-0.020601355992975065,"77":0.03943687335554254,"78":-0.011383423828685799,"79":-0.06953245386405968,"80":-0.046594212457008864,"81":-0.01619896949492674,"82":0.023115351736070173,"83":-0.13140734295875664,"84":-0.052185178187682695,"85":0.026408108265313358,"86":-0.011024337236345784,"87":-0.054040092850713206,"88":-0.058152499452099896,"89":-0.046301099240472536,"90":-0.03120543118160738,"91":-0.025895655669639212,"92":-0.011356412194037227,"93":-0.009547707585347669,"94":0.02424426302329684,"95":-0.018244184134034256,"96":-0.06908345222810856,"97":-0.0719369606905885,"98":0.0008458349994254946,"99":-0.09083223572425593,"100":0.07781529416052575,"101":0.040339673323272804,"102":-0.03698315121069403,"103":0.035936865481427695,"104":0.012424835824175647,"105":-0.04325359703429937,"106":-0.07264878925453548,"107":0.02715098603673212,"108":0.051683889475452355,"109":0.00021470742281748232,"110":-0.04605727835513998,"111":0.05708329362142707,"112":-0.04879206734004214,"113":-0.12520199891830414,"114":0.09488955082833647,"115":0.06256898075162941,"116":-0.08207175520266471,"117":-0.061079434493267255,"118":-0.09656597565533963,"119":0.009233419561958183,"120":-0.02230587182987514,"121":-0.018037889864092334,"122":0.02751967083001767,"123":-0.028585772916968757,"124":-0.024362036152919313,"125":0.010606322967838967,"126":-0.03554743416321697,"127":0.023314144835493954,"128":-0.06193570224397414,"129":-0.06808569826268042,"130":-0.09320199536785695,"131":-0.04310035943228506,"132":-0.06880354671528893,"133":-0.05935105081021305,"134":0.024865411597166914,"135":0.023179059822760088,"136":-0.04207758015613354,"137":-0.018514846189769524,"138":-0.033238655379171124,"139":0.08423695456960167,"140":-0.016931668286944243,"141":0.08626353844417464,"142":-0.06726613709339388,"143":-0.07994379473052832,"144":0.04327880079617068,"145":-0.038834278421027144,"146":-0.015485871558413387,"147":-0.08027893672833468,"148":-0.02165011868880702,"149":-0.08905047616491772,"150":0.008173335293515792,"151":0.0016418688372508324,"152":-0.03321449270287438,"153":-0.15087093946832986,"154":-0.06606919731338888,"155":0.03265099228423167,"156":0.021396943268096213,"157":-0.0730717733126986,"158":0.0034726156627440967,"159":-0.0221962214696508,"160":-0.033418298526344474,"161":-0.05435735424470288,"162":-0.015160303959749474,"163":-0.0678975419892902,"164":-0.0801399760105237,"165":-0.08271646904140542,"166":-0.0522572575936195,"167":-0.08028354776229982,"168":-0.08606799493002736,"169":-0.14986739545531275,"170":-0.10632954891295249,"171":-0.07710448999076955,"172":-0.03634138783414118,"173":-0.008529511945900443,"174":0.005124861309645281,"175":-0.02699320944703221,"176":0.08858875089192374,"177":-0.0025875304598947245,"178":0.0009065488657343685,"179":-0.028924900017971593,"180":0.07279614345327509,"181":-0.020749100917965765,"182":-0.033147636259374356,"183":0.037716504481821435,"184":-0.0790063429404284,"185":-0.019134700993947856,"186":-0.020992810721670255,"187":-0.0638254969609853,"188":-0.005993632952796703,"189":-0.08857052523323025,"190":-0.04510005576067866,"191":0.04467881296978436,"192":-0.051607951328968844,"193":0.002654288046761389,"194":-0.14136661651803958,"195":-0.012006299975975668,"196":-0.006776771308120693,"197":0.04568397147576019,"198":0.07957588003023554,"199":-0.006688006220207242,"200":-0.020125537929347428,"201":-0.12767821011036504,"202":-0.010819537042298764,"203":0.037025760866466355,"204":-0.020025848883295644,"205":-0.05507242557984932,"206":-0.06743698237177388,"207":-0.003223637367022271,"208":-0.05500586398137324,"209":-0.04462807499790138,"210":-0.08110403635998155,"211":-0.01548297691445938,"212":-0.01690948011779814,"213":-0.08541722310676093,"214":0.029091244345420545,"215":-0.09330007914137417,"216":-0.12529450332034242,"217":0.023433169000620514,"218":-0.00820371339903898,"219":0.01089999982589261,"220":0.03249247729861072,"221":0.04208866660224972,"222":-0.08742254515411794,"223":-0.010373507208564475,"224":-0.023096643621155825,"225":-0.05626056189286703,"226":-0.007797125839958366,"227":-0.021167108191194967,"228":-0.1508019158410103,"229":-0.026279231317461783,"230":-0.06918762496476931,"231":-0.085082220053382,"232":-0.07781617733677046,"233":-0.08061701047482098,"234":0.03073930026778291,"235":0.004023844803745896,"236":-0.055341093812941285,"237":-0.1260847437580772,"238":0.03868263787087302,"239":-0.03161304803751664,"240":-0.00038086897340282983,"241":0.0014476716196940873,"242":-0.08153554575478823,"243":-0.025088220881228883,"244":-0.027055307640410982,"245":-0.0013852942111426609,"246":-0.0607161060776999,"247":-0.04009312232598582,"248":0.044086545141001306,"249":-0.03994087508527826,"250":0.006702457648485827,"251":-0.033942981059075145,"252":0.05644503665323657,"253":-0.0057088838446855,"254":-0.04044316116462509,"255":-0.03776652972039075,"256":-0.1077776265752294,"257":-0.05389742428091006,"258":-0.10830564626074446,"259":-0.03842902141899125,"260":-0.12267574679545994,"261":-0.005466300617320756,"262":-0.01519008535886245,"263":-0.009830030857790072,"264":-0.11153478237008217,"265":0.001520772340089939,"266":-0.028920784027546883,"267":0.01647963032979382,"268":-0.03673180085625869,"269":0.012699089252451919,"270":-0.06311667211870801,"271":-0.031988266921568115,"272":0.021109289440211332,"273":-0.0222327374726002,"274":-0.05184800085978243,"275":-0.0014428395840328956,"276":-0.06526653072079111,"277":-0.0002948881189654,"278":0.00535185024227933,"279":0.054737196022191494,"280":-0.015618946876754332,"281":0.07397303323512047,"282":-0.028731465891017105,"283":0.040965489280242566,"284":-0.04122761400589008,"285":-0.03670095987057053,"286":-0.016234585577655034,"287":-0.049559297667354174,"288":-0.01081647234667269,"289":-0.09490201758400443,"290":0.006824516555031081,"291":-0.03490398973874737,"292":0.08144439818924844,"293":-0.012482818420565455,"294":-0.022311808544949026,"295":0.09478004625985248,"296":-0.06649421053971064,"297":-0.1074025596102866,"298":-0.051604785927881924,"299":0.006322577514276107,"300":-0.05249265263726233,"301":-0.06643459713550068,"302":0.0041124997215202,"303":-0.04123819616790741,"304":0.004107686869870267,"305":-0.028500858818517143,"306":0.0013922593755541172,"307":-0.026253408070110937,"308":-0.012061351684378796,"309":-0.010715008147292808,"310":-0.08591871334406148,"311":-0.05607508546827168,"312":0.03458707233688758,"313":-0.03026634290291709,"314":0.02932217066277406,"315":0.06900088554399866,"316":0.033707181730852485,"317":-0.01322394057135487,"318":-0.004968632125277072,"319":-0.049256350218891895,"320":-0.10946352731449843,"321":-0.08687706027847962,"322":-0.008412759296479394,"323":-0.013619694244812146,"324":-0.03694756646453275,"325":-0.05217768562134056,"326":-0.040660375573554224,"327":-0.09922102853479677,"328":-0.026917504683681665,"329":-0.025055439454835893,"330":-0.04470420956871994,"331":-0.0023703896683178647,"332":-0.0017011302742286842,"333":-0.022093826180459554,"334":-0.09611887842472457,"335":0.01726675165813926,"336":-0.02487631135879295,"337":-0.011632041690574711,"338":0.04760451864928052,"339":0.001481911944493219,"340":0.017497714405836765,"341":-0.07670936483690169,"342":-0.04908311461900984,"343":-0.046409530251486454,"344":-0.12501943483285513,"345":-0.010645460357608952,"346":-0.027006019814116707,"347":-0.00898526609055268,"348":0.02809773475822375,"349":-0.0459120795646996,"350":-0.03149459257489115,"351":-0.040466919915078045,"352":-0.15889212942360822,"353":-0.0635487497474613,"354":-0.056111859393928876,"355":-0.01537344807868809,"356":0.03179003228661087,"357":-0.005551996342107188,"358":0.015415124284547969,"359":-0.08775543730524508,"360":-0.06642986447163107,"361":-0.015442106948834407,"362":-0.13894145549184153,"363":-0.00648937180596031,"364":-0.00643894423112181,"365":-0.055738126240784024,"366":0.02166579475314587,"367":0.016746656514642445,"368":-0.05696607306770998,"369":-0.10174437708745303,"370":-0.01063210016114414,"371":-0.018911211104217302,"372":-0.08517099241244876,"373":-0.005372096072107016,"374":0.04671452706176503,"375":0.01843031605721078,"376":0.027312924347439635,"377":0.018355696335063138,"378":-0.1099062649430027,"379":-0.037900138725302325,"380":0.0029013120982533313,"381":-0.05148844660059358,"382":-0.04794676727305741,"383":-0.027842854300445107,"384":-0.07265216079120865,"385":0.0036910593799145686,"386":-0.06911924847106268,"387":-0.11106069785050694,"388":-0.01694420860969875,"389":0.005302355482490019,"390":-0.06537906819241561,"391":0.010426082323010611,"392":-0.030328013806675366,"393":-0.1080521172434796,"394":0.038035150177564744,"395":-0.03328063156106311,"396":-0.024667331576598953,"397":-0.0870132996749341,"398":0.003710527590885457,"399":0.06026872937381951}},{"sx":5,"sy":5,"depth":16,"w":{"0":0.05048593190579845,"1":-0.1362163746998732,"2":-0.14728722635105046,"3":0.056668208634812256,"4":0.22462389061203436,"5":-0.1786071231911872,"6":0.004427353807784957,"7":0.06218254078815899,"8":0.1120561888136362,"9":-0.14908509182892696,"10":0.0006970998950186023,"11":-0.049955709263469476,"12":0.17701799289673165,"13":0.17678379647427903,"14":-0.0026352432545301407,"15":-0.0007270727646510402,"16":0.03186164544371152,"17":-0.07305914704692461,"18":-0.02835957470982888,"19":-0.04653420047051501,"20":0.050385352891503705,"21":-0.09071403126073646,"22":-0.011988028569214429,"23":-0.02006858148118219,"24":0.05670976168187165,"25":-0.18100653362162364,"26":0.13533618966910443,"27":-0.02514882072130967,"28":0.1356319256594176,"29":0.17045298981030835,"30":-0.11882434725974082,"31":-0.0025978838511584216,"32":0.05860446381317736,"33":-0.16992800663798674,"34":-0.026776918348714412,"35":-0.06658457947340082,"36":-0.07510326012560864,"37":-0.1404763346893115,"38":-0.016762996318911347,"39":-0.018501074747443596,"40":-0.20816673307700234,"41":-0.019779435149528617,"42":0.05577920622433314,"43":0.05801796774249723,"44":0.21752125768482508,"45":0.14212285143312442,"46":-0.11210490035523323,"47":0.09127550850051919,"48":0.1251546846503749,"49":-0.1040572667681053,"50":0.000002211286586985056,"51":0.06517837049121082,"52":-0.17315022141344177,"53":-0.01763215713086822,"54":0.007664259405024673,"55":0.08421029680375942,"56":-0.2215826950190648,"57":-0.05122345492926221,"58":0.11921491299282486,"59":-0.016496951457232435,"60":-0.02030322703808604,"61":0.09733595963446443,"62":-0.2847903746682555,"63":0.11931443512844699,"64":0.023181219417721784,"65":-0.11655131492883275,"66":0.034402792242013557,"67":-0.1916215720732452,"68":-0.10006165748042951,"69":-0.04014176891631583,"70":-0.034152404635122424,"71":0.005836279259297022,"72":-0.11019439181685117,"73":-0.1455492227698887,"74":-0.010476945773355369,"75":-0.02387253509151293,"76":0.023987576552554415,"77":0.21267040316529134,"78":-0.23568604268659715,"79":0.009113336851873953,"80":-0.001623266682268504,"81":-0.18930723655002601,"82":-0.13910359957256202,"83":0.008626791717959069,"84":0.11946875487597977,"85":-0.08529235708531194,"86":0.05889757314355262,"87":0.13104293942370265,"88":0.017263582007236464,"89":-0.020665558012775982,"90":0.030661282960292562,"91":0.07753054394675449,"92":0.14775356509903922,"93":0.05392193836065011,"94":-0.1853553615249882,"95":0.06538700392884329,"96":0.11301395532650607,"97":-0.24204328303427955,"98":-0.02649900147786807,"99":0.02816535550243098,"100":0.0042792862167714855,"101":-0.09881144557241194,"102":0.04764207122690664,"103":0.04544100854826941,"104":-0.13000702431820294,"105":-0.06768327697356474,"106":0.09054223507526861,"107":0.08365924372861157,"108":0.10908108536322791,"109":0.10912237359952137,"110":-0.12375357051100161,"111":0.03442976454300806,"112":-0.039596786706685816,"113":-0.24088837214395745,"114":-0.04757483618140767,"115":-0.17605819173740608,"116":-0.1999124903835221,"117":0.01145201564578831,"118":-0.05625674515819046,"119":-0.038423067231024705,"120":-0.1331124554264039,"121":0.003764681286398076,"122":0.1354060336046579,"123":0.1353003472676403,"124":0.0600662533259328,"125":0.08572228814655646,"126":-0.04512426412601328,"127":0.03824556433684173,"128":0.029522855169906305,"129":-0.14141409763195445,"130":-0.01964196287778309,"131":-0.06224872754553318,"132":-0.04402716620714584,"133":-0.15434634009845763,"134":-0.01970042377620776,"135":0.05195888447557554,"136":-0.033660507169579044,"137":-0.05123362709548252,"138":0.05811591760203396,"139":0.110367473630875,"140":0.11788625409858115,"141":-0.04546450409697074,"142":-0.08443897402981652,"143":0.047767379595283294,"144":0.03359359233867309,"145":-0.10346009165139115,"146":0.06564344821166403,"147":0.04496384921708759,"148":-0.035220412931888836,"149":-0.03871407252356563,"150":-0.02999998411460356,"151":0.085836044336482,"152":-0.12130557481416714,"153":-0.06397759621580426,"154":0.05735025541114321,"155":-0.10023112826631905,"156":0.15884464772219162,"157":0.03181073606693377,"158":-0.13379527395558194,"159":0.011225063475177358,"160":0.003573132473740404,"161":-0.18672461879456753,"162":-0.04920979670165798,"163":0.013094978117025502,"164":0.1764292250549341,"165":-0.07244439646323428,"166":0.19318285016601278,"167":0.04830321919031551,"168":0.06857428600218818,"169":0.1198508550558514,"170":0.004116369535459742,"171":0.0540407997371137,"172":0.04392291249978264,"173":0.08930468309631563,"174":-0.16959276148911304,"175":0.11339856428651147,"176":-0.0412640884144058,"177":-0.2330121543470086,"178":-0.1540493419440976,"179":0.07678269519918926,"180":0.06143821256180712,"181":-0.005923443695000931,"182":0.15480755072194424,"183":0.012193188582867175,"184":-0.0806935443330163,"185":-0.1226104383444261,"186":0.14372737345785946,"187":0.09809854206605464,"188":-0.03648202321952975,"189":0.06965511193566193,"190":-0.1370562562445092,"191":0.06841773474177902,"192":-0.0022335268183234,"193":-0.14803692626796514,"194":-0.07496284187189492,"195":-0.0362380291943991,"196":-0.13389970317985408,"197":-0.0421674482846922,"198":0.0890046783564693,"199":-0.05985026670016843,"200":-0.12138864772321872,"201":-0.03040541127701118,"202":0.11659719315665099,"203":0.09067675966660413,"204":-0.11564117539458928,"205":0.1301093468495865,"206":-0.17092441025792846,"207":0.029530544754306973,"208":0.020241001813092588,"209":-0.16825129753658052,"210":0.0006748930274546434,"211":0.11341015349903488,"212":-0.09899161213551207,"213":-0.08852834112128098,"214":0.11041192857104001,"215":-0.06439075243165601,"216":-0.1592892432294202,"217":-0.026243882184457133,"218":0.1336618269989498,"219":-0.011628569561225063,"220":-0.10250022694411902,"221":0.04606018950962069,"222":-0.2652729835809158,"223":-0.007561735689955828,"224":-0.06214517100259347,"225":-0.22909834698843415,"226":-0.08540719888489609,"227":0.14578337308203435,"228":-0.076544537810692,"229":-0.17097920559260554,"230":0.16958081012001583,"231":0.051559448184896654,"232":-0.03545224964263537,"233":-0.048171699616448356,"234":0.09092676741874381,"235":-0.027364882154396395,"236":-0.16957523535005894,"237":0.023998443380904955,"238":-0.1694333562844119,"239":-0.04803937887498722,"240":0.05847630077175473,"241":-0.11879524181029355,"242":0.0022657157561077864,"243":-0.13021394313920776,"244":0.2198903095499201,"245":-0.10530820471991156,"246":-0.012528156198731148,"247":0.11478581923490347,"248":0.10397455674970046,"249":-0.01341823763222356,"250":-0.041129037251550496,"251":-0.004556784508447567,"252":0.021122063635271134,"253":-0.07473826291943804,"254":-0.23258855687166471,"255":-0.00672187304278197,"256":-0.0017680299452495136,"257":-0.13900042262359388,"258":-0.02308321621870651,"259":-0.08982364073898617,"260":0.027966513449851828,"261":-0.061942278036947615,"262":-0.010189536981531093,"263":-0.11451576405399912,"264":-0.009662015858225582,"265":-0.1370792595035255,"266":-0.06730722899224613,"267":0.032555622333202236,"268":0.027553425801868855,"269":-0.03986214448291908,"270":-0.007304499514199724,"271":-0.006158271857860481,"272":0.0799066454266526,"273":-0.307294617384906,"274":-0.21250067580827167,"275":0.011554322040055923,"276":-0.12811631764251208,"277":-0.051571313000672796,"278":-0.1555522825746257,"279":-0.1737932979436135,"280":0.007494366769724865,"281":-0.07735775209381117,"282":-0.03984050889182926,"283":-0.1446919533303425,"284":-0.16993077853729766,"285":-0.08428395318715133,"286":-0.16566627254726587,"287":-0.10928637996345048,"288":-0.010464887487137885,"289":-0.20101156636754683,"290":-0.013061564846114291,"291":0.12970381732611372,"292":-0.09877442201121969,"293":-0.02689905725886496,"294":-0.0726625218772367,"295":-0.11461007429022371,"296":0.05524810673459711,"297":-0.12303262548902005,"298":0.019034527209531554,"299":-0.15027213112727236,"300":0.0018461715582370566,"301":0.03606857600678393,"302":-0.20399193457308717,"303":0.0018531963925290987,"304":-0.03681023773238753,"305":-0.12651554407063276,"306":-0.14054013471130056,"307":0.006248203301960269,"308":-0.28429924677033713,"309":-0.08274044637260712,"310":-0.06538577388443338,"311":-0.0895910129103718,"312":-0.012704767938820843,"313":-0.04026626861805279,"314":0.014741732068189507,"315":-0.07344606053651963,"316":0.015556342279775478,"317":-0.06358902034220276,"318":-0.07573031035794694,"319":-0.02914834941442319,"320":0.04718871668582275,"321":-0.212981234336005,"322":-0.005920429134712746,"323":-0.12857278811533063,"324":0.21290385165532105,"325":-0.043079557010632284,"326":0.019694653162048114,"327":0.25607496381619915,"328":0.18637392050437698,"329":-0.011684982147053056,"330":-0.0710482155069984,"331":0.011039134832407064,"332":-0.03861331521921454,"333":-0.22402002075478974,"334":-0.06011257531226529,"335":-0.037817491579944615,"336":-0.1217613073606612,"337":-0.25458965634587205,"338":-0.0990359905520912,"339":-0.1482836581519638,"340":-0.10431787130077443,"341":-0.19678839942205137,"342":-0.031922589061058895,"343":-0.08147217662161663,"344":-0.00024246064487430763,"345":-0.15936416824684602,"346":-0.15789100975603795,"347":0.0463417582190874,"348":-0.08629092018567071,"349":-0.04901758500785232,"350":-0.025577981142159707,"351":0.019259405615395984,"352":-0.14197920346429088,"353":-0.28943968696039546,"354":-0.1351526792982556,"355":-0.05721073536321506,"356":-0.10115676443833262,"357":-0.09689474144397393,"358":0.0001743160086699739,"359":-0.258502452210381,"360":-0.09674360029848292,"361":-0.14177586590345792,"362":-0.06147030912044906,"363":-0.22764826130857205,"364":-0.15118649883696228,"365":-0.025129943936550665,"366":-0.1181733131042312,"367":-0.2017851972661209,"368":-0.07610257582360802,"369":-0.23707973994134823,"370":-0.06383463846992718,"371":0.008706855010394084,"372":-0.10076992700663687,"373":-0.084041515720713,"374":0.02401907067361159,"375":-0.14468524419958348,"376":-0.12041367293140932,"377":-0.055450037304965595,"378":-0.10167541302893654,"379":-0.07490776930678057,"380":-0.06627646311239012,"381":0.004740179372035848,"382":-0.04445430752810447,"383":-0.027444380633832643,"384":-0.09757163877716599,"385":-0.22854976442078323,"386":-0.029322438729237628,"387":-0.06816858327408486,"388":-0.2260781249029633,"389":-0.05077783575027675,"390":-0.11374526110927705,"391":-0.13554313990665784,"392":0.002014391139330083,"393":-0.0052733962706647585,"394":-0.17275095422576744,"395":-0.06968831979627355,"396":-0.18463735209784773,"397":-0.05517350344990455,"398":-0.04747986466222008,"399":-0.013053471785223418}},{"sx":5,"sy":5,"depth":16,"w":{"0":-0.33405082117252494,"1":-0.03431573114593949,"2":-0.0863118458894267,"3":0.012111471160012493,"4":0.02968778420087089,"5":0.09151219149707354,"6":0.1487852629293061,"7":-0.011133863540564292,"8":0.0018241690866244718,"9":-0.028713421951185026,"10":0.02940024244158597,"11":0.02061814383269412,"12":-0.04266223569305305,"13":-0.20952173068229388,"14":0.09432582952110044,"15":0.0791409092110522,"16":-0.08503629568503435,"17":-0.09663487784911506,"18":-0.08853717038192471,"19":0.039645981369148674,"20":-0.11996900380224607,"21":0.04211273444697337,"22":0.07426710040342192,"23":0.07292530608160586,"24":0.06475988652659981,"25":-0.02139122319653639,"26":0.08065685176933317,"27":0.08558398978646957,"28":-0.10407389164467586,"29":-0.2075011050473719,"30":-0.03634023433329476,"31":0.1534384599349602,"32":-0.37063145546191606,"33":-0.07939290001959277,"34":-0.0011721886604127846,"35":0.20970834343099454,"36":-0.03014722350179589,"37":0.11688626755994831,"38":0.063691753217882,"39":0.23528594894809218,"40":0.1107024623821408,"41":0.03675020209906079,"42":0.1982098046222263,"43":0.02635433137129631,"44":0.005030864441935085,"45":0.06933893396003622,"46":-0.052625726401783875,"47":0.08962952254241348,"48":-0.08512772970349798,"49":-0.045271823007446366,"50":0.19040105280506486,"51":0.1523629574542061,"52":0.15020682557296747,"53":0.15046546188608653,"54":0.02452156444917829,"55":0.13821445204079405,"56":0.15134379168010262,"57":0.16711091426113914,"58":0.14671995869354304,"59":-0.04541752141860047,"60":0.18553583910144883,"61":0.007406700731535337,"62":0.10119309114570153,"63":0.12211705207796651,"64":-0.00023841809214104092,"65":-0.05789488404795214,"66":0.19864800217691145,"67":0.053951096869889595,"68":0.09320896936581488,"69":0.2751492015340389,"70":-0.010723444199323496,"71":0.23714671603496043,"72":0.06401621145257884,"73":0.08470983917761436,"74":0.06748338190626532,"75":-0.06951214170421086,"76":0.14030223883234486,"77":0.11692313181560497,"78":0.029041550129259075,"79":0.16574846710204866,"80":-0.35037699539132655,"81":0.010882780192529787,"82":-0.08095704371501858,"83":-0.1319770235753104,"84":-0.006565220837128069,"85":0.02339936424224393,"86":0.11356186312541819,"87":-0.05581905061552488,"88":-0.09562456747424362,"89":-0.02042139435722363,"90":-0.09811870664827765,"91":0.12472985166874721,"92":-0.048848922581959935,"93":-0.2508064668335717,"94":0.002053238807031308,"95":0.0755236403578027,"96":-0.13003461341767228,"97":-0.04018231914124093,"98":-0.13538130901118858,"99":0.08652061403299331,"100":-0.14546117632656924,"101":-0.0196974897993986,"102":0.050051580384133404,"103":0.13536742451844683,"104":-0.1718807373494083,"105":-0.06796935283853935,"106":-0.1178998821427971,"107":0.0158339970579995,"108":-0.21042802153706744,"109":-0.19962768616559384,"110":-0.07922179542930576,"111":-0.1413761597795609,"112":-0.1536814779927392,"113":0.003035663142768657,"114":-0.02073999638688907,"115":0.07973228879156659,"116":0.011052190168463247,"117":0.1288970647334976,"118":-0.027567421120370042,"119":0.0634868972850128,"120":0.0549517861444691,"121":0.0629969030055543,"122":0.09981110215106002,"123":0.1385840410369539,"124":-0.13003865921413232,"125":-0.0995283356660709,"126":0.05477458032413369,"127":-0.0230059102908504,"128":-0.022610040105374974,"129":0.005049865168303862,"130":0.07190541367932651,"131":0.2705018654722828,"132":0.12186467649078402,"133":0.18691201147280345,"134":-0.07366742595812056,"135":0.24179644678018247,"136":0.03783884562151003,"137":0.20512109373814347,"138":0.043153964880814334,"139":0.03187597936022994,"140":-0.0638075361040058,"141":-0.075632392084256,"142":-0.021268439112268656,"143":0.12380080248601413,"144":-0.0722464968763663,"145":-0.18983747352380392,"146":0.19316449018112805,"147":0.10238767811083604,"148":0.04636040655754375,"149":0.23711328596185194,"150":-0.215892649259511,"151":0.2998023195499292,"152":0.08672322071990834,"153":0.12292351479306346,"154":0.08887538449270842,"155":-0.015198046826113013,"156":-0.07799489876287782,"157":0.03654283135614536,"158":0.04780728577762532,"159":0.08800625940444773,"160":-0.3008012762533472,"161":-0.057019231601455916,"162":-0.09153024679830263,"163":0.0282845279762462,"164":-0.01840969700142469,"165":0.15249861304166817,"166":0.10402793377134692,"167":-0.06410206143406288,"168":-0.1619234586428802,"169":-0.18326659415527352,"170":-0.1197007917672707,"171":0.10468900682447804,"172":0.0738535617247286,"173":-0.17630130735644006,"174":0.06128046895360018,"175":0.07539406031225719,"176":-0.20287787304673502,"177":0.009601807377834804,"178":-0.11164672128237942,"179":0.05978288230886604,"180":-0.2837936398377241,"181":-0.03375370637800271,"182":0.28525703900029903,"183":-0.12220018960806313,"184":-0.2582366048255617,"185":-0.10541349204345443,"186":-0.047626624939999244,"187":-0.08365365731371557,"188":-0.21308215637697922,"189":-0.21333739820640324,"190":-0.096238286873284,"191":-0.12791392760813752,"192":-0.05999881039860698,"193":-0.02213251436976746,"194":-0.1279548425328916,"195":0.11259167352070369,"196":-0.13062778469533715,"197":-0.04321725133285234,"198":0.22266787123320267,"199":-0.09007571107226123,"200":-0.0842550216863849,"201":-0.07059565649286603,"202":0.002609965251244766,"203":0.1701989636817386,"204":-0.1433985195779772,"205":-0.23307966050002002,"206":-0.06822040045378878,"207":-0.20426008749463484,"208":-0.1948380113893257,"209":0.12522506121362503,"210":-0.02129003357294731,"211":0.2567604672556998,"212":0.02243053035961875,"213":-0.010709063302830037,"214":0.21740591185714803,"215":0.09859346699359237,"216":0.002366329023630893,"217":0.09557506913585902,"218":0.016254724794891876,"219":0.1160598230310049,"220":0.06876432414836862,"221":-0.08076527529174743,"222":-0.04446563173368385,"223":-0.00886573943574804,"224":0.00124317431050116,"225":-0.014064346447413403,"226":0.13717558518018974,"227":0.0775564163841131,"228":0.09745050352757322,"229":0.22812332527082704,"230":-0.09053754426443097,"231":0.26754764638677747,"232":0.1026347708985951,"233":0.016054929139856573,"234":0.12127482509049095,"235":0.02099050594577663,"236":0.0004986951459450122,"237":-0.06668131051753011,"238":0.11138151017311634,"239":0.1589439540050639,"240":-0.2578096062001741,"241":0.13197056501931242,"242":-0.09459457208622901,"243":-0.0019194881910094116,"244":-0.1330479110133102,"245":-0.14791327381041697,"246":-0.03416223467923677,"247":-0.3320554969751208,"248":-0.13887245935122147,"249":-0.01171579996850381,"250":-0.011264528240118903,"251":0.19051314327353294,"252":0.09109608336134241,"253":-0.2965203684860463,"254":0.2344315602810574,"255":-0.02381104175791874,"256":-0.15066419543333592,"257":0.15878622904859147,"258":-0.24291407613589402,"259":-0.07100850655289642,"260":-0.0471341514621783,"261":-0.0687140921639286,"262":0.15418133293194555,"263":-0.2444137131125077,"264":-0.08410175425439523,"265":-0.1001248118979672,"266":-0.08124449049234206,"267":0.032773886843076215,"268":-0.16361022945784406,"269":-0.3018538374310643,"270":0.012563468286994043,"271":-0.11732508198754385,"272":-0.08292296715678682,"273":0.042455776635465625,"274":-0.20927889543039022,"275":0.2617172609485628,"276":-0.014466474363387659,"277":-0.219988126359,"278":0.31716698095683793,"279":-0.09370206353472892,"280":-0.16540325881133378,"281":-0.04907969750962487,"282":-0.12224895337867488,"283":-0.052856625593491156,"284":-0.08858189901257789,"285":-0.2708643790813495,"286":-0.2245814430057604,"287":-0.14024550586381462,"288":-0.12249904297508706,"289":0.05929318029520043,"290":-0.13069630931024767,"291":0.30569695619534115,"292":0.032941307384268814,"293":-0.06544639691952348,"294":0.1633446515233175,"295":-0.11947621350751589,"296":-0.04693000024116191,"297":-0.01029456847962699,"298":0.13501432482021497,"299":-0.012472374541155741,"300":0.025207452548437096,"301":-0.2311472760244436,"302":-0.10428225875636649,"303":0.04536187327820798,"304":-0.1848490486879595,"305":-0.0811063047639042,"306":0.0803790219261337,"307":0.07531643205258243,"308":0.06915774837858618,"309":0.14104889919921493,"310":-0.12013556810906799,"311":0.007702159005212276,"312":0.15613689809157202,"313":0.08691538060831468,"314":0.21045584913735774,"315":-0.10179216628072887,"316":-0.04414163756356446,"317":-0.05219088402596275,"318":-0.0010673376465674925,"319":0.07706634233161187,"320":-0.6039510074699196,"321":0.22238383326415362,"322":-0.0571694395648285,"323":0.02099711535367373,"324":-0.04147399645646899,"325":0.03760325378518646,"326":0.028487104816493643,"327":-0.3743649038870388,"328":-0.11434073026287456,"329":-0.09186844857329624,"330":-0.008057561244757582,"331":-0.10037367301822249,"332":0.011425557572178035,"333":-0.24087279515879362,"334":0.22707317179167405,"335":0.027954363676300217,"336":-0.3679676812998141,"337":0.021696289006287284,"338":-0.13816127026086478,"339":-0.062264416571497484,"340":-0.1398292618558107,"341":-0.1494201914390596,"342":0.11290578396322169,"343":-0.3037649623227149,"344":-0.17244736813059514,"345":0.012175711411543699,"346":-0.022526680342102104,"347":-0.0675885125140226,"348":0.02620332812482134,"349":-0.25190059499011686,"350":0.009182912153547844,"351":-0.14004672457508538,"352":-0.26690600857661073,"353":0.009537237217234446,"354":-0.21546961415506422,"355":0.09012356976879883,"356":0.05576682897291101,"357":0.028706809942388792,"358":0.10335376057010291,"359":-0.23908608300326678,"360":-0.08473876511619462,"361":-0.06655724789357886,"362":-0.026922756567284382,"363":-0.13008747827696773,"364":-0.053718963468981897,"365":-0.2583167830037563,"366":-0.1999388622838889,"367":-0.18586406093936256,"368":-0.10841232725386594,"369":0.008459846411445487,"370":-0.10996385986098138,"371":0.20344189607202137,"372":-0.0742812784748532,"373":0.034111967443615124,"374":-0.05557768782289598,"375":-0.1140546886533692,"376":0.06908397316933981,"377":-0.01167779065129752,"378":0.09146279139174596,"379":-0.09277237268645436,"380":-0.06609204714983141,"381":-0.08660433420915772,"382":-0.08006413043531886,"383":0.09596728487391612,"384":-0.16053942556827183,"385":-0.017662044931824345,"386":-0.028896451981393984,"387":0.09834092945443972,"388":0.08325792256588427,"389":0.0808447694905985,"390":-0.029298228802516528,"391":-0.005158046305204085,"392":0.10133594795377354,"393":0.11286845144431716,"394":0.17693094234137965,"395":-0.08083183006449485,"396":-0.13181981080274674,"397":-0.10948174085842476,"398":-0.05780282999777741,"399":0.21457927503442498}},{"sx":5,"sy":5,"depth":16,"w":{"0":-0.35593437749800666,"1":-0.03170768885396377,"2":0.09646537143643102,"3":-0.01860588946703671,"4":-0.13681405272794187,"5":0.21263316829454385,"6":-0.04014652351585284,"7":0.11887584466621784,"8":-0.010482792585880666,"9":0.06762480500581472,"10":0.06362180311053033,"11":0.14192857742957016,"12":0.10020082350434581,"13":0.1956809031949837,"14":-0.017946101890155552,"15":0.2020292345912795,"16":-0.4142221189281134,"17":-0.09213689935194362,"18":0.15187964837790538,"19":-0.08355271424250403,"20":-0.10175332667456512,"21":0.10834870675498647,"22":-0.07675974053074314,"23":0.08662098867452207,"24":-0.1517553136942103,"25":0.028000762778456048,"26":0.01509689314423628,"27":0.08798065047110294,"28":0.010165960400476667,"29":0.15301026685125438,"30":-0.029610597575922225,"31":0.005243355315863128,"32":-0.508960028855738,"33":-0.023315016134130284,"34":-0.02625286700702514,"35":-0.04744740737163646,"36":0.12694417618930778,"37":-0.2504533085929158,"38":0.09669131595300952,"39":-0.23703409775236134,"40":-0.38801034542434104,"41":-0.12481788858422578,"42":-0.33449747311435785,"43":0.22994354785157653,"44":0.18950181622640944,"45":-0.017315869576416027,"46":-0.3720402237987952,"47":-0.07007194431766824,"48":-0.32730393582330475,"49":0.06926436838437895,"50":-0.16368526362249164,"51":0.010771196924502511,"52":-0.3061527186438671,"53":-0.4731026765687357,"54":0.04289011051181756,"55":-0.0995839251249465,"56":-0.47374114453408145,"57":-0.14734520962144682,"58":-0.30104979609441096,"59":0.11107608776601477,"60":0.19372223513480993,"61":-0.03462075373946439,"62":-0.27146078280897473,"63":-0.12422013129726107,"64":-0.2171926495087567,"65":0.07537201252180303,"66":-0.38370978558942886,"67":-0.040537933887955034,"68":-0.2197937396044784,"69":-0.5569848996956684,"70":0.09767129142662472,"71":-0.09271539347595663,"72":-0.47378908037762985,"73":-0.2920225400547663,"74":-0.3403432839205014,"75":0.06811773746478575,"76":0.15478714323685322,"77":-0.025747304959278905,"78":-0.11175064303609841,"79":-0.12920056919689327,"80":-0.36080821344611047,"81":-0.09243496170018482,"82":-0.0047956637256805325,"83":0.04174231274686355,"84":-0.16141247506160122,"85":0.17705591994220696,"86":0.04330116076720008,"87":0.04973564424561592,"88":0.005570005791328984,"89":0.13182896063247146,"90":0.1217982013400014,"91":0.0801654711889388,"92":0.06375531198248577,"93":0.03092154993264128,"94":-0.08520960316157365,"95":0.08426693208837543,"96":-0.5649185579977081,"97":-0.05712086488171354,"98":-0.02150832056221663,"99":-0.10042865954067562,"100":-0.15561005057172422,"101":0.1308420554075769,"102":0.11286907595281284,"103":-0.06348662187985332,"104":-0.08541973955717322,"105":0.11048791502825389,"106":-0.006135053860259521,"107":0.28866415847240856,"108":0.04816880150781483,"109":-0.012895948440932389,"110":-0.15863261575340576,"111":0.05355398338487682,"112":-0.45738653582643185,"113":-0.21472179611470024,"114":-0.015429181107312867,"115":0.17156288251961577,"116":-0.05538125575519584,"117":-0.1970705059724677,"118":0.02991898928695977,"119":-0.08537623775076848,"120":-0.19952696754173502,"121":-0.056340219766508916,"122":-0.0157852801648489,"123":0.052763319874011894,"124":0.10095111943752598,"125":0.004584249762229444,"126":-0.2495347921208932,"127":-0.148653356014784,"128":-0.33357985602802676,"129":-0.12667816234667084,"130":-0.30682159842506496,"131":-0.06709030474026895,"132":-0.31930383581306215,"133":-0.35049836338854967,"134":0.07641444676432536,"135":-0.09817510731542169,"136":-0.12942837465397306,"137":-0.10156105800713561,"138":-0.017440547922628682,"139":-0.14812218695416152,"140":0.04405687921804117,"141":-0.24622800474833664,"142":-0.024139565086146928,"143":-0.011376426060138898,"144":-0.18074551768387354,"145":0.023251672574950873,"146":-0.41413390505646397,"147":0.12657531892669932,"148":-0.046803320797002085,"149":-0.30978517293763136,"150":0.0685525726110209,"151":-0.11103526481113174,"152":-0.10687304805107194,"153":-0.23972470645164487,"154":-0.10663691901126686,"155":-0.1126983259947014,"156":-0.10393337140312732,"157":-0.31430168272269887,"158":-0.08745593187996424,"159":-0.11938782232320662,"160":-0.41591347458763905,"161":-0.32549042688926705,"162":0.09195731388948664,"163":0.03831193344707492,"164":0.04827178434813991,"165":0.09792398746499152,"166":0.22999221273829526,"167":-0.020010455968834454,"168":0.09010142203021741,"169":0.07604565832144973,